{"learner":{"attributes":{},"feature_names":["hours_of_sleep","stress_level","medication_taken","eeg_feature_1","mri_lesion_present","sleep_lag_1","stress_lag_1","medication_lag_1","eeg_lag_1","sleep_rolling_avg_3","stress_rolling_avg_3","sleep_rolling_avg_7","stress_rolling_avg_7"],"feature_types":["float","int","int","float","int","float","float","float","float","float","float","float","float"],"gradient_booster":{"model":{"gbtree_model_param":{"num_parallel_tree":"1","num_trees":"150"},"iteration_indptr":[0,1,2,3,4,5,6,7,8,9,10,11,12,13,14,15,16,17,18,19,20,21,22,23,24,25,26,27,28,29,30,31,32,33,34,35,36,37,38,39,40,41,42,43,44,45,46,47,48,49,50,51,52,53,54,55,56,57,58,59,60,61,62,63,64,65,66,67,68,69,70,71,72,73,74,75,76,77,78,79,80,81,82,83,84,85,86,87,88,89,90,91,92,93,94,95,96,97,98,99,100,101,102,103,104,105,106,107,108,109,110,111,112,113,114,115,116,117,118,119,120,121,122,123,124,125,126,127,128,129,130,131,132,133,134,135,136,137,138,139,140,141,142,143,144,145,146,147,148,149,150],"tree_info":[0,0,0,0,0,0,0,0,0,0,0,0,0,0,0,0,0,0,0,0,0,0,0,0,0,0,0,0,0,0,0,0,0,0,0,0,0,0,0,0,0,0,0,0,0,0,0,0,0,0,0,0,0,0,0,0,0,0,0,0,0,0,0,0,0,0,0,0,0,0,0,0,0,0,0,0,0,0,0,0,0,0,0,0,0,0,0,0,0,0,0,0,0,0,0,0,0,0,0,0,0,0,0,0,0,0,0,0,0,0,0,0,0,0,0,0,0,0,0,0,0,0,0,0,0,0,0,0,0,0,0,0,0,0,0,0,0,0,0,0,0,0,0,0,0,0,0,0,0,0],"trees":[{"base_weights":[-0E0,2.4824269E-1,-7.7575855E-2,3.786093E-1,-2.3157375E-2,1.466304E-1,-9.241266E-2,2.154228E-2,5.3934246E-1,2.3142684E-2,-3.0008292E-2,-2.1235775E-2,1.466304E-1,6.151424E-1,-0E0,-6.432362E-2,1.658465E-1,1.7865725E-1,1.3114183E-1,-2.7887465E-2,2.681412E-1,-1.1627788E-2,1.466304E-1,1.466304E-1,-0E0],"categories":[],"categories_nodes":[],"categories_segments":[],"categories_sizes":[],"default_left":[0,0,0,0,0,0,0,0,0,0,0,0,0,0,0,0,0,0,0,0,0,0,0,0,0],"id":0,"left_children":[1,3,5,7,-1,-1,9,11,13,15,-1,-1,-1,17,-1,19,-1,-1,21,-1,23,-1,-1,-1,-1],"loss_changes":[1.6176416E0,9.7520626E-1,6.141038E-1,7.610488E-1,0E0,0E0,3.5968506E-1,4.976059E-1,4.9669886E-1,1.2330395E0,0E0,0E0,0E0,7.5428724E-1,0E0,2.986221E-1,0E0,0E0,4.154366E-1,0E0,3.1743076E-1,0E0,0E0,0E0,0E0],"parents":[2147483647,0,0,1,1,2,2,3,3,6,6,7,7,8,8,9,9,13,13,15,15,18,18,20,20],"right_children":[2,4,6,8,-1,-1,10,12,14,16,-1,-1,-1,18,-1,20,-1,-1,22,-1,24,-1,-1,-1,-1],"split_conditions":[5.6E0,3.3333333E0,2.142857E0,9.542E1,-2.3157375E-2,1.466304E-1,2.3333333E0,9.4E0,1.3588E2,3E0,-3.0008292E-2,-2.1235775E-2,1.466304E-1,3E0,-0E0,3E0,1.658465E-1,1.7865725E-1,3E0,-2.7887465E-2,7.3E0,-1.1627788E-2,1.466304E-1,1.466304E-1,-0E0],"split_indices":[0,10,12,3,0,0,10,5,3,12,0,0,0,12,0,6,0,0,1,0,0,0,0,0,0],"split_type":[0,0,0,0,0,0,0,0,0,0,0,0,0,0,0,0,0,0,0,0,0,0,0,0,0],"sum_hessian":[8.4E1,2E1,6.4E1,1.5E1,5E0,1E0,6.3E1,5E0,1E1,1.7E1,4.6E1,4E0,1E0,9E0,1E0,1.5E1,2E0,6E0,3E0,1.3E1,2E0,2E0,1E0,1E0,1E0],"tree_param":{"num_deleted":"0","num_feature":"13","num_nodes":"25","size_leaf_vector":"1"}},{"base_weights":[-0E0,1.9118176E-1,-6.0107656E-2,2.9480892E-1,-1.8157551E-2,1.1497202E-1,-7.233972E-2,-0E0,4.2609775E-1,1.633172E-2,-2.3529312E-2,-1.5667962E-2,1.8943055E-1,5.642285E-1,-8.080063E-3,-4.9929846E-2,1.3003922E-1,1.0805723E-1,-0E0,-0E0,1.4297473E-1,-2.1866383E-2,1.9482607E-1,1.1497202E-1,-0E0],"categories":[],"categories_nodes":[],"categories_segments":[],"categories_sizes":[],"default_left":[0,0,0,0,0,0,0,0,0,0,0,0,0,0,0,0,0,0,0,0,0,0,0,0,0],"id":1,"left_children":[1,3,5,7,-1,-1,9,11,13,15,-1,-1,17,19,-1,21,-1,-1,-1,-1,-1,-1,23,-1,-1],"loss_changes":[9.62237E-1,6.080387E-1,3.820196E-1,5.119084E-1,0E0,0E0,2.2117078E-1,8.756641E-2,7.340387E-1,7.5837815E-1,0E0,0E0,1.7871463E-1,5.227971E-1,0E0,1.7186141E-1,0E0,0E0,0E0,0E0,0E0,0E0,2.0765151E-1,0E0,0E0],"parents":[2147483647,0,0,1,1,2,2,3,3,6,6,7,7,8,8,9,9,12,12,13,13,15,15,22,22],"right_children":[2,4,6,8,-1,-1,10,12,14,16,-1,-1,18,20,-1,22,-1,-1,-1,-1,-1,-1,24,-1,-1],"split_conditions":[5.6E0,3.3333333E0,2.142857E0,5.766667E0,-1.8157551E-2,1.1497202E-1,2.3333333E0,5.4E0,7.0142856E0,3E0,-2.3529312E-2,-1.5667962E-2,2E0,7.236E1,-8.080063E-3,3E0,1.3003922E-1,1.0805723E-1,-0E0,-0E0,1.4297473E-1,-2.1866383E-2,7.3E0,1.1497202E-1,-0E0],"split_indices":[0,10,12,9,0,0,10,0,11,12,0,0,1,3,0,6,0,0,0,0,0,0,0,0,0],"split_type":[0,0,0,0,0,0,0,0,0,0,0,0,0,0,0,0,0,0,0,0,0,0,0,0,0],"sum_hessian":[8.4E1,2E1,6.4E1,1.5E1,5E0,1E0,6.3E1,5E0,1E1,1.7E1,4.6E1,3E0,2E0,8E0,2E0,1.5E1,2E0,1E0,1E0,1E0,7E0,1.3E1,2E0,1E0,1E0],"tree_param":{"num_deleted":"0","num_feature":"13","num_nodes":"25","size_leaf_vector":"1"}},{"base_weights":[-0E0,1.4343534E-1,-4.6410955E-2,2.2509451E-1,-1.4237221E-2,9.0148866E-2,-5.6600656E-2,-0E0,3.2763144E-1,1.0991277E-2,-1.8449182E-2,-1.272128E-2,1.3843195E-1,4.3912563E-1,-6.335527E-3,-3.864379E-2,1.0196293E-1,-0E0,8.472703E-2,-0E0,1.1210558E-1,-1.7145293E-2,1.3734008E-1,9.0148866E-2,-0E0],"categories":[],"categories_nodes":[],"categories_segments":[],"categories_sizes":[],"default_left":[0,0,0,0,0,0,0,0,0,0,0,0,0,0,0,0,0,0,0,0,0,0,0,0,0],"id":2,"left_children":[1,3,5,7,-1,-1,9,11,13,15,-1,-1,17,19,-1,21,-1,-1,-1,-1,-1,-1,23,-1,-1],"loss_changes":[5.4932845E-1,3.7028077E-1,2.3831177E-1,3.1341064E-1,0E0,0E0,1.3610241E-1,4.8741672E-2,4.7094905E-1,4.663969E-1,0E0,0E0,1.15670666E-1,3.445649E-1,0E0,9.730342E-2,0E0,0E0,0E0,0E0,0E0,0E0,1.3661268E-1,0E0,0E0],"parents":[2147483647,0,0,1,1,2,2,3,3,6,6,7,7,8,8,9,9,12,12,13,13,15,15,22,22],"right_children":[2,4,6,8,-1,-1,10,12,14,16,-1,-1,18,20,-1,22,-1,-1,-1,-1,-1,-1,24,-1,-1],"split_conditions":[5.6E0,3.3333333E0,2.142857E0,5.766667E0,-1.4237221E-2,9.0148866E-2,2.3333333E0,6.3428574E0,7.0142856E0,3E0,-1.8449182E-2,-1.272128E-2,5E0,7.236E1,-6.335527E-3,3E0,1.0196293E-1,-0E0,8.472703E-2,-0E0,1.1210558E-1,-1.7145293E-2,7.3E0,9.0148866E-2,-0E0],"split_indices":[0,10,12,9,0,0,10,11,11,12,0,0,0,3,0,6,0,0,0,0,0,0,0,0,0],"split_type":[0,0,0,0,0,0,0,0,0,0,0,0,0,0,0,0,0,0,0,0,0,0,0,0,0],"sum_hessian":[8.4E1,2E1,6.4E1,1.5E1,5E0,1E0,6.3E1,5E0,1E1,1.7E1,4.6E1,3E0,2E0,8E0,2E0,1.5E1,2E0,1E0,1E0,1E0,7E0,1.3E1,2E0,1E0,1E0],"tree_param":{"num_deleted":"0","num_feature":"13","num_nodes":"25","size_leaf_vector":"1"}},{"base_weights":[-0E0,1.0606308E-1,-3.567146E-2,1.705191E-1,-1.1163316E-2,7.06852E-2,-4.4259764E-2,-0E0,2.5333136E-1,6.803873E-3,-1.4465886E-2,-1.3653729E-2,5.989866E-2,2.944586E-1,-0E0,-2.9794456E-2,7.994851E-2,2.5889715E-2,8.616303E-2,-1.3443516E-2,9.2265725E-2,-5.6164204E-3,6.643395E-2,7.06852E-2,-0E0],"categories":[],"categories_nodes":[],"categories_segments":[],"categories_sizes":[],"default_left":[0,0,0,0,0,0,0,0,0,0,0,0,0,0,0,0,0,0,0,0,0,0,0,0,0],"id":3,"left_children":[1,3,5,7,-1,-1,9,11,13,15,-1,-1,-1,17,-1,19,-1,21,-1,-1,23,-1,-1,-1,-1],"loss_changes":[3.0642456E-1,2.2453068E-1,1.491586E-1,2.0561641E-1,0E0,0E0,8.3873115E-2,9.296364E-2,1.3858497E-1,2.8676188E-1,0E0,0E0,0E0,1.7722738E-1,0E0,5.4111175E-2,0E0,9.402074E-2,0E0,0E0,9.015727E-2,0E0,0E0,0E0,0E0],"parents":[2147483647,0,0,1,1,2,2,3,3,6,6,7,7,8,8,9,9,13,13,15,15,17,17,20,20],"right_children":[2,4,6,8,-1,-1,10,12,14,16,-1,-1,-1,18,-1,20,-1,22,-1,-1,24,-1,-1,-1,-1],"split_conditions":[5.6E0,3.3333333E0,2.142857E0,9.542E1,-1.1163316E-2,7.06852E-2,2.3333333E0,9.4E0,6.8E0,3E0,-1.4465886E-2,-1.3653729E-2,5.989866E-2,5.6666665E0,-0E0,3E0,7.994851E-2,5.4E0,8.616303E-2,-1.3443516E-2,7.3E0,-5.6164204E-3,6.643395E-2,7.06852E-2,-0E0],"split_indices":[0,10,12,3,0,0,10,5,9,12,0,0,0,9,0,6,0,0,0,0,0,0,0,0,0],"split_type":[0,0,0,0,0,0,0,0,0,0,0,0,0,0,0,0,0,0,0,0,0,0,0,0,0],"sum_hessian":[8.4E1,2E1,6.4E1,1.5E1,5E0,1E0,6.3E1,5E0,1E1,1.7E1,4.6E1,4E0,1E0,9E0,1E0,1.5E1,2E0,3E0,6E0,1.3E1,2E0,2E0,1E0,1E0,1E0],"tree_param":{"num_deleted":"0","num_feature":"13","num_nodes":"25","size_leaf_vector":"1"}},{"base_weights":[-0E0,7.998075E-2,-2.7250694E-2,1.3202156E-1,-8.7530855E-3,5.5423837E-2,-3.4583345E-2,-0E0,1.9611342E-1,3.5205507E-3,-1.1342609E-2,-1.0705803E-2,4.696618E-2,2.308831E-1,-0E0,-2.2855759E-2,6.2687136E-2,2.734866E-1,-0E0,-1.1740157E-2,4.3891497E-2,7.0840254E-2,-0E0,-0E0,5.5423837E-2],"categories":[],"categories_nodes":[],"categories_segments":[],"categories_sizes":[],"default_left":[0,0,0,0,0,0,0,0,0,0,0,0,0,0,0,0,0,0,0,0,0,0,0,0,0],"id":4,"left_children":[1,3,5,7,-1,-1,9,11,13,15,-1,-1,-1,17,-1,19,-1,21,-1,-1,23,-1,-1,-1,-1],"loss_changes":[1.7546485E-1,1.417249E-1,9.371868E-2,1.2315941E-1,0E0,0E0,5.1818073E-2,5.7154357E-2,9.515834E-2,1.7622456E-1,0E0,0E0,0E0,1.18596405E-1,0E0,3.342479E-2,0E0,1.5521699E-1,0E0,0E0,6.01172E-2,0E0,0E0,0E0,0E0],"parents":[2147483647,0,0,1,1,2,2,3,3,6,6,7,7,8,8,9,9,13,13,15,15,17,17,20,20],"right_children":[2,4,6,8,-1,-1,10,12,14,16,-1,-1,-1,18,-1,20,-1,22,-1,-1,24,-1,-1,-1,-1],"split_conditions":[5.6E0,3.3333333E0,2.142857E0,9.542E1,-8.7530855E-3,5.5423837E-2,2.3333333E0,9.4E0,6.8E0,3E0,-1.1342609E-2,-1.0705803E-2,4.696618E-2,3.142857E0,-0E0,7.4E0,6.2687136E-2,1.3588E2,-0E0,-1.1740157E-2,3E0,7.0840254E-2,-0E0,-0E0,5.5423837E-2],"split_indices":[0,10,12,3,0,0,10,5,9,12,0,0,0,12,0,11,0,3,0,0,6,0,0,0,0],"split_type":[0,0,0,0,0,0,0,0,0,0,0,0,0,0,0,0,0,0,0,0,0,0,0,0,0],"sum_hessian":[8.4E1,2E1,6.4E1,1.5E1,5E0,1E0,6.3E1,5E0,1E1,1.7E1,4.6E1,4E0,1E0,9E0,1E0,1.5E1,2E0,8E0,1E0,1.2E1,3E0,7E0,1E0,2E0,1E0],"tree_param":{"num_deleted":"0","num_feature":"13","num_nodes":"25","size_leaf_vector":"1"}},{"base_weights":[-0E0,4.748866E-2,-2.429265E-2,1.3055936E-1,-0E0,4.3457497E-2,-3.1372916E-2,1.8815668E-1,-2.3379617E-3,3.4216326E-2,-9.300684E-3,-0E0,-8.791779E-3,-0E0,2.2711341E-1,-8.700877E-3,4.7012158E-2,-9.182958E-3,3.7723783E-2,-0E0,5.8829304E-2,-1.3545181E-3,1.5572122E-1,-0E0,5.591304E-2],"categories":[],"categories_nodes":[],"categories_segments":[],"categories_sizes":[],"default_left":[0,0,0,0,0,0,0,0,0,0,0,0,0,0,0,0,0,0,0,0,0,0,0,0,0],"id":5,"left_children":[1,3,5,7,9,-1,11,13,-1,15,-1,17,-1,-1,19,-1,-1,-1,21,-1,-1,-1,23,-1,-1],"loss_changes":[9.28622E-2,1.1182297E-1,6.2388554E-2,1.1300059E-1,2.4211353E-2,0E0,1.1881147E-2,7.784009E-2,0E0,1.4099054E-1,0E0,2.6242428E-2,0E0,0E0,8.439535E-2,0E0,0E0,0E0,6.2943175E-2,0E0,0E0,0E0,6.1382562E-2,0E0,0E0],"parents":[2147483647,0,0,1,1,2,2,3,3,4,4,6,6,7,7,9,9,11,11,14,14,18,18,22,22],"right_children":[2,4,6,8,10,-1,12,14,-1,16,-1,18,-1,-1,20,-1,-1,-1,22,-1,-1,-1,24,-1,-1],"split_conditions":[5.8E0,2.6666667E0,2.142857E0,7.0142856E0,5.1E0,4.3457497E-2,2.3333333E0,4.3E0,-2.3379617E-3,5E0,-9.300684E-3,9.542E1,-8.791779E-3,-0E0,7.458E1,-8.700877E-3,4.7012158E-2,-9.182958E-3,9.539E1,-0E0,5.8829304E-2,-1.3545181E-3,6.6E0,-0E0,5.591304E-2],"split_indices":[0,10,12,11,0,0,10,5,0,0,0,8,0,0,3,0,0,0,3,0,0,0,0,0,0],"split_type":[0,0,0,0,0,0,0,0,0,0,0,0,0,0,0,0,0,0,0,0,0,0,0,0,0],"sum_hessian":[8.4E1,2.6E1,5.8E1,1E1,1.6E1,1E0,5.7E1,8E0,2E0,8E0,8E0,1.6E1,4.1E1,1E0,7E0,5E0,3E0,9E0,7E0,1E0,6E0,4E0,3E0,1E0,2E0],"tree_param":{"num_deleted":"0","num_feature":"13","num_nodes":"25","size_leaf_vector":"1"}},{"base_weights":[-8.8628754E-4,3.3203024E-2,-1.9236717E-2,9.5729366E-2,-0E0,3.407476E-2,-2.5465872E-2,1.440347E-1,-1.833181E-3,2.2024821E-2,-7.2926073E-3,-3.0345116E-2,-0E0,-0E0,1.766883E-1,-6.8223034E-3,3.6861937E-2,-7.871078E-3,-0E0,3.1385537E-2,-3.3931434E-3,-0E0,4.6127677E-2,1.7864646E-2,-4.6282806E-3],"categories":[],"categories_nodes":[],"categories_segments":[],"categories_sizes":[],"default_left":[0,0,0,0,0,0,0,0,0,0,0,0,0,0,0,0,0,0,0,0,0,0,0,0,0],"id":6,"left_children":[1,3,5,7,9,-1,11,13,-1,15,-1,17,19,-1,21,-1,-1,-1,23,-1,-1,-1,-1,-1,-1],"loss_changes":[5.006046E-2,6.2977664E-2,4.040993E-2,7.447106E-2,1.30076725E-2,0E0,8.155372E-3,5.2563354E-2,0E0,8.855896E-2,0E0,2.7249008E-3,2.2860339E-2,0E0,5.53381E-2,0E0,0E0,0E0,1.2360632E-2,0E0,0E0,0E0,0E0,0E0,0E0],"parents":[2147483647,0,0,1,1,2,2,3,3,4,4,6,6,7,7,9,9,11,11,12,12,14,14,18,18],"right_children":[2,4,6,8,10,-1,12,14,-1,16,-1,18,20,-1,22,-1,-1,-1,24,-1,-1,-1,-1,-1,-1],"split_conditions":[5.8E0,2.6666667E0,2.142857E0,7.0142856E0,5.1E0,3.407476E-2,7.5571427E0,4.3E0,-1.833181E-3,5E0,-7.2926073E-3,3E0,7.6E0,-0E0,7.458E1,-6.8223034E-3,3.6861937E-2,-7.871078E-3,2.3333333E0,3.1385537E-2,-3.3931434E-3,-0E0,4.6127677E-2,1.7864646E-2,-4.6282806E-3],"split_indices":[0,10,12,11,0,0,11,5,0,0,0,12,11,0,3,0,0,0,10,0,0,0,0,0,0],"split_type":[0,0,0,0,0,0,0,0,0,0,0,0,0,0,0,0,0,0,0,0,0,0,0,0,0],"sum_hessian":[8.4E1,2.6E1,5.8E1,1E1,1.6E1,1E0,5.7E1,8E0,2E0,8E0,8E0,4.9E1,8E0,1E0,7E0,5E0,3E0,3.6E1,1.3E1,1E0,7E0,1E0,6E0,1E0,1.2E1],"tree_param":{"num_deleted":"0","num_feature":"13","num_nodes":"25","size_leaf_vector":"1"}},{"base_weights":[-1.0280492E-3,1.6597576E-2,-1.795566E-2,1.5338882E-3,3.9657407E-2,-2.2499295E-2,-0E0,4.226142E-2,-8.019136E-3,-6.175311E-3,-0E0,2.4609212E-2,-1.9209094E-3,1.0501263E-1,-1.5900903E-3,2.5866745E-2,-7.00463E-3,1.4007563E-2,-1.3413893E-3,-0E0,3.128473E-2,-0E0,2.9921241E-2,-4.2935032E-3,-0E0],"categories":[],"categories_nodes":[],"categories_segments":[],"categories_sizes":[],"default_left":[0,0,0,0,0,0,0,0,0,0,0,0,0,0,0,0,0,0,0,0,0,0,0,0,0],"id":7,"left_children":[1,3,5,7,-1,9,11,13,15,-1,17,-1,-1,19,-1,21,-1,-1,-1,-1,-1,23,-1,-1,-1],"loss_changes":[2.530396E-2,5.7638522E-2,5.279475E-3,1.9323641E-2,0E0,6.241126E-3,1.3466611E-2,4.852262E-2,2.1033473E-2,0E0,4.4793496E-3,0E0,0E0,3.8813435E-2,0E0,3.372764E-2,0E0,0E0,0E0,0E0,0E0,1.5818044E-3,0E0,0E0,0E0],"parents":[2147483647,0,0,1,1,2,2,3,3,5,5,6,6,7,7,8,8,10,10,13,13,15,15,21,21],"right_children":[2,4,6,8,-1,10,12,14,16,-1,18,-1,-1,20,-1,22,-1,-1,-1,-1,-1,24,-1,-1,-1],"split_conditions":[6.4E0,9.4E0,7.5571427E0,5.1E0,3.9657407E-2,3E0,7.6E0,3.3333333E0,6.4714284E0,-6.175311E-3,2.3333333E0,2.4609212E-2,-1.9209094E-3,5.6666665E0,-1.5900903E-3,6.3428574E0,-7.00463E-3,1.4007563E-2,-1.3413893E-3,-0E0,3.128473E-2,5.8E0,2.9921241E-2,-4.2935032E-3,-0E0],"split_indices":[0,5,11,0,0,12,11,10,11,0,10,0,0,9,0,11,0,0,0,0,0,5,0,0,0],"split_type":[0,0,0,0,0,0,0,0,0,0,0,0,0,0,0,0,0,0,0,0,0,0,0,0,0],"sum_hessian":[8.4E1,3.6E1,4.8E1,3.4E1,2E0,4.1E1,7E0,1E1,2.4E1,3.3E1,8E0,1E0,6E0,6E0,4E0,7E0,1.7E1,1E0,7E0,1E0,5E0,5E0,2E0,4E0,1E0],"tree_param":{"num_deleted":"0","num_feature":"13","num_nodes":"25","size_leaf_vector":"1"}},{"base_weights":[-6.338146E-4,1.2348467E-2,-1.4078917E-2,-0E0,3.1095123E-2,-0E0,-5.337617E-3,3.2208476E-2,-6.899289E-3,-3.5311026E-3,3.39261E-2,8.57369E-2,-0E0,1.5287964E-3,-4.801436E-3,-0E0,9.867379E-2,-0E0,2.747039E-2,-0E0,-3.1715166E-3,-5.074676E-3,2.2148637E-2,3.435556E-2,-0E0],"categories":[],"categories_nodes":[],"categories_segments":[],"categories_sizes":[],"default_left":[0,0,0,0,0,0,0,0,0,0,0,0,0,0,0,0,0,0,0,0,0,0,0,0,0],"id":8,"left_children":[1,3,5,7,-1,9,-1,11,13,-1,15,17,19,21,-1,-1,23,-1,-1,-1,-1,-1,-1,-1,-1],"loss_changes":[1.4970067E-2,3.5994872E-2,4.542602E-3,1.1516266E-2,0E0,1.1987986E-2,0E0,2.6380233E-2,6.789113E-3,0E0,2.2303682E-2,2.7998745E-2,8.63104E-4,3.431423E-2,0E0,0E0,2.1430401E-2,0E0,0E0,0E0,0E0,0E0,0E0,0E0,0E0],"parents":[2147483647,0,0,1,1,2,2,3,3,5,5,7,7,8,8,10,10,11,11,12,12,13,13,16,16],"right_children":[2,4,6,8,-1,10,-1,12,14,-1,16,18,20,22,-1,-1,24,-1,-1,-1,-1,-1,-1,-1,-1],"split_conditions":[6.4E0,9.4E0,7.266667E0,2.6666667E0,3.1095123E-2,6.9428573E0,-5.337617E-3,6.4714284E0,5.1E0,-3.5311026E-3,7.2E0,4.3E0,4.6E0,5E0,-4.801436E-3,-0E0,8.4E0,-0E0,2.747039E-2,-0E0,-3.1715166E-3,-5.074676E-3,2.2148637E-2,3.435556E-2,-0E0],"split_indices":[0,5,9,10,0,11,0,11,0,0,0,5,0,0,0,0,0,0,0,0,0,0,0,0,0],"split_type":[0,0,0,0,0,0,0,0,0,0,0,0,0,0,0,0,0,0,0,0,0,0,0,0,0],"sum_hessian":[8.4E1,3.6E1,4.8E1,3.4E1,2E0,2.5E1,2.3E1,1E1,2.4E1,1.9E1,6E0,5E0,5E0,8E0,1.6E1,3E0,3E0,1E0,4E0,1E0,4E0,5E0,3E0,2E0,1E0],"tree_param":{"num_deleted":"0","num_feature":"13","num_nodes":"25","size_leaf_vector":"1"}},{"base_weights":[-6.63462E-4,-1.4126377E-2,7.530033E-3,-5.0870487E-3,-0E0,4.8984293E-2,-0E0,1.610281E-2,-0E0,6.9567084E-2,-0E0,2.0639407E-2,-2.2373661E-2,-0E0,2.9951546E-2,2.6863571E-2,-6.6358567E-4,-3.329092E-2,-0E0,9.9225575E-3,-0E0,-7.440716E-3,-0E0,5.805888E-3,-0E0],"categories":[],"categories_nodes":[],"categories_segments":[],"categories_sizes":[],"default_left":[0,0,0,0,0,0,0,0,0,0,0,0,0,0,0,0,0,0,0,0,0,0,0,0,0],"id":9,"left_children":[1,3,5,-1,7,9,11,-1,-1,13,-1,15,17,19,-1,-1,-1,21,-1,23,-1,-1,-1,-1,-1],"loss_changes":[1.0440068E-2,9.22709E-3,2.1499751E-2,0E0,1.1125069E-2,1.4722027E-2,1.5975408E-2,0E0,0E0,1.9017007E-2,0E0,5.6054335E-2,6.612665E-3,2.953716E-4,0E0,0E0,0E0,3.201887E-6,0E0,1.1508564E-3,0E0,0E0,0E0,0E0,0E0],"parents":[2147483647,0,0,1,1,2,2,4,4,5,5,6,6,9,9,11,11,12,12,13,13,17,17,19,19],"right_children":[2,4,6,-1,8,10,12,-1,-1,14,-1,16,18,20,-1,-1,-1,22,-1,24,-1,-1,-1,-1,-1],"split_conditions":[1.0097E2,3E0,2.5714285E0,-5.0870487E-3,5.8E0,7.3E0,1.1894E2,1.610281E-2,-0E0,6.5857143E0,-0E0,6.5666666E0,7.5E0,6.5E0,2.9951546E-2,2.6863571E-2,-6.6358567E-4,4E0,-0E0,5.1E0,-0E0,-7.440716E-3,-0E0,5.805888E-3,-0E0],"split_indices":[3,12,12,0,0,0,3,0,0,11,0,9,5,9,0,0,0,10,0,0,0,0,0,0,0],"split_type":[0,0,0,0,0,0,0,0,0,0,0,0,0,0,0,0,0,0,0,0,0,0,0,0,0],"sum_hessian":[8.4E1,4E1,4.4E1,3.1E1,9E0,1E1,3.4E1,2E0,7E0,8E0,2E0,1.4E1,2E1,5E0,3E0,4E0,1E1,1.5E1,5E0,3E0,2E0,1.4E1,1E0,2E0,1E0],"tree_param":{"num_deleted":"0","num_feature":"13","num_nodes":"25","size_leaf_vector":"1"}},{"base_weights":[-3.3753377E-4,-1.0989054E-2,5.300148E-3,-3.9887223E-3,-0E0,3.883764E-2,-0E0,1.2626117E-2,-0E0,6.667701E-2,-0E0,1.4674531E-2,-3.892937E-3,-0E0,2.5145847E-2,2.1063555E-2,-6.788852E-4,-3.2597876E-3,-0E0],"categories":[],"categories_nodes":[],"categories_segments":[],"categories_sizes":[],"default_left":[0,0,0,0,0,0,0,0,0,0,0,0,0,0,0,0,0,0,0],"id":10,"left_children":[1,3,5,-1,7,9,11,-1,-1,13,-1,15,-1,-1,-1,-1,17,-1,-1],"loss_changes":[6.056831E-3,5.749936E-3,1.3847597E-2,0E0,6.8397312E-3,1.1591326E-2,9.516888E-3,0E0,0E0,1.4018364E-2,0E0,3.5060667E-2,0E0,0E0,0E0,0E0,2.0469793E-3,0E0,0E0],"parents":[2147483647,0,0,1,1,2,2,4,4,5,5,6,6,9,9,11,11,16,16],"right_children":[2,4,6,-1,8,10,12,-1,-1,14,-1,16,-1,-1,-1,-1,18,-1,-1],"split_conditions":[1.0097E2,3E0,2.5714285E0,-3.9887223E-3,5.8E0,1.289E2,6.5666666E0,1.2626117E-2,-0E0,3E0,-0E0,1.1894E2,-3.892937E-3,-0E0,2.5145847E-2,2.1063555E-2,7.1E0,-3.2597876E-3,-0E0],"split_indices":[3,12,12,0,0,3,9,0,0,6,0,3,0,0,0,0,5,0,0],"split_type":[0,0,0,0,0,0,0,0,0,0,0,0,0,0,0,0,0,0,0],"sum_hessian":[8.4E1,4E1,4.4E1,3.1E1,9E0,1E1,3.4E1,2E0,7E0,6E0,4E0,1.4E1,2E1,3E0,3E0,4E0,1E1,9E0,1E0],"tree_param":{"num_deleted":"0","num_feature":"13","num_nodes":"19","size_leaf_vector":"1"}},{"base_weights":[-0E0,-8.5291E-3,4.1070813E-3,-3.1275318E-3,-0E0,3.1293895E-2,-0E0,9.900061E-3,-0E0,4.745408E-2,-0E0,1.0751948E-2,-3.052427E-3,6.069047E-2,-0E0,1.65158E-2,-0E0,-0E0,7.480786E-2,-1.1838365E-2,-0E0,2.0340735E-2,-0E0,-2.7145715E-3,-0E0],"categories":[],"categories_nodes":[],"categories_segments":[],"categories_sizes":[],"default_left":[0,0,0,0,0,0,0,0,0,0,0,0,0,0,0,0,0,0,0,0,0,0,0,0,0],"id":11,"left_children":[1,3,5,-1,7,9,11,-1,-1,13,-1,15,-1,17,-1,-1,19,-1,21,23,-1,-1,-1,-1,-1],"loss_changes":[3.6520194E-3,3.5949813E-3,9.050882E-3,0E0,4.2050886E-3,8.222044E-3,5.615972E-3,0E0,0E0,7.7682156E-3,0E0,2.17876E-2,0E0,7.7939685E-3,0E0,0E0,1.2613222E-3,0E0,1.08011775E-2,3.3025863E-6,0E0,0E0,0E0,0E0,0E0],"parents":[2147483647,0,0,1,1,2,2,4,4,5,5,6,6,9,9,11,11,13,13,16,16,18,18,19,19],"right_children":[2,4,6,-1,8,10,12,-1,-1,14,-1,16,-1,18,-1,-1,20,-1,22,24,-1,-1,-1,-1,-1],"split_conditions":[1.0097E2,3E0,2.5714285E0,-3.1275318E-3,5.8E0,7.3E0,6.5666666E0,9.900061E-3,-0E0,4E0,-0E0,1.1894E2,-3.052427E-3,6.954E1,-0E0,1.65158E-2,7.1E0,-0E0,9.6E0,6.9E0,-0E0,2.0340735E-2,-0E0,-2.7145715E-3,-0E0],"split_indices":[3,12,12,0,0,0,9,0,0,6,0,3,0,8,0,0,5,0,5,11,0,0,0,0,0],"split_type":[0,0,0,0,0,0,0,0,0,0,0,0,0,0,0,0,0,0,0,0,0,0,0,0,0],"sum_hessian":[8.4E1,4E1,4.4E1,3.1E1,9E0,1E1,3.4E1,2E0,7E0,8E0,2E0,1.4E1,2E1,7E0,1E0,4E0,1E1,1E0,6E0,9E0,1E0,5E0,1E0,8E0,1E0],"tree_param":{"num_deleted":"0","num_feature":"13","num_nodes":"25","size_leaf_vector":"1"}},{"base_weights":[-0E0,-5.4594055E-3,6.635982E-3,-0E0,-1.0670232E-2,3.0664789E-2,-0E0,-1.5256649E-3,1.1716395E-2,-2.2371603E-2,-0E0,5.778856E-2,-0E0,-0E0,-9.1560854E-4,3.1489138E-2,-0E0,-0E0,-2.3439985E-2,-0E0,-3.7177655E-4,1.7481323E-2,-0E0,-0E0,4.2034924E-2,-2.4480142E-2,-0E0,8.483544E-3,-0E0,-0E0,1.2228531E-2,-5.5261943E-3,-0E0,-0E0,3.4480153E-3],"categories":[],"categories_nodes":[],"categories_segments":[],"categories_sizes":[],"default_left":[0,0,0,0,0,0,0,0,0,0,0,0,0,0,0,0,0,0,0,0,0,0,0,0,0,0,0,0,0,0,0,0,0,0,0],"id":12,"left_children":[1,3,5,7,9,11,13,-1,15,17,19,21,-1,-1,-1,23,-1,-1,25,27,-1,-1,-1,-1,29,31,-1,33,-1,-1,-1,-1,-1,-1,-1],"loss_changes":[2.845177E-3,2.8797016E-3,6.465765E-3,2.0841588E-3,3.8402998E-3,5.8354414E-3,2.697615E-4,0E0,5.1564015E-3,2.8261915E-4,4.744091E-5,6.308969E-3,0E0,0E0,0E0,3.660649E-3,0E0,0E0,1.9823387E-4,2.159117E-4,0E0,0E0,0E0,0E0,5.4377746E-3,1.8252898E-4,0E0,2.9416766E-4,0E0,0E0,0E0,0E0,0E0,0E0,0E0],"parents":[2147483647,0,0,1,1,2,2,3,3,4,4,5,5,6,6,8,8,9,9,10,10,11,11,15,15,18,18,19,19,24,24,25,25,27,27],"right_children":[2,4,6,8,10,12,14,-1,16,18,20,22,-1,-1,-1,24,-1,-1,26,28,-1,-1,-1,-1,30,32,-1,34,-1,-1,-1,-1,-1,-1,-1],"split_conditions":[8E0,6.4714284E0,7.266667E0,6.0285716E0,3E0,9.911E1,7.982E1,-1.5256649E-3,5.8E0,4.9E0,2.6666667E0,7.3E0,-0E0,-0E0,-9.1560854E-4,3.8E0,-0E0,-0E0,1.2758E2,8.4E0,-3.7177655E-4,1.7481323E-2,-0E0,-0E0,8.135E1,7.5E0,-0E0,8.173E1,-0E0,-0E0,1.2228531E-2,-5.5261943E-3,-0E0,-0E0,3.4480153E-3],"split_indices":[5,11,9,11,1,8,8,0,0,5,10,0,0,0,0,0,0,0,3,0,0,0,0,0,3,5,0,3,0,0,0,0,0,0,0],"split_type":[0,0,0,0,0,0,0,0,0,0,0,0,0,0,0,0,0,0,0,0,0,0,0,0,0,0,0,0,0,0,0,0,0,0,0],"sum_hessian":[8.4E1,6E1,2.4E1,1.9E1,4.1E1,8E0,1.6E1,6E0,1.3E1,1.7E1,2.4E1,4E0,4E0,1E0,1.5E1,7E0,6E0,1E0,1.6E1,8E0,1.6E1,3E0,1E0,1E0,6E0,1.5E1,1E0,3E0,5E0,1E0,5E0,1.4E1,1E0,1E0,2E0],"tree_param":{"num_deleted":"0","num_feature":"13","num_nodes":"35","size_leaf_vector":"1"}},{"base_weights":[-5.44931E-5,-5.0522326E-3,5.0230715E-3,-1.0852029E-2,-0E0,1.9646415E-2,-0E0,-0E0,-1.4992752E-2,1.0590299E-2,-1.5125324E-3,5.272729E-2,-0E0,-0E0,-1.6369076E-2,-0E0,1.0728686E-2,-0E0,1.867682E-2,-0E0,-1.7427888E-2,-1.846776E-2,-0E0,-1.9194243E-2,-0E0,-2.0495366E-2,-0E0,-0E0,-4.592358E-3],"categories":[],"categories_nodes":[],"categories_segments":[],"categories_sizes":[],"default_left":[0,0,0,0,0,0,0,0,0,0,0,0,0,0,0,0,0,0,0,0,0,0,0,0,0,0,0,0,0],"id":13,"left_children":[1,3,5,7,9,11,-1,-1,13,15,-1,17,-1,-1,19,-1,-1,-1,-1,-1,21,23,-1,25,-1,27,-1,-1,-1],"loss_changes":[2.1368042E-3,1.8837261E-3,4.798194E-3,2.2043365E-3,2.3413945E-3,1.1277264E-2,0E0,0E0,2.752603E-4,8.418928E-3,0E0,1.3250941E-2,0E0,0E0,1.7979974E-4,0E0,0E0,0E0,0E0,0E0,6.442098E-5,1.2407685E-4,0E0,3.7777703E-5,0E0,3.295997E-5,0E0,0E0,0E0],"parents":[2147483647,0,0,1,1,2,2,3,3,4,4,5,5,8,8,9,9,11,11,14,14,20,20,21,21,23,23,25,25],"right_children":[2,4,6,8,10,12,-1,-1,14,16,-1,18,-1,-1,20,-1,-1,-1,-1,-1,22,24,-1,26,-1,28,-1,-1,-1],"split_conditions":[8E0,1.0097E2,7.3E0,5.2E0,2.6666667E0,9.911E1,-0E0,-0E0,7.975E1,9.539E1,-1.5125324E-3,6.4857144E0,-0E0,-0E0,5.3E0,-0E0,1.0728686E-2,-0E0,1.867682E-2,-0E0,1.3654E2,4E0,-0E0,7.6E0,-0E0,6.693E1,-0E0,-0E0,-4.592358E-3],"split_indices":[5,8,0,0,10,8,0,0,3,3,0,11,0,0,5,0,0,0,0,0,3,1,0,5,0,8,0,0,0],"split_type":[0,0,0,0,0,0,0,0,0,0,0,0,0,0,0,0,0,0,0,0,0,0,0,0,0,0,0,0,0],"sum_hessian":[8.4E1,6E1,2.4E1,2.9E1,3.1E1,1.4E1,1E1,4E0,2.5E1,1.3E1,1.8E1,6E0,8E0,3E0,2.2E1,9E0,4E0,2E0,4E0,2E0,2E1,1.8E1,2E0,1.7E1,1E0,1.5E1,2E0,1E0,1.4E1],"tree_param":{"num_deleted":"0","num_feature":"13","num_nodes":"29","size_leaf_vector":"1"}},{"base_weights":[-3.652466E-4,-4.2421664E-3,1.910269E-3,-0E0,-7.4691204E-3,1.4310183E-2,-0E0,-7.8400294E-4,5.6531737E-3,-1.54847875E-2,-0E0,3.4719966E-2,-0E0,2.826825E-2,-0E0,-0E0,-1.6217275E-2,-0E0,4.887614E-2,-0E0,8.661756E-3,-3.6437993E-3,-0E0,1.3025226E-2,-0E0],"categories":[],"categories_nodes":[],"categories_segments":[],"categories_sizes":[],"default_left":[0,0,0,0,0,0,0,0,0,0,0,0,0,0,0,0,0,0,0,0,0,0,0,0,0],"id":14,"left_children":[1,3,5,7,9,11,-1,-1,13,15,-1,17,-1,19,-1,-1,21,-1,23,-1,-1,-1,-1,-1,-1],"loss_changes":[1.1561316E-3,1.2075398E-3,2.7793602E-3,4.945733E-4,1.7889393E-3,7.982349E-3,0E0,0E0,4.3791067E-3,1.3176305E-4,0E0,5.872855E-3,0E0,3.2527517E-3,0E0,0E0,6.4372085E-5,0E0,5.114753E-3,0E0,0E0,0E0,0E0,0E0,0E0],"parents":[2147483647,0,0,1,1,2,2,3,3,4,4,5,5,8,8,9,9,11,11,13,13,16,16,18,18],"right_children":[2,4,6,8,10,12,-1,-1,14,16,-1,18,-1,20,-1,-1,22,-1,24,-1,-1,-1,-1,-1,-1],"split_conditions":[8E0,6.4714284E0,7.3E0,5.3333335E0,3E0,1.2173E2,-0E0,-7.8400294E-4,5.8E0,4.9E0,-0E0,6.4857144E0,-0E0,8.135E1,-0E0,-0E0,1.2758E2,-0E0,3.142857E0,-0E0,8.661756E-3,-3.6437993E-3,-0E0,1.3025226E-2,-0E0],"split_indices":[5,11,0,9,1,8,0,0,0,5,0,11,0,3,0,0,3,0,12,0,0,0,0,0,0],"split_type":[0,0,0,0,0,0,0,0,0,0,0,0,0,0,0,0,0,0,0,0,0,0,0,0,0],"sum_hessian":[8.4E1,6E1,2.4E1,1.9E1,4.1E1,1.4E1,1E1,6E0,1.3E1,1.7E1,2.4E1,9E0,5E0,6E0,7E0,1E0,1.6E1,2E0,7E0,1E0,5E0,1.5E1,1E0,6E0,1E0],"tree_param":{"num_deleted":"0","num_feature":"13","num_nodes":"25","size_leaf_vector":"1"}},{"base_weights":[-1.1045214E-3,-3.9746286E-3,-0E0,-0E0,-9.524087E-3,8.727944E-3,-0E0,-4.071054E-3,1.3114547E-2,-0E0,-1.4581381E-2,2.6036486E-2,-0E0,-0E0,-7.2570816E-3,2.311383E-2,-0E0,-0E0,-1.6401857E-2,-0E0,3.7711665E-2,-0E0,-1.664216E-3,7.2039873E-3,-0E0,-1.9910641E-2,-0E0,1.0212998E-2,-0E0,-0E0,-4.9701114E-3],"categories":[],"categories_nodes":[],"categories_segments":[],"categories_sizes":[],"default_left":[0,0,0,0,0,0,0,0,0,0,0,0,0,0,0,0,0,0,0,0,0,0,0,0,0,0,0,0,0,0,0],"id":15,"left_children":[1,3,5,7,9,11,-1,13,15,-1,17,19,-1,-1,21,23,-1,-1,25,-1,27,-1,-1,-1,-1,29,-1,-1,-1,-1,-1],"loss_changes":[8.453832E-4,9.570128E-4,1.0664784E-3,1.7342912E-3,1.7096108E-3,5.0346106E-3,0E0,9.969403E-4,1.4673071E-3,0E0,1.5180907E-4,3.8541001E-3,0E0,0E0,1.7470913E-5,1.7819819E-3,0E0,0E0,1.9804435E-4,0E0,3.4701973E-3,0E0,0E0,0E0,0E0,2.7493527E-4,0E0,0E0,0E0,0E0,0E0],"parents":[2147483647,0,0,1,1,2,2,3,3,4,4,5,5,7,7,8,8,10,10,11,11,14,14,15,15,18,18,20,20,25,25],"right_children":[2,4,6,8,10,12,-1,14,16,-1,18,20,-1,-1,22,24,-1,-1,26,-1,28,-1,-1,-1,-1,30,-1,-1,-1,-1,-1],"split_conditions":[8E0,1.1484E2,7.3E0,1.0239E2,2.5714285E0,1.2173E2,-0E0,1E0,6.5666666E0,-0E0,1.2006E2,6.4857144E0,-0E0,-0E0,1E0,6.9E0,-0E0,-0E0,1.3654E2,-0E0,3.142857E0,-0E0,-1.664216E-3,7.2039873E-3,-0E0,2E0,-0E0,1.0212998E-2,-0E0,-0E0,-4.9701114E-3],"split_indices":[5,3,0,3,12,8,0,2,9,0,3,11,0,0,7,5,0,0,3,0,12,0,0,0,0,6,0,0,0,0,0],"split_type":[0,0,0,0,0,0,0,0,0,0,0,0,0,0,0,0,0,0,0,0,0,0,0,0,0,0,0,0,0,0,0],"sum_hessian":[8.4E1,6E1,2.4E1,3.9E1,2.1E1,1.4E1,1E1,3.2E1,7E0,4E0,1.7E1,9E0,5E0,3E0,2.9E1,5E0,2E0,3E0,1.4E1,2E0,7E0,3E0,2.6E1,4E0,1E0,1E1,4E0,6E0,1E0,2E0,8E0],"tree_param":{"num_deleted":"0","num_feature":"13","num_nodes":"31","size_leaf_vector":"1"}},{"base_weights":[-1.1886115E-3,-0E0,-4.0954663E-3,-1.6659111E-4,3.6366903E-3,-7.127255E-3,-0E0,-0E0,1.1447709E-2,-0E0,-9.188852E-3,1.1307115E-3,-0E0,8.27023E-3,-0E0,-0E0,-1.1986273E-2,-2.6698844E-3,-0E0],"categories":[],"categories_nodes":[],"categories_segments":[],"categories_sizes":[],"default_left":[0,0,0,0,0,0,0,0,0,0,0,0,0,0,0,0,0,0,0],"id":16,"left_children":[1,3,5,-1,7,9,11,-1,13,-1,15,-1,-1,-1,-1,-1,17,-1,-1],"loss_changes":[7.031944E-4,3.8711212E-4,1.4132324E-3,0E0,1.4511608E-3,1.142299E-3,5.4853343E-5,0E0,4.0343027E-3,0E0,1.5074047E-3,0E0,0E0,0E0,0E0,0E0,8.517876E-6,0E0,0E0],"parents":[2147483647,0,0,1,1,2,2,4,4,5,5,6,6,8,8,10,10,16,16],"right_children":[2,4,6,-1,8,10,12,-1,14,-1,16,-1,-1,-1,-1,-1,18,-1,-1],"split_conditions":[6.5666666E0,6.0285716E0,9.5E0,-1.6659111E-4,1.0239E2,2E0,6.4E0,-0E0,2.3333333E0,-0E0,2E0,1.1307115E-3,-0E0,8.27023E-3,-0E0,-0E0,9.6E0,-2.6698844E-3,-0E0],"split_indices":[9,11,5,0,8,10,0,0,10,0,6,0,0,0,0,0,0,0,0],"split_type":[0,0,0,0,0,0,0,0,0,0,0,0,0,0,0,0,0,0,0],"sum_hessian":[8.4E1,3.5E1,4.9E1,6E0,2.9E1,4.4E1,5E0,1.5E1,1.4E1,4E0,4E1,2E0,3E0,4E0,1E1,6E0,3.4E1,3.2E1,2E0],"tree_param":{"num_deleted":"0","num_feature":"13","num_nodes":"19","size_leaf_vector":"1"}},{"base_weights":[-5.8035407E-4,-3.6499053E-3,-0E0,-7.0386883E-3,-0E0,6.242501E-3,-2.2062408E-3,-7.213864E-3,-0E0,1.21047925E-2,-0E0,-9.70544E-3,-0E0,-0E0,-1.5875403E-3,-0E0,1.7177217E-2,-1.0408908E-2,-0E0,2.3890337E-2,-0E0,-1.1141963E-2,-0E0,3.2421235E-2,-0E0,-0E0,-2.8851843E-3,3.913536E-2,-0E0,4.5539215E-2,-0E0,-0E0,1.160639E-2],"categories":[],"categories_nodes":[],"categories_segments":[],"categories_sizes":[],"default_left":[0,0,0,0,0,0,0,0,0,0,0,0,0,0,0,0,0,0,0,0,0,0,0,0,0,0,0,0,0,0,0,0,0],"id":17,"left_children":[1,3,5,7,-1,9,11,13,-1,15,-1,17,-1,-1,-1,-1,19,21,-1,23,-1,25,-1,27,-1,-1,-1,29,-1,31,-1,-1,-1],"loss_changes":[5.0458027E-4,1.0029648E-3,9.985004E-4,2.5357935E-5,0E0,1.5946594E-3,7.4554275E-4,6.6981884E-6,0E0,1.6398528E-3,0E0,1.9002822E-5,0E0,0E0,0E0,0E0,2.1474361E-3,2.2405875E-6,0E0,3.182E-3,0E0,2.3862405E-5,0E0,2.7923835E-3,0E0,0E0,0E0,2.26413E-3,0E0,2.8218795E-3,0E0,0E0,0E0],"parents":[2147483647,0,0,1,1,2,2,3,3,5,5,6,6,7,7,9,9,11,11,16,16,17,17,19,19,21,21,23,23,27,27,29,29],"right_children":[2,4,6,8,-1,10,12,14,-1,16,-1,18,-1,-1,-1,-1,20,22,-1,24,-1,26,-1,28,-1,-1,-1,30,-1,32,-1,-1,-1],"split_conditions":[1.0097E2,3E0,1.2129E2,5E0,-0E0,3.3333333E0,6.4E0,3.8E0,-0E0,7.255E1,-0E0,7.0285716E0,-0E0,-0E0,-1.5875403E-3,-0E0,8.4E0,1.3654E2,-0E0,1.2758E2,-0E0,5.2E0,-0E0,9.6E0,-0E0,-0E0,-2.8851843E-3,7.9333334E0,-0E0,4.9E0,-0E0,-0E0,1.160639E-2],"split_indices":[3,12,3,1,0,10,5,5,0,8,0,11,0,0,0,0,0,3,0,8,0,5,0,5,0,0,0,9,0,5,0,0,0],"split_type":[0,0,0,0,0,0,0,0,0,0,0,0,0,0,0,0,0,0,0,0,0,0,0,0,0,0,0,0,0,0,0,0,0],"sum_hessian":[8.4E1,4E1,4.4E1,3.1E1,9E0,2.3E1,2.1E1,3E1,1E0,1.7E1,6E0,9E0,1.2E1,1E0,2.9E1,3E0,1.4E1,8E0,1E0,1.1E1,3E0,7E0,1E0,9E0,2E0,2E0,5E0,8E0,1E0,7E0,1E0,1E0,6E0],"tree_param":{"num_deleted":"0","num_feature":"13","num_nodes":"33","size_leaf_vector":"1"}},{"base_weights":[-6.895657E-4,-0E0,-2.4508385E-3,8.031345E-3,-0E0,-4.0870025E-3,-0E0,-0E0,4.5591774E-3,-0E0,-1.3000095E-3,-0E0,1.5933884E-3,-0E0,2.8287731E-2,7.926431E-3,-0E0],"categories":[],"categories_nodes":[],"categories_segments":[],"categories_sizes":[],"default_left":[0,0,0,0,0,0,0,0,0,0,0,0,0,0,0,0,0],"id":18,"left_children":[1,3,5,7,-1,9,-1,-1,-1,11,-1,-1,13,-1,15,-1,-1],"loss_changes":[4.04547E-4,3.8701508E-4,7.080586E-4,1.842509E-3,0E0,6.9643254E-4,0E0,0E0,0E0,2.538887E-5,0E0,0E0,3.975591E-3,0E0,1.390209E-3,0E0,0E0],"parents":[2147483647,0,0,1,1,2,2,3,3,5,5,9,9,12,12,14,14],"right_children":[2,4,6,8,-1,10,-1,-1,-1,12,-1,-1,14,-1,16,-1,-1],"split_conditions":[5.1E0,3.3333333E0,9.5E0,5.6666665E0,-0E0,2.3333333E0,-0E0,-0E0,4.5591774E-3,9.542E1,-1.3000095E-3,-0E0,6.3428574E0,-0E0,8.4E0,7.926431E-3,-0E0],"split_indices":[0,10,5,9,0,10,0,0,0,8,0,0,11,0,0,0,0],"split_type":[0,0,0,0,0,0,0,0,0,0,0,0,0,0,0,0,0],"sum_hessian":[8.4E1,1E1,7.4E1,6E0,4E0,6.9E1,5E0,1E0,5E0,1.8E1,5.1E1,8E0,1E1,5E0,5E0,4E0,1E0],"tree_param":{"num_deleted":"0","num_feature":"13","num_nodes":"17","size_leaf_vector":"1"}},{"base_weights":[-5.491003E-4,-2.314214E-3,-0E0,-0E0,-6.4943046E-3,6.1846636E-3,-0E0,-4.4371167E-4,-0E0,-0E0,-1.1045415E-2,4.4437326E-3,-0E0,-0E0,-3.1274573E-3,2.3305495E-3,-0E0,-0E0,-1.4126866E-2,-3.4024832E-3,-0E0,-0E0,1.8447875E-3,-3.8963815E-3,-0E0,-0E0,-3.73898E-3,-8.38802E-4,-0E0],"categories":[],"categories_nodes":[],"categories_segments":[],"categories_sizes":[],"default_left":[0,0,0,0,0,0,0,0,0,0,0,0,0,0,0,0,0,0,0,0,0,0,0,0,0,0,0,0,0],"id":19,"left_children":[1,3,5,7,9,11,-1,13,15,-1,17,-1,-1,-1,19,21,-1,-1,23,25,-1,-1,-1,-1,-1,-1,27,-1,-1],"loss_changes":[2.9600822E-4,4.378328E-4,2.2950045E-4,5.906402E-6,1.0708503E-3,1.0413261E-3,0E0,2.5818034E-4,3.2588774E-5,0E0,9.639388E-4,0E0,0E0,0E0,2.5335583E-5,2.5943742E-4,0E0,0E0,4.6284986E-4,1.81371E-5,0E0,0E0,0E0,0E0,0E0,0E0,9.402633E-6,0E0,0E0],"parents":[2147483647,0,0,1,1,2,2,3,3,4,4,5,5,7,7,8,8,10,10,14,14,15,15,18,18,19,19,26,26],"right_children":[2,4,6,8,10,12,-1,14,16,-1,18,-1,-1,-1,20,22,-1,-1,24,26,-1,-1,-1,-1,-1,-1,28,-1,-1],"split_conditions":[8E0,1.2006E2,9.087E1,9.633E1,2E0,6.4E0,-0E0,1E0,6.5666666E0,-0E0,1.6666666E0,4.4437326E-3,-0E0,-0E0,4E0,2E0,-0E0,-0E0,1.3654E2,1E0,-0E0,-0E0,1.8447875E-3,-3.8963815E-3,-0E0,-0E0,7.3E0,-8.38802E-4,-0E0],"split_indices":[5,3,8,3,6,0,0,2,9,0,10,0,0,0,1,6,0,0,3,7,0,0,0,0,0,0,5,0,0],"split_type":[0,0,0,0,0,0,0,0,0,0,0,0,0,0,0,0,0,0,0,0,0,0,0,0,0,0,0,0,0],"sum_hessian":[8.4E1,6E1,2.4E1,4.2E1,1.8E1,6E0,1.8E1,3E1,1.2E1,3E0,1.5E1,3E0,3E0,3E0,2.7E1,6E0,6E0,1E0,1.4E1,2.5E1,2E0,2E0,4E0,1E1,4E0,3E0,2.2E1,2.1E1,1E0],"tree_param":{"num_deleted":"0","num_feature":"13","num_nodes":"29","size_leaf_vector":"1"}},{"base_weights":[-1.2209448E-4,-0E0,-1.6769202E-3,-0E0,4.3423674E-3,-4.6688924E-3,-0E0,3.3032822E-3,-0E0,-0E0,-5.729991E-3,-1.0123006E-2,-0E0,-0E0,-1.1678726E-2,-0E0,-2.8196012E-3],"categories":[],"categories_nodes":[],"categories_segments":[],"categories_sizes":[],"default_left":[0,0,0,0,0,0,0,0,0,0,0,0,0,0,0,0,0],"id":20,"left_children":[1,3,5,-1,7,9,-1,-1,-1,-1,11,13,-1,-1,15,-1,-1],"loss_changes":[2.0684036E-4,1.3199313E-4,5.112599E-4,0E0,1.0383966E-3,3.312971E-4,0E0,0E0,0E0,0E0,3.840041E-4,3.38451E-4,0E0,0E0,2.7346087E-4,0E0,0E0],"parents":[2147483647,0,0,1,1,2,2,4,4,5,5,10,10,11,11,14,14],"right_children":[2,4,6,-1,8,10,-1,-1,-1,-1,12,14,-1,-1,16,-1,-1],"split_conditions":[5.1E0,5.6666665E0,3E0,-0E0,4E0,5.2E0,-0E0,3.3032822E-3,-0E0,-0E0,9.519E1,7.975E1,-0E0,-0E0,5.2E0,-0E0,-2.8196012E-3],"split_indices":[0,9,1,0,6,0,0,0,0,0,8,3,0,0,5,0,0],"split_type":[0,0,0,0,0,0,0,0,0,0,0,0,0,0,0,0,0],"sum_hessian":[8.4E1,1E1,7.4E1,3E0,7E0,3.3E1,4.1E1,5E0,2E0,1E0,3.2E1,1.4E1,1.8E1,1E0,1.3E1,1E0,1.2E1],"tree_param":{"num_deleted":"0","num_feature":"13","num_nodes":"17","size_leaf_vector":"1"}},{"base_weights":[-0E0,-0E0,-1.2196875E-3,-0E0,1.9828756E-3,-2.7195623E-3,-0E0,2.5900814E-3,-0E0,-0E0,-3.9826045E-3,-0E0,-4.2314124E-3,-0E0,-4.517227E-3,-1.0208865E-3,-0E0],"categories":[],"categories_nodes":[],"categories_segments":[],"categories_sizes":[],"default_left":[0,0,0,0,0,0,0,0,0,0,0,0,0,0,0,0,0],"id":21,"left_children":[1,3,5,-1,7,9,-1,-1,-1,-1,11,-1,13,-1,15,-1,-1],"loss_changes":[1.10085195E-4,2.752258E-5,4.0024018E-4,0E0,6.920356E-4,2.985928E-4,0E0,0E0,0E0,0E0,1.4705001E-5,0E0,1.2995908E-5,0E0,1.2967328E-5,0E0,0E0],"parents":[2147483647,0,0,1,1,2,2,4,4,5,5,10,10,12,12,14,14],"right_children":[2,4,6,-1,8,10,-1,-1,-1,-1,12,-1,14,-1,16,-1,-1],"split_conditions":[5.1E0,5.6666665E0,9.5E0,-0E0,4E0,2.3333333E0,-0E0,2.5900814E-3,-0E0,-0E0,4.9E0,-0E0,2E0,-0E0,9.4E0,-1.0208865E-3,-0E0],"split_indices":[0,9,5,0,6,10,0,0,0,0,5,0,6,0,0,0,0],"split_type":[0,0,0,0,0,0,0,0,0,0,0,0,0,0,0,0,0],"sum_hessian":[8.4E1,1E1,7.4E1,3E0,7E0,6.9E1,5E0,5E0,2E0,1.8E1,5.1E1,5E0,4.6E1,5E0,4.1E1,3.8E1,3E0],"tree_param":{"num_deleted":"0","num_feature":"13","num_nodes":"17","size_leaf_vector":"1"}},{"base_weights":[-0E0,-1.4286084E-3,-0E0,-0E0,-4.289808E-3,3.9021769E-3,-0E0,-5.7498585E-3,-0E0,-0E0,1.465477E-2,-0E0,-6.633493E-4,-0E0,-7.80236E-3,5.4126102E-3,-0E0,-9.655357E-3,-0E0,-2.3155082E-3,-0E0],"categories":[],"categories_nodes":[],"categories_segments":[],"categories_sizes":[],"default_left":[0,0,0,0,0,0,0,0,0,0,0,0,0,0,0,0,0,0,0,0,0],"id":22,"left_children":[1,3,5,-1,7,9,11,13,-1,-1,15,-1,-1,-1,17,-1,-1,19,-1,-1,-1],"loss_changes":[7.755504E-5,5.1132357E-4,2.7408573E-4,0E0,3.03765E-4,1.0144883E-3,2.3598997E-4,2.0313938E-4,0E0,0E0,1.2252952E-3,0E0,0E0,0E0,2.0938029E-4,0E0,0E0,7.5039454E-5,0E0,0E0,0E0],"parents":[2147483647,0,0,1,1,2,2,4,4,5,5,6,6,7,7,10,10,14,14,17,17],"right_children":[2,4,6,-1,8,10,12,14,-1,-1,16,-1,-1,-1,18,-1,-1,20,-1,-1,-1],"split_conditions":[3E0,5.2E0,3E0,-0E0,7.4E0,3E0,7.982E1,5.3E0,-0E0,-0E0,1.1894E2,-0E0,-6.633493E-4,-0E0,3E0,5.4126102E-3,-0E0,9.4E0,-0E0,-2.3155082E-3,-0E0],"split_indices":[1,0,6,0,11,12,8,5,0,0,3,0,0,0,10,0,0,0,0,0,0],"split_type":[0,0,0,0,0,0,0,0,0,0,0,0,0,0,0,0,0,0,0,0,0],"sum_hessian":[8.4E1,3.8E1,4.6E1,6E0,3.2E1,1.8E1,2.8E1,2.7E1,5E0,1.2E1,6E0,3E0,2.5E1,9E0,1.8E1,4E0,2E0,1.4E1,4E0,1.2E1,2E0],"tree_param":{"num_deleted":"0","num_feature":"13","num_nodes":"21","size_leaf_vector":"1"}},{"base_weights":[-0E0,-0E0,-3.1559862E-4,-0E0,1.8474685E-3,-0E0,-2.8632376E-3,1.2035457E-2,-0E0,-0E0,-6.1056362E-3,-0E0,1.8169023E-2,-0E0,-8.259448E-3,6.2483307E-3,-0E0,-1.0181098E-2,-0E0,-0E0,-1.2089759E-2,-0E0,-2.9749048E-3],"categories":[],"categories_nodes":[],"categories_segments":[],"categories_sizes":[],"default_left":[0,0,0,0,0,0,0,0,0,0,0,0,0,0,0,0,0,0,0,0,0,0,0],"id":23,"left_children":[1,3,-1,5,7,-1,9,11,-1,-1,13,-1,15,-1,17,-1,-1,19,-1,-1,21,-1,-1],"loss_changes":[3.2050182E-5,5.1197105E-5,0E0,1.6396261E-4,1.2524732E-3,0E0,4.3249817E-4,1.007124E-3,0E0,0E0,4.2681664E-4,0E0,1.039301E-3,0E0,1.1692522E-4,0E0,0E0,1.7525814E-4,0E0,0E0,1.3503479E-5,0E0,0E0],"parents":[2147483647,0,0,1,1,3,3,4,4,6,6,7,7,10,10,12,12,14,14,17,17,20,20],"right_children":[2,4,-1,6,8,-1,10,12,-1,-1,14,-1,16,-1,18,-1,-1,20,-1,-1,22,-1,-1],"split_conditions":[1.2758E2,8E0,-3.1559862E-4,1.1484E2,7.3E0,-0E0,2E0,6.4857144E0,-0E0,-0E0,1.6666666E0,-0E0,9.911E1,-0E0,1.3654E2,6.2483307E-3,-0E0,1.1757E2,-0E0,-0E0,5.2E0,-0E0,-2.9749048E-3],"split_indices":[8,5,0,3,0,0,6,11,0,0,10,0,8,0,3,0,0,3,0,0,5,0,0],"split_type":[0,0,0,0,0,0,0,0,0,0,0,0,0,0,0,0,0,0,0,0,0,0,0],"sum_hessian":[8.4E1,6.9E1,1.5E1,5.4E1,1.5E1,3.4E1,2E1,9E0,6E0,4E0,1.6E1,2E0,7E0,1E0,1.5E1,4E0,3E0,1.1E1,4E0,2E0,9E0,2E0,7E0],"tree_param":{"num_deleted":"0","num_feature":"13","num_nodes":"23","size_leaf_vector":"1"}},{"base_weights":[-0E0,-0E0,-2.4745887E-4,6.302488E-4,-0E0,-0E0,9.258411E-3,-0E0,-1.4871928E-4,-0E0,-6.711484E-4,-0E0,1.4598534E-2,-0E0,-2.4412202E-3,4.187553E-3,-0E0,-0E0,-3.0811587E-3,-3.5049536E-3,-0E0,-8.03792E-4,-0E0],"categories":[],"categories_nodes":[],"categories_segments":[],"categories_sizes":[],"default_left":[0,0,0,0,0,0,0,0,0,0,0,0,0,0,0,0,0,0,0,0,0,0,0],"id":24,"left_children":[1,3,-1,5,7,9,11,-1,-1,-1,13,-1,15,-1,17,-1,-1,-1,19,21,-1,-1,-1],"loss_changes":[1.9704543E-5,1.7080185E-5,0E0,7.5438357E-4,9.489288E-6,1.0810566E-5,7.2035706E-4,0E0,0E0,0E0,1.0838058E-4,0E0,7.652283E-4,0E0,4.219904E-5,0E0,0E0,0E0,1.0595642E-5,8.191346E-6,0E0,0E0,0E0],"parents":[2147483647,0,0,1,1,3,3,4,4,5,5,6,6,10,10,12,12,14,14,18,18,19,19],"right_children":[2,4,-1,6,8,10,12,-1,-1,-1,14,-1,16,-1,18,-1,-1,-1,20,22,-1,-1,-1],"split_conditions":[1.2758E2,7.3E0,-2.4745887E-4,8E0,6.633333E0,5.7E0,6.4857144E0,-0E0,-1.4871928E-4,-0E0,4.6E0,-0E0,3.142857E0,-0E0,7.975E1,4.187553E-3,-0E0,-0E0,4E0,7.6E0,-0E0,-8.03792E-4,-0E0],"split_indices":[8,0,0,5,9,5,11,0,0,0,0,0,12,0,3,0,0,0,1,5,0,0,0],"split_type":[0,0,0,0,0,0,0,0,0,0,0,0,0,0,0,0,0,0,0,0,0,0,0],"sum_hessian":[8.4E1,6.9E1,1.5E1,4.3E1,2.6E1,3.4E1,9E0,6E0,2E1,1E1,2.4E1,2E0,7E0,4E0,2E1,6E0,1E0,3E0,1.7E1,1.4E1,3E0,1.3E1,1E0],"tree_param":{"num_deleted":"0","num_feature":"13","num_nodes":"23","size_leaf_vector":"1"}},{"base_weights":[-0E0,-7.5427117E-4,-0E0,-0E0,-3.3237091E-3,2.2007576E-3,-0E0,-4.2744703E-3,-0E0,-0E0,5.581652E-3,-3.9005774E-4,-0E0,-0E0,-5.65184E-3,1.1265883E-2,-0E0,-6.95844E-3,-0E0,1.6287804E-2,-0E0,-1.641531E-3,-0E0,4.3673124E-3,-0E0],"categories":[],"categories_nodes":[],"categories_segments":[],"categories_sizes":[],"default_left":[0,0,0,0,0,0,0,0,0,0,0,0,0,0,0,0,0,0,0,0,0,0,0,0,0],"id":25,"left_children":[1,3,5,-1,7,9,11,13,-1,-1,15,-1,-1,-1,17,19,-1,21,-1,23,-1,-1,-1,-1,-1],"loss_changes":[2.1619155E-5,3.3188623E-4,8.718002E-5,0E0,1.3981422E-4,3.8014262E-4,8.812328E-5,8.165982E-5,0E0,0E0,6.749588E-4,0E0,0E0,0E0,1.02899096E-4,7.14767E-4,0E0,1.5784346E-5,0E0,5.979369E-4,0E0,0E0,0E0,0E0,0E0],"parents":[2147483647,0,0,1,1,2,2,4,4,5,5,6,6,7,7,10,10,14,14,15,15,17,17,19,19],"right_children":[2,4,6,-1,8,10,12,14,-1,-1,16,-1,-1,-1,18,20,-1,22,-1,24,-1,-1,-1,-1,-1],"split_conditions":[3E0,5.2E0,3E0,-0E0,7.4E0,6.457143E0,9.5E0,5.3E0,-0E0,-0E0,7.0142856E0,-3.9005774E-4,-0E0,-0E0,3E0,8.4E0,-0E0,9.4E0,-0E0,7.233333E0,-0E0,-1.641531E-3,-0E0,4.3673124E-3,-0E0],"split_indices":[1,0,6,0,11,11,5,5,0,0,11,0,0,0,10,0,0,0,0,9,0,0,0,0,0],"split_type":[0,0,0,0,0,0,0,0,0,0,0,0,0,0,0,0,0,0,0,0,0,0,0,0,0],"sum_hessian":[8.4E1,3.8E1,4.6E1,6E0,3.2E1,1.8E1,2.8E1,2.7E1,5E0,3E0,1.5E1,2.7E1,1E0,9E0,1.8E1,9E0,6E0,1.4E1,4E0,7E0,2E0,1.2E1,2E0,6E0,1E0],"tree_param":{"num_deleted":"0","num_feature":"13","num_nodes":"25","size_leaf_vector":"1"}},{"base_weights":[-0E0,-6.1660266E-4,-0E0,-3.0131543E-3,-0E0,2.314477E-3,-0E0,-4.217166E-3,-0E0,5.41765E-3,-0E0,-1.3467453E-3,-0E0,-4.681757E-3,-0E0,-0E0,8.039638E-3,-0E0,-7.4829796E-4,-4.9045207E-3,-0E0,1.1113257E-2,-0E0,-0E0,-1.0952558E-3,-0E0,1.4585403E-2,1.7818794E-2,-0E0,-0E0,2.0354265E-2,5.0900984E-3,-0E0],"categories":[],"categories_nodes":[],"categories_segments":[],"categories_sizes":[],"default_left":[0,0,0,0,0,0,0,0,0,0,0,0,0,0,0,0,0,0,0,0,0,0,0,0,0,0,0,0,0,0,0,0,0],"id":26,"left_children":[1,3,5,7,-1,9,11,13,-1,15,-1,17,-1,19,-1,-1,21,-1,-1,23,-1,25,-1,-1,-1,-1,27,29,-1,-1,31,-1,-1],"loss_changes":[1.5207955E-5,2.662441E-4,1.232065E-4,7.423773E-5,0E0,3.757594E-4,2.5392126E-5,6.076836E-5,0E0,4.70571E-4,0E0,1.3076489E-4,0E0,1.6519742E-5,0E0,0E0,5.125171E-4,0E0,0E0,4.492962E-6,0E0,6.4528605E-4,0E0,0E0,0E0,0E0,7.302454E-4,4.5678415E-4,0E0,0E0,5.762563E-4,0E0,0E0],"parents":[2147483647,0,0,1,1,2,2,3,3,5,5,6,6,7,7,9,9,11,11,13,13,16,16,19,19,21,21,26,26,27,27,30,30],"right_children":[2,4,6,8,-1,10,12,14,-1,16,-1,18,-1,20,-1,-1,22,-1,-1,24,-1,26,-1,-1,-1,-1,28,30,-1,-1,32,-1,-1],"split_conditions":[1.0097E2,3E0,1.2129E2,3E0,-0E0,3.3333333E0,7.1E0,9.655E1,-0E0,6.2714286E0,-0E0,1.6666666E0,-0E0,7.9142857E0,-0E0,-0E0,8.4E0,-0E0,-7.4829796E-4,6.693E1,-0E0,7.255E1,-0E0,-0E0,-1.0952558E-3,-0E0,9.6E0,4.9E0,-0E0,-0E0,1.2758E2,5.0900984E-3,-0E0],"split_indices":[3,12,3,10,0,10,5,3,0,11,0,10,0,11,0,0,0,0,0,8,0,8,0,0,0,0,5,5,0,0,8,0,0],"split_type":[0,0,0,0,0,0,0,0,0,0,0,0,0,0,0,0,0,0,0,0,0,0,0,0,0,0,0,0,0,0,0,0,0],"sum_hessian":[8.4E1,4E1,4.4E1,3.1E1,9E0,2.3E1,2.1E1,2E1,1.1E1,1.7E1,6E0,1.4E1,7E0,1.9E1,1E0,2E0,1.5E1,1E0,1.3E1,1.8E1,1E0,1.2E1,3E0,1E0,1.7E1,2E0,1E1,9E0,1E0,1E0,8E0,7E0,1E0],"tree_param":{"num_deleted":"0","num_feature":"13","num_nodes":"33","size_leaf_vector":"1"}},{"base_weights":[-0E0,-0E0,-3.2142823E-4,-0E0,-1.0581654E-3,-0E0,-2.3061961E-3,-4.419822E-3,-0E0,-0E0,-4.947345E-3,-0E0,-5.1287487E-3,-0E0,-5.29114E-3,-5.4624076E-3,-0E0,-1.2193124E-3,-0E0],"categories":[],"categories_nodes":[],"categories_segments":[],"categories_sizes":[],"default_left":[0,0,0,0,0,0,0,0,0,0,0,0,0,0,0,0,0,0,0],"id":27,"left_children":[1,-1,3,-1,5,-1,7,9,-1,-1,11,-1,13,-1,15,17,-1,-1,-1],"loss_changes":[8.368606E-6,0E0,6.217339E-5,0E0,2.1134067E-4,0E0,1.4788346E-4,8.4234576E-5,0E0,0E0,1.2080651E-5,0E0,5.8457954E-6,0E0,5.155045E-6,5.1032985E-6,0E0,0E0,0E0],"parents":[2147483647,0,0,2,2,4,4,6,6,7,7,10,10,12,12,14,14,15,15],"right_children":[2,-1,4,-1,6,-1,8,10,-1,-1,12,-1,14,-1,16,18,-1,-1,-1],"split_conditions":[2.142857E0,-0E0,8.886E1,-0E0,5.2E0,-0E0,9.539E1,5.2E0,-0E0,-0E0,1E0,-0E0,6.693E1,-0E0,1.3654E2,5E0,-0E0,-1.2193124E-3,-0E0],"split_indices":[12,0,3,0,0,0,8,5,0,0,7,0,8,0,3,1,0,0,0],"split_type":[0,0,0,0,0,0,0,0,0,0,0,0,0,0,0,0,0,0,0],"sum_hessian":[8.4E1,3E0,8.1E1,1.8E1,6.3E1,1E1,5.3E1,2.2E1,3.1E1,1E0,2.1E1,1E0,2E1,1E0,1.9E1,1.8E1,1E0,1.7E1,1E0],"tree_param":{"num_deleted":"0","num_feature":"13","num_nodes":"19","size_leaf_vector":"1"}},{"base_weights":[-0E0],"categories":[],"categories_nodes":[],"categories_segments":[],"categories_sizes":[],"default_left":[0],"id":28,"left_children":[-1],"loss_changes":[0E0],"parents":[2147483647],"right_children":[-1],"split_conditions":[-0E0],"split_indices":[0],"split_type":[0],"sum_hessian":[8.4E1],"tree_param":{"num_deleted":"0","num_feature":"13","num_nodes":"1","size_leaf_vector":"1"}},{"base_weights":[-0E0],"categories":[],"categories_nodes":[],"categories_segments":[],"categories_sizes":[],"default_left":[0],"id":29,"left_children":[-1],"loss_changes":[0E0],"parents":[2147483647],"right_children":[-1],"split_conditions":[-0E0],"split_indices":[0],"split_type":[0],"sum_hessian":[8.4E1],"tree_param":{"num_deleted":"0","num_feature":"13","num_nodes":"1","size_leaf_vector":"1"}},{"base_weights":[-0E0],"categories":[],"categories_nodes":[],"categories_segments":[],"categories_sizes":[],"default_left":[0],"id":30,"left_children":[-1],"loss_changes":[0E0],"parents":[2147483647],"right_children":[-1],"split_conditions":[-0E0],"split_indices":[0],"split_type":[0],"sum_hessian":[8.4E1],"tree_param":{"num_deleted":"0","num_feature":"13","num_nodes":"1","size_leaf_vector":"1"}},{"base_weights":[-0E0],"categories":[],"categories_nodes":[],"categories_segments":[],"categories_sizes":[],"default_left":[0],"id":31,"left_children":[-1],"loss_changes":[0E0],"parents":[2147483647],"right_children":[-1],"split_conditions":[-0E0],"split_indices":[0],"split_type":[0],"sum_hessian":[8.4E1],"tree_param":{"num_deleted":"0","num_feature":"13","num_nodes":"1","size_leaf_vector":"1"}},{"base_weights":[-0E0],"categories":[],"categories_nodes":[],"categories_segments":[],"categories_sizes":[],"default_left":[0],"id":32,"left_children":[-1],"loss_changes":[0E0],"parents":[2147483647],"right_children":[-1],"split_conditions":[-0E0],"split_indices":[0],"split_type":[0],"sum_hessian":[8.4E1],"tree_param":{"num_deleted":"0","num_feature":"13","num_nodes":"1","size_leaf_vector":"1"}},{"base_weights":[-0E0],"categories":[],"categories_nodes":[],"categories_segments":[],"categories_sizes":[],"default_left":[0],"id":33,"left_children":[-1],"loss_changes":[0E0],"parents":[2147483647],"right_children":[-1],"split_conditions":[-0E0],"split_indices":[0],"split_type":[0],"sum_hessian":[8.4E1],"tree_param":{"num_deleted":"0","num_feature":"13","num_nodes":"1","size_leaf_vector":"1"}},{"base_weights":[-0E0],"categories":[],"categories_nodes":[],"categories_segments":[],"categories_sizes":[],"default_left":[0],"id":34,"left_children":[-1],"loss_changes":[0E0],"parents":[2147483647],"right_children":[-1],"split_conditions":[-0E0],"split_indices":[0],"split_type":[0],"sum_hessian":[8.4E1],"tree_param":{"num_deleted":"0","num_feature":"13","num_nodes":"1","size_leaf_vector":"1"}},{"base_weights":[-0E0],"categories":[],"categories_nodes":[],"categories_segments":[],"categories_sizes":[],"default_left":[0],"id":35,"left_children":[-1],"loss_changes":[0E0],"parents":[2147483647],"right_children":[-1],"split_conditions":[-0E0],"split_indices":[0],"split_type":[0],"sum_hessian":[8.4E1],"tree_param":{"num_deleted":"0","num_feature":"13","num_nodes":"1","size_leaf_vector":"1"}},{"base_weights":[-0E0],"categories":[],"categories_nodes":[],"categories_segments":[],"categories_sizes":[],"default_left":[0],"id":36,"left_children":[-1],"loss_changes":[0E0],"parents":[2147483647],"right_children":[-1],"split_conditions":[-0E0],"split_indices":[0],"split_type":[0],"sum_hessian":[8.4E1],"tree_param":{"num_deleted":"0","num_feature":"13","num_nodes":"1","size_leaf_vector":"1"}},{"base_weights":[-0E0],"categories":[],"categories_nodes":[],"categories_segments":[],"categories_sizes":[],"default_left":[0],"id":37,"left_children":[-1],"loss_changes":[0E0],"parents":[2147483647],"right_children":[-1],"split_conditions":[-0E0],"split_indices":[0],"split_type":[0],"sum_hessian":[8.4E1],"tree_param":{"num_deleted":"0","num_feature":"13","num_nodes":"1","size_leaf_vector":"1"}},{"base_weights":[-0E0],"categories":[],"categories_nodes":[],"categories_segments":[],"categories_sizes":[],"default_left":[0],"id":38,"left_children":[-1],"loss_changes":[0E0],"parents":[2147483647],"right_children":[-1],"split_conditions":[-0E0],"split_indices":[0],"split_type":[0],"sum_hessian":[8.4E1],"tree_param":{"num_deleted":"0","num_feature":"13","num_nodes":"1","size_leaf_vector":"1"}},{"base_weights":[-0E0],"categories":[],"categories_nodes":[],"categories_segments":[],"categories_sizes":[],"default_left":[0],"id":39,"left_children":[-1],"loss_changes":[0E0],"parents":[2147483647],"right_children":[-1],"split_conditions":[-0E0],"split_indices":[0],"split_type":[0],"sum_hessian":[8.4E1],"tree_param":{"num_deleted":"0","num_feature":"13","num_nodes":"1","size_leaf_vector":"1"}},{"base_weights":[-0E0],"categories":[],"categories_nodes":[],"categories_segments":[],"categories_sizes":[],"default_left":[0],"id":40,"left_children":[-1],"loss_changes":[0E0],"parents":[2147483647],"right_children":[-1],"split_conditions":[-0E0],"split_indices":[0],"split_type":[0],"sum_hessian":[8.4E1],"tree_param":{"num_deleted":"0","num_feature":"13","num_nodes":"1","size_leaf_vector":"1"}},{"base_weights":[-0E0],"categories":[],"categories_nodes":[],"categories_segments":[],"categories_sizes":[],"default_left":[0],"id":41,"left_children":[-1],"loss_changes":[0E0],"parents":[2147483647],"right_children":[-1],"split_conditions":[-0E0],"split_indices":[0],"split_type":[0],"sum_hessian":[8.4E1],"tree_param":{"num_deleted":"0","num_feature":"13","num_nodes":"1","size_leaf_vector":"1"}},{"base_weights":[-0E0],"categories":[],"categories_nodes":[],"categories_segments":[],"categories_sizes":[],"default_left":[0],"id":42,"left_children":[-1],"loss_changes":[0E0],"parents":[2147483647],"right_children":[-1],"split_conditions":[-0E0],"split_indices":[0],"split_type":[0],"sum_hessian":[8.4E1],"tree_param":{"num_deleted":"0","num_feature":"13","num_nodes":"1","size_leaf_vector":"1"}},{"base_weights":[-0E0],"categories":[],"categories_nodes":[],"categories_segments":[],"categories_sizes":[],"default_left":[0],"id":43,"left_children":[-1],"loss_changes":[0E0],"parents":[2147483647],"right_children":[-1],"split_conditions":[-0E0],"split_indices":[0],"split_type":[0],"sum_hessian":[8.4E1],"tree_param":{"num_deleted":"0","num_feature":"13","num_nodes":"1","size_leaf_vector":"1"}},{"base_weights":[-0E0],"categories":[],"categories_nodes":[],"categories_segments":[],"categories_sizes":[],"default_left":[0],"id":44,"left_children":[-1],"loss_changes":[0E0],"parents":[2147483647],"right_children":[-1],"split_conditions":[-0E0],"split_indices":[0],"split_type":[0],"sum_hessian":[8.4E1],"tree_param":{"num_deleted":"0","num_feature":"13","num_nodes":"1","size_leaf_vector":"1"}},{"base_weights":[-0E0],"categories":[],"categories_nodes":[],"categories_segments":[],"categories_sizes":[],"default_left":[0],"id":45,"left_children":[-1],"loss_changes":[0E0],"parents":[2147483647],"right_children":[-1],"split_conditions":[-0E0],"split_indices":[0],"split_type":[0],"sum_hessian":[8.4E1],"tree_param":{"num_deleted":"0","num_feature":"13","num_nodes":"1","size_leaf_vector":"1"}},{"base_weights":[-0E0],"categories":[],"categories_nodes":[],"categories_segments":[],"categories_sizes":[],"default_left":[0],"id":46,"left_children":[-1],"loss_changes":[0E0],"parents":[2147483647],"right_children":[-1],"split_conditions":[-0E0],"split_indices":[0],"split_type":[0],"sum_hessian":[8.4E1],"tree_param":{"num_deleted":"0","num_feature":"13","num_nodes":"1","size_leaf_vector":"1"}},{"base_weights":[-0E0],"categories":[],"categories_nodes":[],"categories_segments":[],"categories_sizes":[],"default_left":[0],"id":47,"left_children":[-1],"loss_changes":[0E0],"parents":[2147483647],"right_children":[-1],"split_conditions":[-0E0],"split_indices":[0],"split_type":[0],"sum_hessian":[8.4E1],"tree_param":{"num_deleted":"0","num_feature":"13","num_nodes":"1","size_leaf_vector":"1"}},{"base_weights":[-0E0],"categories":[],"categories_nodes":[],"categories_segments":[],"categories_sizes":[],"default_left":[0],"id":48,"left_children":[-1],"loss_changes":[0E0],"parents":[2147483647],"right_children":[-1],"split_conditions":[-0E0],"split_indices":[0],"split_type":[0],"sum_hessian":[8.4E1],"tree_param":{"num_deleted":"0","num_feature":"13","num_nodes":"1","size_leaf_vector":"1"}},{"base_weights":[-0E0],"categories":[],"categories_nodes":[],"categories_segments":[],"categories_sizes":[],"default_left":[0],"id":49,"left_children":[-1],"loss_changes":[0E0],"parents":[2147483647],"right_children":[-1],"split_conditions":[-0E0],"split_indices":[0],"split_type":[0],"sum_hessian":[8.4E1],"tree_param":{"num_deleted":"0","num_feature":"13","num_nodes":"1","size_leaf_vector":"1"}},{"base_weights":[-0E0],"categories":[],"categories_nodes":[],"categories_segments":[],"categories_sizes":[],"default_left":[0],"id":50,"left_children":[-1],"loss_changes":[0E0],"parents":[2147483647],"right_children":[-1],"split_conditions":[-0E0],"split_indices":[0],"split_type":[0],"sum_hessian":[8.4E1],"tree_param":{"num_deleted":"0","num_feature":"13","num_nodes":"1","size_leaf_vector":"1"}},{"base_weights":[-0E0],"categories":[],"categories_nodes":[],"categories_segments":[],"categories_sizes":[],"default_left":[0],"id":51,"left_children":[-1],"loss_changes":[0E0],"parents":[2147483647],"right_children":[-1],"split_conditions":[-0E0],"split_indices":[0],"split_type":[0],"sum_hessian":[8.4E1],"tree_param":{"num_deleted":"0","num_feature":"13","num_nodes":"1","size_leaf_vector":"1"}},{"base_weights":[-0E0],"categories":[],"categories_nodes":[],"categories_segments":[],"categories_sizes":[],"default_left":[0],"id":52,"left_children":[-1],"loss_changes":[0E0],"parents":[2147483647],"right_children":[-1],"split_conditions":[-0E0],"split_indices":[0],"split_type":[0],"sum_hessian":[8.4E1],"tree_param":{"num_deleted":"0","num_feature":"13","num_nodes":"1","size_leaf_vector":"1"}},{"base_weights":[-0E0],"categories":[],"categories_nodes":[],"categories_segments":[],"categories_sizes":[],"default_left":[0],"id":53,"left_children":[-1],"loss_changes":[0E0],"parents":[2147483647],"right_children":[-1],"split_conditions":[-0E0],"split_indices":[0],"split_type":[0],"sum_hessian":[8.4E1],"tree_param":{"num_deleted":"0","num_feature":"13","num_nodes":"1","size_leaf_vector":"1"}},{"base_weights":[-0E0],"categories":[],"categories_nodes":[],"categories_segments":[],"categories_sizes":[],"default_left":[0],"id":54,"left_children":[-1],"loss_changes":[0E0],"parents":[2147483647],"right_children":[-1],"split_conditions":[-0E0],"split_indices":[0],"split_type":[0],"sum_hessian":[8.4E1],"tree_param":{"num_deleted":"0","num_feature":"13","num_nodes":"1","size_leaf_vector":"1"}},{"base_weights":[-0E0],"categories":[],"categories_nodes":[],"categories_segments":[],"categories_sizes":[],"default_left":[0],"id":55,"left_children":[-1],"loss_changes":[0E0],"parents":[2147483647],"right_children":[-1],"split_conditions":[-0E0],"split_indices":[0],"split_type":[0],"sum_hessian":[8.4E1],"tree_param":{"num_deleted":"0","num_feature":"13","num_nodes":"1","size_leaf_vector":"1"}},{"base_weights":[-0E0],"categories":[],"categories_nodes":[],"categories_segments":[],"categories_sizes":[],"default_left":[0],"id":56,"left_children":[-1],"loss_changes":[0E0],"parents":[2147483647],"right_children":[-1],"split_conditions":[-0E0],"split_indices":[0],"split_type":[0],"sum_hessian":[8.4E1],"tree_param":{"num_deleted":"0","num_feature":"13","num_nodes":"1","size_leaf_vector":"1"}},{"base_weights":[-0E0],"categories":[],"categories_nodes":[],"categories_segments":[],"categories_sizes":[],"default_left":[0],"id":57,"left_children":[-1],"loss_changes":[0E0],"parents":[2147483647],"right_children":[-1],"split_conditions":[-0E0],"split_indices":[0],"split_type":[0],"sum_hessian":[8.4E1],"tree_param":{"num_deleted":"0","num_feature":"13","num_nodes":"1","size_leaf_vector":"1"}},{"base_weights":[-0E0],"categories":[],"categories_nodes":[],"categories_segments":[],"categories_sizes":[],"default_left":[0],"id":58,"left_children":[-1],"loss_changes":[0E0],"parents":[2147483647],"right_children":[-1],"split_conditions":[-0E0],"split_indices":[0],"split_type":[0],"sum_hessian":[8.4E1],"tree_param":{"num_deleted":"0","num_feature":"13","num_nodes":"1","size_leaf_vector":"1"}},{"base_weights":[-0E0],"categories":[],"categories_nodes":[],"categories_segments":[],"categories_sizes":[],"default_left":[0],"id":59,"left_children":[-1],"loss_changes":[0E0],"parents":[2147483647],"right_children":[-1],"split_conditions":[-0E0],"split_indices":[0],"split_type":[0],"sum_hessian":[8.4E1],"tree_param":{"num_deleted":"0","num_feature":"13","num_nodes":"1","size_leaf_vector":"1"}},{"base_weights":[-0E0],"categories":[],"categories_nodes":[],"categories_segments":[],"categories_sizes":[],"default_left":[0],"id":60,"left_children":[-1],"loss_changes":[0E0],"parents":[2147483647],"right_children":[-1],"split_conditions":[-0E0],"split_indices":[0],"split_type":[0],"sum_hessian":[8.4E1],"tree_param":{"num_deleted":"0","num_feature":"13","num_nodes":"1","size_leaf_vector":"1"}},{"base_weights":[-0E0],"categories":[],"categories_nodes":[],"categories_segments":[],"categories_sizes":[],"default_left":[0],"id":61,"left_children":[-1],"loss_changes":[0E0],"parents":[2147483647],"right_children":[-1],"split_conditions":[-0E0],"split_indices":[0],"split_type":[0],"sum_hessian":[8.4E1],"tree_param":{"num_deleted":"0","num_feature":"13","num_nodes":"1","size_leaf_vector":"1"}},{"base_weights":[-0E0],"categories":[],"categories_nodes":[],"categories_segments":[],"categories_sizes":[],"default_left":[0],"id":62,"left_children":[-1],"loss_changes":[0E0],"parents":[2147483647],"right_children":[-1],"split_conditions":[-0E0],"split_indices":[0],"split_type":[0],"sum_hessian":[8.4E1],"tree_param":{"num_deleted":"0","num_feature":"13","num_nodes":"1","size_leaf_vector":"1"}},{"base_weights":[-0E0],"categories":[],"categories_nodes":[],"categories_segments":[],"categories_sizes":[],"default_left":[0],"id":63,"left_children":[-1],"loss_changes":[0E0],"parents":[2147483647],"right_children":[-1],"split_conditions":[-0E0],"split_indices":[0],"split_type":[0],"sum_hessian":[8.4E1],"tree_param":{"num_deleted":"0","num_feature":"13","num_nodes":"1","size_leaf_vector":"1"}},{"base_weights":[-0E0],"categories":[],"categories_nodes":[],"categories_segments":[],"categories_sizes":[],"default_left":[0],"id":64,"left_children":[-1],"loss_changes":[0E0],"parents":[2147483647],"right_children":[-1],"split_conditions":[-0E0],"split_indices":[0],"split_type":[0],"sum_hessian":[8.4E1],"tree_param":{"num_deleted":"0","num_feature":"13","num_nodes":"1","size_leaf_vector":"1"}},{"base_weights":[-0E0],"categories":[],"categories_nodes":[],"categories_segments":[],"categories_sizes":[],"default_left":[0],"id":65,"left_children":[-1],"loss_changes":[0E0],"parents":[2147483647],"right_children":[-1],"split_conditions":[-0E0],"split_indices":[0],"split_type":[0],"sum_hessian":[8.4E1],"tree_param":{"num_deleted":"0","num_feature":"13","num_nodes":"1","size_leaf_vector":"1"}},{"base_weights":[-0E0],"categories":[],"categories_nodes":[],"categories_segments":[],"categories_sizes":[],"default_left":[0],"id":66,"left_children":[-1],"loss_changes":[0E0],"parents":[2147483647],"right_children":[-1],"split_conditions":[-0E0],"split_indices":[0],"split_type":[0],"sum_hessian":[8.4E1],"tree_param":{"num_deleted":"0","num_feature":"13","num_nodes":"1","size_leaf_vector":"1"}},{"base_weights":[-0E0],"categories":[],"categories_nodes":[],"categories_segments":[],"categories_sizes":[],"default_left":[0],"id":67,"left_children":[-1],"loss_changes":[0E0],"parents":[2147483647],"right_children":[-1],"split_conditions":[-0E0],"split_indices":[0],"split_type":[0],"sum_hessian":[8.4E1],"tree_param":{"num_deleted":"0","num_feature":"13","num_nodes":"1","size_leaf_vector":"1"}},{"base_weights":[-0E0],"categories":[],"categories_nodes":[],"categories_segments":[],"categories_sizes":[],"default_left":[0],"id":68,"left_children":[-1],"loss_changes":[0E0],"parents":[2147483647],"right_children":[-1],"split_conditions":[-0E0],"split_indices":[0],"split_type":[0],"sum_hessian":[8.4E1],"tree_param":{"num_deleted":"0","num_feature":"13","num_nodes":"1","size_leaf_vector":"1"}},{"base_weights":[-0E0],"categories":[],"categories_nodes":[],"categories_segments":[],"categories_sizes":[],"default_left":[0],"id":69,"left_children":[-1],"loss_changes":[0E0],"parents":[2147483647],"right_children":[-1],"split_conditions":[-0E0],"split_indices":[0],"split_type":[0],"sum_hessian":[8.4E1],"tree_param":{"num_deleted":"0","num_feature":"13","num_nodes":"1","size_leaf_vector":"1"}},{"base_weights":[-0E0],"categories":[],"categories_nodes":[],"categories_segments":[],"categories_sizes":[],"default_left":[0],"id":70,"left_children":[-1],"loss_changes":[0E0],"parents":[2147483647],"right_children":[-1],"split_conditions":[-0E0],"split_indices":[0],"split_type":[0],"sum_hessian":[8.4E1],"tree_param":{"num_deleted":"0","num_feature":"13","num_nodes":"1","size_leaf_vector":"1"}},{"base_weights":[-0E0],"categories":[],"categories_nodes":[],"categories_segments":[],"categories_sizes":[],"default_left":[0],"id":71,"left_children":[-1],"loss_changes":[0E0],"parents":[2147483647],"right_children":[-1],"split_conditions":[-0E0],"split_indices":[0],"split_type":[0],"sum_hessian":[8.4E1],"tree_param":{"num_deleted":"0","num_feature":"13","num_nodes":"1","size_leaf_vector":"1"}},{"base_weights":[-0E0],"categories":[],"categories_nodes":[],"categories_segments":[],"categories_sizes":[],"default_left":[0],"id":72,"left_children":[-1],"loss_changes":[0E0],"parents":[2147483647],"right_children":[-1],"split_conditions":[-0E0],"split_indices":[0],"split_type":[0],"sum_hessian":[8.4E1],"tree_param":{"num_deleted":"0","num_feature":"13","num_nodes":"1","size_leaf_vector":"1"}},{"base_weights":[-0E0],"categories":[],"categories_nodes":[],"categories_segments":[],"categories_sizes":[],"default_left":[0],"id":73,"left_children":[-1],"loss_changes":[0E0],"parents":[2147483647],"right_children":[-1],"split_conditions":[-0E0],"split_indices":[0],"split_type":[0],"sum_hessian":[8.4E1],"tree_param":{"num_deleted":"0","num_feature":"13","num_nodes":"1","size_leaf_vector":"1"}},{"base_weights":[-0E0],"categories":[],"categories_nodes":[],"categories_segments":[],"categories_sizes":[],"default_left":[0],"id":74,"left_children":[-1],"loss_changes":[0E0],"parents":[2147483647],"right_children":[-1],"split_conditions":[-0E0],"split_indices":[0],"split_type":[0],"sum_hessian":[8.4E1],"tree_param":{"num_deleted":"0","num_feature":"13","num_nodes":"1","size_leaf_vector":"1"}},{"base_weights":[-0E0],"categories":[],"categories_nodes":[],"categories_segments":[],"categories_sizes":[],"default_left":[0],"id":75,"left_children":[-1],"loss_changes":[0E0],"parents":[2147483647],"right_children":[-1],"split_conditions":[-0E0],"split_indices":[0],"split_type":[0],"sum_hessian":[8.4E1],"tree_param":{"num_deleted":"0","num_feature":"13","num_nodes":"1","size_leaf_vector":"1"}},{"base_weights":[-0E0],"categories":[],"categories_nodes":[],"categories_segments":[],"categories_sizes":[],"default_left":[0],"id":76,"left_children":[-1],"loss_changes":[0E0],"parents":[2147483647],"right_children":[-1],"split_conditions":[-0E0],"split_indices":[0],"split_type":[0],"sum_hessian":[8.4E1],"tree_param":{"num_deleted":"0","num_feature":"13","num_nodes":"1","size_leaf_vector":"1"}},{"base_weights":[-0E0],"categories":[],"categories_nodes":[],"categories_segments":[],"categories_sizes":[],"default_left":[0],"id":77,"left_children":[-1],"loss_changes":[0E0],"parents":[2147483647],"right_children":[-1],"split_conditions":[-0E0],"split_indices":[0],"split_type":[0],"sum_hessian":[8.4E1],"tree_param":{"num_deleted":"0","num_feature":"13","num_nodes":"1","size_leaf_vector":"1"}},{"base_weights":[-0E0],"categories":[],"categories_nodes":[],"categories_segments":[],"categories_sizes":[],"default_left":[0],"id":78,"left_children":[-1],"loss_changes":[0E0],"parents":[2147483647],"right_children":[-1],"split_conditions":[-0E0],"split_indices":[0],"split_type":[0],"sum_hessian":[8.4E1],"tree_param":{"num_deleted":"0","num_feature":"13","num_nodes":"1","size_leaf_vector":"1"}},{"base_weights":[-0E0],"categories":[],"categories_nodes":[],"categories_segments":[],"categories_sizes":[],"default_left":[0],"id":79,"left_children":[-1],"loss_changes":[0E0],"parents":[2147483647],"right_children":[-1],"split_conditions":[-0E0],"split_indices":[0],"split_type":[0],"sum_hessian":[8.4E1],"tree_param":{"num_deleted":"0","num_feature":"13","num_nodes":"1","size_leaf_vector":"1"}},{"base_weights":[-0E0],"categories":[],"categories_nodes":[],"categories_segments":[],"categories_sizes":[],"default_left":[0],"id":80,"left_children":[-1],"loss_changes":[0E0],"parents":[2147483647],"right_children":[-1],"split_conditions":[-0E0],"split_indices":[0],"split_type":[0],"sum_hessian":[8.4E1],"tree_param":{"num_deleted":"0","num_feature":"13","num_nodes":"1","size_leaf_vector":"1"}},{"base_weights":[-0E0],"categories":[],"categories_nodes":[],"categories_segments":[],"categories_sizes":[],"default_left":[0],"id":81,"left_children":[-1],"loss_changes":[0E0],"parents":[2147483647],"right_children":[-1],"split_conditions":[-0E0],"split_indices":[0],"split_type":[0],"sum_hessian":[8.4E1],"tree_param":{"num_deleted":"0","num_feature":"13","num_nodes":"1","size_leaf_vector":"1"}},{"base_weights":[-0E0],"categories":[],"categories_nodes":[],"categories_segments":[],"categories_sizes":[],"default_left":[0],"id":82,"left_children":[-1],"loss_changes":[0E0],"parents":[2147483647],"right_children":[-1],"split_conditions":[-0E0],"split_indices":[0],"split_type":[0],"sum_hessian":[8.4E1],"tree_param":{"num_deleted":"0","num_feature":"13","num_nodes":"1","size_leaf_vector":"1"}},{"base_weights":[-0E0],"categories":[],"categories_nodes":[],"categories_segments":[],"categories_sizes":[],"default_left":[0],"id":83,"left_children":[-1],"loss_changes":[0E0],"parents":[2147483647],"right_children":[-1],"split_conditions":[-0E0],"split_indices":[0],"split_type":[0],"sum_hessian":[8.4E1],"tree_param":{"num_deleted":"0","num_feature":"13","num_nodes":"1","size_leaf_vector":"1"}},{"base_weights":[-0E0],"categories":[],"categories_nodes":[],"categories_segments":[],"categories_sizes":[],"default_left":[0],"id":84,"left_children":[-1],"loss_changes":[0E0],"parents":[2147483647],"right_children":[-1],"split_conditions":[-0E0],"split_indices":[0],"split_type":[0],"sum_hessian":[8.4E1],"tree_param":{"num_deleted":"0","num_feature":"13","num_nodes":"1","size_leaf_vector":"1"}},{"base_weights":[-0E0],"categories":[],"categories_nodes":[],"categories_segments":[],"categories_sizes":[],"default_left":[0],"id":85,"left_children":[-1],"loss_changes":[0E0],"parents":[2147483647],"right_children":[-1],"split_conditions":[-0E0],"split_indices":[0],"split_type":[0],"sum_hessian":[8.4E1],"tree_param":{"num_deleted":"0","num_feature":"13","num_nodes":"1","size_leaf_vector":"1"}},{"base_weights":[-0E0],"categories":[],"categories_nodes":[],"categories_segments":[],"categories_sizes":[],"default_left":[0],"id":86,"left_children":[-1],"loss_changes":[0E0],"parents":[2147483647],"right_children":[-1],"split_conditions":[-0E0],"split_indices":[0],"split_type":[0],"sum_hessian":[8.4E1],"tree_param":{"num_deleted":"0","num_feature":"13","num_nodes":"1","size_leaf_vector":"1"}},{"base_weights":[-0E0],"categories":[],"categories_nodes":[],"categories_segments":[],"categories_sizes":[],"default_left":[0],"id":87,"left_children":[-1],"loss_changes":[0E0],"parents":[2147483647],"right_children":[-1],"split_conditions":[-0E0],"split_indices":[0],"split_type":[0],"sum_hessian":[8.4E1],"tree_param":{"num_deleted":"0","num_feature":"13","num_nodes":"1","size_leaf_vector":"1"}},{"base_weights":[-0E0],"categories":[],"categories_nodes":[],"categories_segments":[],"categories_sizes":[],"default_left":[0],"id":88,"left_children":[-1],"loss_changes":[0E0],"parents":[2147483647],"right_children":[-1],"split_conditions":[-0E0],"split_indices":[0],"split_type":[0],"sum_hessian":[8.4E1],"tree_param":{"num_deleted":"0","num_feature":"13","num_nodes":"1","size_leaf_vector":"1"}},{"base_weights":[-0E0],"categories":[],"categories_nodes":[],"categories_segments":[],"categories_sizes":[],"default_left":[0],"id":89,"left_children":[-1],"loss_changes":[0E0],"parents":[2147483647],"right_children":[-1],"split_conditions":[-0E0],"split_indices":[0],"split_type":[0],"sum_hessian":[8.4E1],"tree_param":{"num_deleted":"0","num_feature":"13","num_nodes":"1","size_leaf_vector":"1"}},{"base_weights":[-0E0],"categories":[],"categories_nodes":[],"categories_segments":[],"categories_sizes":[],"default_left":[0],"id":90,"left_children":[-1],"loss_changes":[0E0],"parents":[2147483647],"right_children":[-1],"split_conditions":[-0E0],"split_indices":[0],"split_type":[0],"sum_hessian":[8.4E1],"tree_param":{"num_deleted":"0","num_feature":"13","num_nodes":"1","size_leaf_vector":"1"}},{"base_weights":[-0E0],"categories":[],"categories_nodes":[],"categories_segments":[],"categories_sizes":[],"default_left":[0],"id":91,"left_children":[-1],"loss_changes":[0E0],"parents":[2147483647],"right_children":[-1],"split_conditions":[-0E0],"split_indices":[0],"split_type":[0],"sum_hessian":[8.4E1],"tree_param":{"num_deleted":"0","num_feature":"13","num_nodes":"1","size_leaf_vector":"1"}},{"base_weights":[-0E0],"categories":[],"categories_nodes":[],"categories_segments":[],"categories_sizes":[],"default_left":[0],"id":92,"left_children":[-1],"loss_changes":[0E0],"parents":[2147483647],"right_children":[-1],"split_conditions":[-0E0],"split_indices":[0],"split_type":[0],"sum_hessian":[8.4E1],"tree_param":{"num_deleted":"0","num_feature":"13","num_nodes":"1","size_leaf_vector":"1"}},{"base_weights":[-0E0],"categories":[],"categories_nodes":[],"categories_segments":[],"categories_sizes":[],"default_left":[0],"id":93,"left_children":[-1],"loss_changes":[0E0],"parents":[2147483647],"right_children":[-1],"split_conditions":[-0E0],"split_indices":[0],"split_type":[0],"sum_hessian":[8.4E1],"tree_param":{"num_deleted":"0","num_feature":"13","num_nodes":"1","size_leaf_vector":"1"}},{"base_weights":[-0E0],"categories":[],"categories_nodes":[],"categories_segments":[],"categories_sizes":[],"default_left":[0],"id":94,"left_children":[-1],"loss_changes":[0E0],"parents":[2147483647],"right_children":[-1],"split_conditions":[-0E0],"split_indices":[0],"split_type":[0],"sum_hessian":[8.4E1],"tree_param":{"num_deleted":"0","num_feature":"13","num_nodes":"1","size_leaf_vector":"1"}},{"base_weights":[-0E0],"categories":[],"categories_nodes":[],"categories_segments":[],"categories_sizes":[],"default_left":[0],"id":95,"left_children":[-1],"loss_changes":[0E0],"parents":[2147483647],"right_children":[-1],"split_conditions":[-0E0],"split_indices":[0],"split_type":[0],"sum_hessian":[8.4E1],"tree_param":{"num_deleted":"0","num_feature":"13","num_nodes":"1","size_leaf_vector":"1"}},{"base_weights":[-0E0],"categories":[],"categories_nodes":[],"categories_segments":[],"categories_sizes":[],"default_left":[0],"id":96,"left_children":[-1],"loss_changes":[0E0],"parents":[2147483647],"right_children":[-1],"split_conditions":[-0E0],"split_indices":[0],"split_type":[0],"sum_hessian":[8.4E1],"tree_param":{"num_deleted":"0","num_feature":"13","num_nodes":"1","size_leaf_vector":"1"}},{"base_weights":[-0E0],"categories":[],"categories_nodes":[],"categories_segments":[],"categories_sizes":[],"default_left":[0],"id":97,"left_children":[-1],"loss_changes":[0E0],"parents":[2147483647],"right_children":[-1],"split_conditions":[-0E0],"split_indices":[0],"split_type":[0],"sum_hessian":[8.4E1],"tree_param":{"num_deleted":"0","num_feature":"13","num_nodes":"1","size_leaf_vector":"1"}},{"base_weights":[-0E0],"categories":[],"categories_nodes":[],"categories_segments":[],"categories_sizes":[],"default_left":[0],"id":98,"left_children":[-1],"loss_changes":[0E0],"parents":[2147483647],"right_children":[-1],"split_conditions":[-0E0],"split_indices":[0],"split_type":[0],"sum_hessian":[8.4E1],"tree_param":{"num_deleted":"0","num_feature":"13","num_nodes":"1","size_leaf_vector":"1"}},{"base_weights":[-0E0],"categories":[],"categories_nodes":[],"categories_segments":[],"categories_sizes":[],"default_left":[0],"id":99,"left_children":[-1],"loss_changes":[0E0],"parents":[2147483647],"right_children":[-1],"split_conditions":[-0E0],"split_indices":[0],"split_type":[0],"sum_hessian":[8.4E1],"tree_param":{"num_deleted":"0","num_feature":"13","num_nodes":"1","size_leaf_vector":"1"}},{"base_weights":[-0E0],"categories":[],"categories_nodes":[],"categories_segments":[],"categories_sizes":[],"default_left":[0],"id":100,"left_children":[-1],"loss_changes":[0E0],"parents":[2147483647],"right_children":[-1],"split_conditions":[-0E0],"split_indices":[0],"split_type":[0],"sum_hessian":[8.4E1],"tree_param":{"num_deleted":"0","num_feature":"13","num_nodes":"1","size_leaf_vector":"1"}},{"base_weights":[-0E0],"categories":[],"categories_nodes":[],"categories_segments":[],"categories_sizes":[],"default_left":[0],"id":101,"left_children":[-1],"loss_changes":[0E0],"parents":[2147483647],"right_children":[-1],"split_conditions":[-0E0],"split_indices":[0],"split_type":[0],"sum_hessian":[8.4E1],"tree_param":{"num_deleted":"0","num_feature":"13","num_nodes":"1","size_leaf_vector":"1"}},{"base_weights":[-0E0],"categories":[],"categories_nodes":[],"categories_segments":[],"categories_sizes":[],"default_left":[0],"id":102,"left_children":[-1],"loss_changes":[0E0],"parents":[2147483647],"right_children":[-1],"split_conditions":[-0E0],"split_indices":[0],"split_type":[0],"sum_hessian":[8.4E1],"tree_param":{"num_deleted":"0","num_feature":"13","num_nodes":"1","size_leaf_vector":"1"}},{"base_weights":[-0E0],"categories":[],"categories_nodes":[],"categories_segments":[],"categories_sizes":[],"default_left":[0],"id":103,"left_children":[-1],"loss_changes":[0E0],"parents":[2147483647],"right_children":[-1],"split_conditions":[-0E0],"split_indices":[0],"split_type":[0],"sum_hessian":[8.4E1],"tree_param":{"num_deleted":"0","num_feature":"13","num_nodes":"1","size_leaf_vector":"1"}},{"base_weights":[-0E0],"categories":[],"categories_nodes":[],"categories_segments":[],"categories_sizes":[],"default_left":[0],"id":104,"left_children":[-1],"loss_changes":[0E0],"parents":[2147483647],"right_children":[-1],"split_conditions":[-0E0],"split_indices":[0],"split_type":[0],"sum_hessian":[8.4E1],"tree_param":{"num_deleted":"0","num_feature":"13","num_nodes":"1","size_leaf_vector":"1"}},{"base_weights":[-0E0],"categories":[],"categories_nodes":[],"categories_segments":[],"categories_sizes":[],"default_left":[0],"id":105,"left_children":[-1],"loss_changes":[0E0],"parents":[2147483647],"right_children":[-1],"split_conditions":[-0E0],"split_indices":[0],"split_type":[0],"sum_hessian":[8.4E1],"tree_param":{"num_deleted":"0","num_feature":"13","num_nodes":"1","size_leaf_vector":"1"}},{"base_weights":[-0E0],"categories":[],"categories_nodes":[],"categories_segments":[],"categories_sizes":[],"default_left":[0],"id":106,"left_children":[-1],"loss_changes":[0E0],"parents":[2147483647],"right_children":[-1],"split_conditions":[-0E0],"split_indices":[0],"split_type":[0],"sum_hessian":[8.4E1],"tree_param":{"num_deleted":"0","num_feature":"13","num_nodes":"1","size_leaf_vector":"1"}},{"base_weights":[-0E0],"categories":[],"categories_nodes":[],"categories_segments":[],"categories_sizes":[],"default_left":[0],"id":107,"left_children":[-1],"loss_changes":[0E0],"parents":[2147483647],"right_children":[-1],"split_conditions":[-0E0],"split_indices":[0],"split_type":[0],"sum_hessian":[8.4E1],"tree_param":{"num_deleted":"0","num_feature":"13","num_nodes":"1","size_leaf_vector":"1"}},{"base_weights":[-0E0],"categories":[],"categories_nodes":[],"categories_segments":[],"categories_sizes":[],"default_left":[0],"id":108,"left_children":[-1],"loss_changes":[0E0],"parents":[2147483647],"right_children":[-1],"split_conditions":[-0E0],"split_indices":[0],"split_type":[0],"sum_hessian":[8.4E1],"tree_param":{"num_deleted":"0","num_feature":"13","num_nodes":"1","size_leaf_vector":"1"}},{"base_weights":[-0E0],"categories":[],"categories_nodes":[],"categories_segments":[],"categories_sizes":[],"default_left":[0],"id":109,"left_children":[-1],"loss_changes":[0E0],"parents":[2147483647],"right_children":[-1],"split_conditions":[-0E0],"split_indices":[0],"split_type":[0],"sum_hessian":[8.4E1],"tree_param":{"num_deleted":"0","num_feature":"13","num_nodes":"1","size_leaf_vector":"1"}},{"base_weights":[-0E0],"categories":[],"categories_nodes":[],"categories_segments":[],"categories_sizes":[],"default_left":[0],"id":110,"left_children":[-1],"loss_changes":[0E0],"parents":[2147483647],"right_children":[-1],"split_conditions":[-0E0],"split_indices":[0],"split_type":[0],"sum_hessian":[8.4E1],"tree_param":{"num_deleted":"0","num_feature":"13","num_nodes":"1","size_leaf_vector":"1"}},{"base_weights":[-0E0],"categories":[],"categories_nodes":[],"categories_segments":[],"categories_sizes":[],"default_left":[0],"id":111,"left_children":[-1],"loss_changes":[0E0],"parents":[2147483647],"right_children":[-1],"split_conditions":[-0E0],"split_indices":[0],"split_type":[0],"sum_hessian":[8.4E1],"tree_param":{"num_deleted":"0","num_feature":"13","num_nodes":"1","size_leaf_vector":"1"}},{"base_weights":[-0E0],"categories":[],"categories_nodes":[],"categories_segments":[],"categories_sizes":[],"default_left":[0],"id":112,"left_children":[-1],"loss_changes":[0E0],"parents":[2147483647],"right_children":[-1],"split_conditions":[-0E0],"split_indices":[0],"split_type":[0],"sum_hessian":[8.4E1],"tree_param":{"num_deleted":"0","num_feature":"13","num_nodes":"1","size_leaf_vector":"1"}},{"base_weights":[-0E0],"categories":[],"categories_nodes":[],"categories_segments":[],"categories_sizes":[],"default_left":[0],"id":113,"left_children":[-1],"loss_changes":[0E0],"parents":[2147483647],"right_children":[-1],"split_conditions":[-0E0],"split_indices":[0],"split_type":[0],"sum_hessian":[8.4E1],"tree_param":{"num_deleted":"0","num_feature":"13","num_nodes":"1","size_leaf_vector":"1"}},{"base_weights":[-0E0],"categories":[],"categories_nodes":[],"categories_segments":[],"categories_sizes":[],"default_left":[0],"id":114,"left_children":[-1],"loss_changes":[0E0],"parents":[2147483647],"right_children":[-1],"split_conditions":[-0E0],"split_indices":[0],"split_type":[0],"sum_hessian":[8.4E1],"tree_param":{"num_deleted":"0","num_feature":"13","num_nodes":"1","size_leaf_vector":"1"}},{"base_weights":[-0E0],"categories":[],"categories_nodes":[],"categories_segments":[],"categories_sizes":[],"default_left":[0],"id":115,"left_children":[-1],"loss_changes":[0E0],"parents":[2147483647],"right_children":[-1],"split_conditions":[-0E0],"split_indices":[0],"split_type":[0],"sum_hessian":[8.4E1],"tree_param":{"num_deleted":"0","num_feature":"13","num_nodes":"1","size_leaf_vector":"1"}},{"base_weights":[-0E0],"categories":[],"categories_nodes":[],"categories_segments":[],"categories_sizes":[],"default_left":[0],"id":116,"left_children":[-1],"loss_changes":[0E0],"parents":[2147483647],"right_children":[-1],"split_conditions":[-0E0],"split_indices":[0],"split_type":[0],"sum_hessian":[8.4E1],"tree_param":{"num_deleted":"0","num_feature":"13","num_nodes":"1","size_leaf_vector":"1"}},{"base_weights":[-0E0],"categories":[],"categories_nodes":[],"categories_segments":[],"categories_sizes":[],"default_left":[0],"id":117,"left_children":[-1],"loss_changes":[0E0],"parents":[2147483647],"right_children":[-1],"split_conditions":[-0E0],"split_indices":[0],"split_type":[0],"sum_hessian":[8.4E1],"tree_param":{"num_deleted":"0","num_feature":"13","num_nodes":"1","size_leaf_vector":"1"}},{"base_weights":[-0E0],"categories":[],"categories_nodes":[],"categories_segments":[],"categories_sizes":[],"default_left":[0],"id":118,"left_children":[-1],"loss_changes":[0E0],"parents":[2147483647],"right_children":[-1],"split_conditions":[-0E0],"split_indices":[0],"split_type":[0],"sum_hessian":[8.4E1],"tree_param":{"num_deleted":"0","num_feature":"13","num_nodes":"1","size_leaf_vector":"1"}},{"base_weights":[-0E0],"categories":[],"categories_nodes":[],"categories_segments":[],"categories_sizes":[],"default_left":[0],"id":119,"left_children":[-1],"loss_changes":[0E0],"parents":[2147483647],"right_children":[-1],"split_conditions":[-0E0],"split_indices":[0],"split_type":[0],"sum_hessian":[8.4E1],"tree_param":{"num_deleted":"0","num_feature":"13","num_nodes":"1","size_leaf_vector":"1"}},{"base_weights":[-0E0],"categories":[],"categories_nodes":[],"categories_segments":[],"categories_sizes":[],"default_left":[0],"id":120,"left_children":[-1],"loss_changes":[0E0],"parents":[2147483647],"right_children":[-1],"split_conditions":[-0E0],"split_indices":[0],"split_type":[0],"sum_hessian":[8.4E1],"tree_param":{"num_deleted":"0","num_feature":"13","num_nodes":"1","size_leaf_vector":"1"}},{"base_weights":[-0E0],"categories":[],"categories_nodes":[],"categories_segments":[],"categories_sizes":[],"default_left":[0],"id":121,"left_children":[-1],"loss_changes":[0E0],"parents":[2147483647],"right_children":[-1],"split_conditions":[-0E0],"split_indices":[0],"split_type":[0],"sum_hessian":[8.4E1],"tree_param":{"num_deleted":"0","num_feature":"13","num_nodes":"1","size_leaf_vector":"1"}},{"base_weights":[-0E0],"categories":[],"categories_nodes":[],"categories_segments":[],"categories_sizes":[],"default_left":[0],"id":122,"left_children":[-1],"loss_changes":[0E0],"parents":[2147483647],"right_children":[-1],"split_conditions":[-0E0],"split_indices":[0],"split_type":[0],"sum_hessian":[8.4E1],"tree_param":{"num_deleted":"0","num_feature":"13","num_nodes":"1","size_leaf_vector":"1"}},{"base_weights":[-0E0],"categories":[],"categories_nodes":[],"categories_segments":[],"categories_sizes":[],"default_left":[0],"id":123,"left_children":[-1],"loss_changes":[0E0],"parents":[2147483647],"right_children":[-1],"split_conditions":[-0E0],"split_indices":[0],"split_type":[0],"sum_hessian":[8.4E1],"tree_param":{"num_deleted":"0","num_feature":"13","num_nodes":"1","size_leaf_vector":"1"}},{"base_weights":[-0E0],"categories":[],"categories_nodes":[],"categories_segments":[],"categories_sizes":[],"default_left":[0],"id":124,"left_children":[-1],"loss_changes":[0E0],"parents":[2147483647],"right_children":[-1],"split_conditions":[-0E0],"split_indices":[0],"split_type":[0],"sum_hessian":[8.4E1],"tree_param":{"num_deleted":"0","num_feature":"13","num_nodes":"1","size_leaf_vector":"1"}},{"base_weights":[-0E0],"categories":[],"categories_nodes":[],"categories_segments":[],"categories_sizes":[],"default_left":[0],"id":125,"left_children":[-1],"loss_changes":[0E0],"parents":[2147483647],"right_children":[-1],"split_conditions":[-0E0],"split_indices":[0],"split_type":[0],"sum_hessian":[8.4E1],"tree_param":{"num_deleted":"0","num_feature":"13","num_nodes":"1","size_leaf_vector":"1"}},{"base_weights":[-0E0],"categories":[],"categories_nodes":[],"categories_segments":[],"categories_sizes":[],"default_left":[0],"id":126,"left_children":[-1],"loss_changes":[0E0],"parents":[2147483647],"right_children":[-1],"split_conditions":[-0E0],"split_indices":[0],"split_type":[0],"sum_hessian":[8.4E1],"tree_param":{"num_deleted":"0","num_feature":"13","num_nodes":"1","size_leaf_vector":"1"}},{"base_weights":[-0E0],"categories":[],"categories_nodes":[],"categories_segments":[],"categories_sizes":[],"default_left":[0],"id":127,"left_children":[-1],"loss_changes":[0E0],"parents":[2147483647],"right_children":[-1],"split_conditions":[-0E0],"split_indices":[0],"split_type":[0],"sum_hessian":[8.4E1],"tree_param":{"num_deleted":"0","num_feature":"13","num_nodes":"1","size_leaf_vector":"1"}},{"base_weights":[-0E0],"categories":[],"categories_nodes":[],"categories_segments":[],"categories_sizes":[],"default_left":[0],"id":128,"left_children":[-1],"loss_changes":[0E0],"parents":[2147483647],"right_children":[-1],"split_conditions":[-0E0],"split_indices":[0],"split_type":[0],"sum_hessian":[8.4E1],"tree_param":{"num_deleted":"0","num_feature":"13","num_nodes":"1","size_leaf_vector":"1"}},{"base_weights":[-0E0],"categories":[],"categories_nodes":[],"categories_segments":[],"categories_sizes":[],"default_left":[0],"id":129,"left_children":[-1],"loss_changes":[0E0],"parents":[2147483647],"right_children":[-1],"split_conditions":[-0E0],"split_indices":[0],"split_type":[0],"sum_hessian":[8.4E1],"tree_param":{"num_deleted":"0","num_feature":"13","num_nodes":"1","size_leaf_vector":"1"}},{"base_weights":[-0E0],"categories":[],"categories_nodes":[],"categories_segments":[],"categories_sizes":[],"default_left":[0],"id":130,"left_children":[-1],"loss_changes":[0E0],"parents":[2147483647],"right_children":[-1],"split_conditions":[-0E0],"split_indices":[0],"split_type":[0],"sum_hessian":[8.4E1],"tree_param":{"num_deleted":"0","num_feature":"13","num_nodes":"1","size_leaf_vector":"1"}},{"base_weights":[-0E0],"categories":[],"categories_nodes":[],"categories_segments":[],"categories_sizes":[],"default_left":[0],"id":131,"left_children":[-1],"loss_changes":[0E0],"parents":[2147483647],"right_children":[-1],"split_conditions":[-0E0],"split_indices":[0],"split_type":[0],"sum_hessian":[8.4E1],"tree_param":{"num_deleted":"0","num_feature":"13","num_nodes":"1","size_leaf_vector":"1"}},{"base_weights":[-0E0],"categories":[],"categories_nodes":[],"categories_segments":[],"categories_sizes":[],"default_left":[0],"id":132,"left_children":[-1],"loss_changes":[0E0],"parents":[2147483647],"right_children":[-1],"split_conditions":[-0E0],"split_indices":[0],"split_type":[0],"sum_hessian":[8.4E1],"tree_param":{"num_deleted":"0","num_feature":"13","num_nodes":"1","size_leaf_vector":"1"}},{"base_weights":[-0E0],"categories":[],"categories_nodes":[],"categories_segments":[],"categories_sizes":[],"default_left":[0],"id":133,"left_children":[-1],"loss_changes":[0E0],"parents":[2147483647],"right_children":[-1],"split_conditions":[-0E0],"split_indices":[0],"split_type":[0],"sum_hessian":[8.4E1],"tree_param":{"num_deleted":"0","num_feature":"13","num_nodes":"1","size_leaf_vector":"1"}},{"base_weights":[-0E0],"categories":[],"categories_nodes":[],"categories_segments":[],"categories_sizes":[],"default_left":[0],"id":134,"left_children":[-1],"loss_changes":[0E0],"parents":[2147483647],"right_children":[-1],"split_conditions":[-0E0],"split_indices":[0],"split_type":[0],"sum_hessian":[8.4E1],"tree_param":{"num_deleted":"0","num_feature":"13","num_nodes":"1","size_leaf_vector":"1"}},{"base_weights":[-0E0],"categories":[],"categories_nodes":[],"categories_segments":[],"categories_sizes":[],"default_left":[0],"id":135,"left_children":[-1],"loss_changes":[0E0],"parents":[2147483647],"right_children":[-1],"split_conditions":[-0E0],"split_indices":[0],"split_type":[0],"sum_hessian":[8.4E1],"tree_param":{"num_deleted":"0","num_feature":"13","num_nodes":"1","size_leaf_vector":"1"}},{"base_weights":[-0E0],"categories":[],"categories_nodes":[],"categories_segments":[],"categories_sizes":[],"default_left":[0],"id":136,"left_children":[-1],"loss_changes":[0E0],"parents":[2147483647],"right_children":[-1],"split_conditions":[-0E0],"split_indices":[0],"split_type":[0],"sum_hessian":[8.4E1],"tree_param":{"num_deleted":"0","num_feature":"13","num_nodes":"1","size_leaf_vector":"1"}},{"base_weights":[-0E0],"categories":[],"categories_nodes":[],"categories_segments":[],"categories_sizes":[],"default_left":[0],"id":137,"left_children":[-1],"loss_changes":[0E0],"parents":[2147483647],"right_children":[-1],"split_conditions":[-0E0],"split_indices":[0],"split_type":[0],"sum_hessian":[8.4E1],"tree_param":{"num_deleted":"0","num_feature":"13","num_nodes":"1","size_leaf_vector":"1"}},{"base_weights":[-0E0],"categories":[],"categories_nodes":[],"categories_segments":[],"categories_sizes":[],"default_left":[0],"id":138,"left_children":[-1],"loss_changes":[0E0],"parents":[2147483647],"right_children":[-1],"split_conditions":[-0E0],"split_indices":[0],"split_type":[0],"sum_hessian":[8.4E1],"tree_param":{"num_deleted":"0","num_feature":"13","num_nodes":"1","size_leaf_vector":"1"}},{"base_weights":[-0E0],"categories":[],"categories_nodes":[],"categories_segments":[],"categories_sizes":[],"default_left":[0],"id":139,"left_children":[-1],"loss_changes":[0E0],"parents":[2147483647],"right_children":[-1],"split_conditions":[-0E0],"split_indices":[0],"split_type":[0],"sum_hessian":[8.4E1],"tree_param":{"num_deleted":"0","num_feature":"13","num_nodes":"1","size_leaf_vector":"1"}},{"base_weights":[-0E0],"categories":[],"categories_nodes":[],"categories_segments":[],"categories_sizes":[],"default_left":[0],"id":140,"left_children":[-1],"loss_changes":[0E0],"parents":[2147483647],"right_children":[-1],"split_conditions":[-0E0],"split_indices":[0],"split_type":[0],"sum_hessian":[8.4E1],"tree_param":{"num_deleted":"0","num_feature":"13","num_nodes":"1","size_leaf_vector":"1"}},{"base_weights":[-0E0],"categories":[],"categories_nodes":[],"categories_segments":[],"categories_sizes":[],"default_left":[0],"id":141,"left_children":[-1],"loss_changes":[0E0],"parents":[2147483647],"right_children":[-1],"split_conditions":[-0E0],"split_indices":[0],"split_type":[0],"sum_hessian":[8.4E1],"tree_param":{"num_deleted":"0","num_feature":"13","num_nodes":"1","size_leaf_vector":"1"}},{"base_weights":[-0E0],"categories":[],"categories_nodes":[],"categories_segments":[],"categories_sizes":[],"default_left":[0],"id":142,"left_children":[-1],"loss_changes":[0E0],"parents":[2147483647],"right_children":[-1],"split_conditions":[-0E0],"split_indices":[0],"split_type":[0],"sum_hessian":[8.4E1],"tree_param":{"num_deleted":"0","num_feature":"13","num_nodes":"1","size_leaf_vector":"1"}},{"base_weights":[-0E0],"categories":[],"categories_nodes":[],"categories_segments":[],"categories_sizes":[],"default_left":[0],"id":143,"left_children":[-1],"loss_changes":[0E0],"parents":[2147483647],"right_children":[-1],"split_conditions":[-0E0],"split_indices":[0],"split_type":[0],"sum_hessian":[8.4E1],"tree_param":{"num_deleted":"0","num_feature":"13","num_nodes":"1","size_leaf_vector":"1"}},{"base_weights":[-0E0],"categories":[],"categories_nodes":[],"categories_segments":[],"categories_sizes":[],"default_left":[0],"id":144,"left_children":[-1],"loss_changes":[0E0],"parents":[2147483647],"right_children":[-1],"split_conditions":[-0E0],"split_indices":[0],"split_type":[0],"sum_hessian":[8.4E1],"tree_param":{"num_deleted":"0","num_feature":"13","num_nodes":"1","size_leaf_vector":"1"}},{"base_weights":[-0E0],"categories":[],"categories_nodes":[],"categories_segments":[],"categories_sizes":[],"default_left":[0],"id":145,"left_children":[-1],"loss_changes":[0E0],"parents":[2147483647],"right_children":[-1],"split_conditions":[-0E0],"split_indices":[0],"split_type":[0],"sum_hessian":[8.4E1],"tree_param":{"num_deleted":"0","num_feature":"13","num_nodes":"1","size_leaf_vector":"1"}},{"base_weights":[-0E0],"categories":[],"categories_nodes":[],"categories_segments":[],"categories_sizes":[],"default_left":[0],"id":146,"left_children":[-1],"loss_changes":[0E0],"parents":[2147483647],"right_children":[-1],"split_conditions":[-0E0],"split_indices":[0],"split_type":[0],"sum_hessian":[8.4E1],"tree_param":{"num_deleted":"0","num_feature":"13","num_nodes":"1","size_leaf_vector":"1"}},{"base_weights":[-0E0],"categories":[],"categories_nodes":[],"categories_segments":[],"categories_sizes":[],"default_left":[0],"id":147,"left_children":[-1],"loss_changes":[0E0],"parents":[2147483647],"right_children":[-1],"split_conditions":[-0E0],"split_indices":[0],"split_type":[0],"sum_hessian":[8.4E1],"tree_param":{"num_deleted":"0","num_feature":"13","num_nodes":"1","size_leaf_vector":"1"}},{"base_weights":[-0E0],"categories":[],"categories_nodes":[],"categories_segments":[],"categories_sizes":[],"default_left":[0],"id":148,"left_children":[-1],"loss_changes":[0E0],"parents":[2147483647],"right_children":[-1],"split_conditions":[-0E0],"split_indices":[0],"split_type":[0],"sum_hessian":[8.4E1],"tree_param":{"num_deleted":"0","num_feature":"13","num_nodes":"1","size_leaf_vector":"1"}},{"base_weights":[-0E0],"categories":[],"categories_nodes":[],"categories_segments":[],"categories_sizes":[],"default_left":[0],"id":149,"left_children":[-1],"loss_changes":[0E0],"parents":[2147483647],"right_children":[-1],"split_conditions":[-0E0],"split_indices":[0],"split_type":[0],"sum_hessian":[8.4E1],"tree_param":{"num_deleted":"0","num_feature":"13","num_nodes":"1","size_leaf_vector":"1"}}]},"name":"gbtree"},"learner_model_param":{"base_score":"1.4285715E-1","boost_from_average":"1","num_class":"0","num_feature":"13","num_target":"1"},"objective":{"name":"reg:squarederror","reg_loss_param":{"scale_pos_weight":"1"}}},"version":[3,0,5]}