{"learner":{"attributes":{"scikit_learn":"{\"_estimator_type\": \"classifier\"}"},"feature_names":["hours_of_sleep","stress_level","medication_taken","hours_of_sleep_7day_avg","medication_taken_7day_avg","stress_level_7day_avg"],"feature_types":["float","int","int","float","float","float"],"gradient_booster":{"model":{"gbtree_model_param":{"num_parallel_tree":"1","num_trees":"100"},"iteration_indptr":[0,1,2,3,4,5,6,7,8,9,10,11,12,13,14,15,16,17,18,19,20,21,22,23,24,25,26,27,28,29,30,31,32,33,34,35,36,37,38,39,40,41,42,43,44,45,46,47,48,49,50,51,52,53,54,55,56,57,58,59,60,61,62,63,64,65,66,67,68,69,70,71,72,73,74,75,76,77,78,79,80,81,82,83,84,85,86,87,88,89,90,91,92,93,94,95,96,97,98,99,100],"tree_info":[0,0,0,0,0,0,0,0,0,0,0,0,0,0,0,0,0,0,0,0,0,0,0,0,0,0,0,0,0,0,0,0,0,0,0,0,0,0,0,0,0,0,0,0,0,0,0,0,0,0,0,0,0,0,0,0,0,0,0,0,0,0,0,0,0,0,0,0,0,0,0,0,0,0,0,0,0,0,0,0,0,0,0,0,0,0,0,0,0,0,0,0,0,0,0,0,0,0,0,0],"trees":[{"base_weights":[-2.9802322E-8,1.109589E0,-8.804348E-1,-1E-1,1.3382353E-1,-1.7894737E-1,8.080805E-2,6.928104E-1,-1.3846155E-1,1.21875E0,-1.1111112E-1,1.5121952E-1,4.8484847E-2],"categories":[],"categories_nodes":[],"categories_segments":[],"categories_sizes":[],"default_left":[0,0,0,0,0,0,0,0,0,0,0,0,0],"id":0,"left_children":[1,3,5,-1,-1,-1,7,9,-1,11,-1,-1,-1],"loss_changes":[3.2238388E1,8.380541E0,1.6222654E1,0E0,0E0,0E0,9.838017E0,8.612133E0,0E0,6.451168E-1,0E0,0E0,0E0],"parents":[2147483647,0,0,1,1,2,2,6,6,7,7,9,9],"right_children":[2,4,6,-1,-1,-1,8,10,-1,12,-1,-1,-1],"split_conditions":[5.6E0,8E-1,6.9428573E0,-1E-1,1.3382353E-1,-1.7894737E-1,1E0,7.6E0,-1.3846155E-1,7.042857E0,-1.1111112E-1,1.5121952E-1,4.8484847E-2],"split_indices":[0,4,3,0,0,0,4,3,0,3,0,0,0],"split_type":[0,0,0,0,0,0,0,0,0,0,0,0,0],"sum_hessian":[3.1E1,1.3599999E1,1.74E1,1E0,1.2599999E1,8.5E0,8.9E0,6.6499996E0,2.25E0,5.3999996E0,1.25E0,3.1E0,2.3E0],"tree_param":{"num_deleted":"0","num_feature":"6","num_nodes":"13","size_leaf_vector":"1"}},{"base_weights":[-6.166354E-3,1.0051574E0,-8.0948824E-1,2.8040547E-2,1.135224E0,-1.6414843E-1,6.794838E-2,7.691366E-1,1.3856867E-1,6.3711447E-1,-1.2931876E-1,1.211604E-1,5.9631E-3,1.1315819E0,-1.0512451E-1,1.4402302E-1,4.0407386E-2],"categories":[],"categories_nodes":[],"categories_segments":[],"categories_sizes":[],"default_left":[0,0,0,0,0,0,0,0,0,0,0,0,0,0,0,0,0],"id":1,"left_children":[1,3,5,-1,7,-1,9,11,-1,13,-1,-1,-1,15,-1,-1,-1],"loss_changes":[2.668104E1,1.0524235E0,1.3470029E1,0E0,3.4575462E-2,0E0,8.4675255E0,2.1637545E0,0E0,7.5570064E0,0E0,0E0,0E0,8.508539E-1,0E0,0E0,0E0],"parents":[2147483647,0,0,1,1,2,2,4,4,6,6,7,7,9,9,13,13],"right_children":[2,4,6,-1,8,-1,10,12,-1,14,-1,-1,-1,16,-1,-1,-1],"split_conditions":[5.6E0,8.5714287E-1,6.9428573E0,2.8040547E-2,6.714286E0,-1.6414843E-1,1E0,2E0,1.3856867E-1,7.6E0,-1.2931876E-1,1.211604E-1,5.9631E-3,2.5E0,-1.0512451E-1,1.4402302E-1,4.0407386E-2],"split_indices":[0,4,3,0,3,0,4,1,0,3,0,0,0,5,0,0,0],"split_type":[0,0,0,0,0,0,0,0,0,0,0,0,0,0,0,0,0],"sum_hessian":[3.0839968E1,1.3541259E1,1.7298708E1,2.540585E0,1.1000674E1,8.432314E0,8.866394E0,6.122547E0,4.8781266E0,6.627144E0,2.2392502E0,3.3350458E0,2.787501E0,5.380994E0,1.2461498E0,3.090262E0,2.290732E0],"tree_param":{"num_deleted":"0","num_feature":"6","num_nodes":"17","size_leaf_vector":"1"}},{"base_weights":[-3.293318E-3,9.323258E-1,-7.516893E-1,2.6043791E-2,1.0538468E0,-1.5248454E-1,5.6594804E-2,7.109902E-1,1.290055E-1,5.882885E-1,-1.2152324E-1,9.8523945E-2,1.531896E-2,1.0550191E0,-9.978762E-2,1.3447174E-1,3.76313E-2],"categories":[],"categories_nodes":[],"categories_segments":[],"categories_sizes":[],"default_left":[0,0,0,0,0,0,0,0,0,0,0,0,0,0,0,0,0],"id":2,"left_children":[1,3,5,-1,7,-1,9,11,-1,13,-1,-1,-1,15,-1,-1,-1],"loss_changes":[2.273546E1,9.0383434E-1,1.1358244E1,0E0,4.5921326E-2,0E0,7.3300242E0,9.319947E-1,0E0,6.658651E0,0E0,0E0,0E0,7.3990965E-1,0E0,0E0,0E0],"parents":[2147483647,0,0,1,1,2,2,4,4,6,6,7,7,9,9,13,13],"right_children":[2,4,6,-1,8,-1,10,12,-1,14,-1,-1,-1,16,-1,-1,-1],"split_conditions":[5.6E0,8.5714287E-1,6.9428573E0,2.6043791E-2,1E0,-1.5248454E-1,1E0,5.1E0,1.290055E-1,7.6E0,-1.2152324E-1,9.8523945E-2,1.531896E-2,7.042857E0,-9.978762E-2,1.3447174E-1,3.76313E-2],"split_indices":[0,4,3,0,4,0,4,0,0,3,0,0,0,3,0,0,0],"split_type":[0,0,0,0,0,0,0,0,0,0,0,0,0,0,0,0,0],"sum_hessian":[3.0468456E1,1.3431317E1,1.703714E1,2.538598E0,1.0892719E1,8.2546835E0,8.782455E0,6.079023E0,4.8136964E0,6.572314E0,2.2101421E0,3.5616183E0,2.5174046E0,5.3368125E0,1.2355013E0,3.0525641E0,2.284248E0],"tree_param":{"num_deleted":"0","num_feature":"6","num_nodes":"17","size_leaf_vector":"1"}},{"base_weights":[-1.1502722E-3,8.673367E-1,-7.037202E-1,2.4195006E-2,9.8176485E-1,-1.4303903E-1,4.6605453E-2,6.5819585E-1,1.2078506E-1,5.456593E-1,-1.14781454E-1,1.0860354E-1,-6.197235E-5,9.8823994E-1,-9.4994985E-2,1.2938991E-1,3.0837003E-2],"categories":[],"categories_nodes":[],"categories_segments":[],"categories_sizes":[],"default_left":[0,0,0,0,0,0,0,0,0,0,0,0,0,0,0,0,0],"id":3,"left_children":[1,3,5,-1,7,-1,9,11,-1,13,-1,-1,-1,15,-1,-1,-1],"loss_changes":[1.948451E1,7.844229E-1,9.691048E0,0E0,6.418991E-2,0E0,6.380231E0,1.9817586E0,0E0,5.894015E0,0E0,0E0,0E0,9.032879E-1,0E0,0E0,0E0],"parents":[2147483647,0,0,1,1,2,2,4,4,6,6,7,7,9,9,13,13],"right_children":[2,4,6,-1,8,-1,10,12,-1,14,-1,-1,-1,16,-1,-1,-1],"split_conditions":[5.6E0,8.5714287E-1,6.9428573E0,2.4195006E-2,6.714286E0,-1.4303903E-1,1E0,2E0,1.2078506E-1,7.6E0,-1.14781454E-1,1.0860354E-1,-6.197235E-5,2.5E0,-9.4994985E-2,1.2938991E-1,3.0837003E-2],"split_indices":[0,4,3,0,3,0,4,1,0,3,0,0,0,5,0,0,0],"split_type":[0,0,0,0,0,0,0,0,0,0,0,0,0,0,0,0,0],"sum_hessian":[2.9932465E1,1.3280793E1,1.665167E1,2.5358708E0,1.0744923E1,7.9987435E0,8.652927E0,6.0284314E0,4.716491E0,6.48607E0,2.166857E0,3.261757E0,2.7666745E0,5.2667675E0,1.2193027E0,3.0102484E0,2.256519E0],"tree_param":{"num_deleted":"0","num_feature":"6","num_nodes":"17","size_leaf_vector":"1"}},{"base_weights":[6.267135E-4,8.100724E-1,-6.6301095E-1,2.2481805E-2,9.188913E-1,-1.3521646E-1,3.7509862E-2,6.139954E-1,1.13424614E-1,9.202378E-2,-6.074735E-1,1.0193036E-1,-5.7419442E-5,4.275746E-2,-1.3098465E-1],"categories":[],"categories_nodes":[],"categories_segments":[],"categories_sizes":[],"default_left":[0,0,0,0,0,0,0,0,0,0,0,0,0,0,0],"id":4,"left_children":[1,3,5,-1,7,-1,9,11,-1,-1,13,-1,-1,-1,-1],"loss_changes":[1.6797989E1,6.905985E-1,8.346345E0,0E0,6.2277794E-2,0E0,5.9646573E0,1.7350628E0,0E0,0E0,4.986247E0,0E0,0E0,0E0,0E0],"parents":[2147483647,0,0,1,1,2,2,4,4,6,6,7,7,10,10],"right_children":[2,4,6,-1,8,-1,10,12,-1,-1,14,-1,-1,-1,-1],"split_conditions":[5.6E0,8.5714287E-1,6.9428573E0,2.2481805E-2,6.714286E0,-1.3521646E-1,7.042857E0,2E0,1.13424614E-1,9.202378E-2,2E0,1.0193036E-1,-5.7419442E-5,4.275746E-2,-1.3098465E-1],"split_indices":[0,4,3,0,3,0,3,1,0,0,1,0,0,0,0],"split_type":[0,0,0,0,0,0,0,0,0,0,0,0,0,0,0],"sum_hessian":[2.9270937E1,1.308742E1,1.6183516E1,2.5325792E0,1.0554841E1,7.6890283E0,8.494488E0,5.963251E0,4.59159E0,3.4061072E0,5.0883803E0,3.1965582E0,2.766693E0,2.2152023E0,2.8731782E0],"tree_param":{"num_deleted":"0","num_feature":"6","num_nodes":"15","size_leaf_vector":"1"}},{"base_weights":[3.7424131E-3,7.5871336E-1,-6.22934E-1,2.0893117E-2,8.629223E-1,-1.2861265E-1,3.4456853E-2,5.7220966E-1,1.07158355E-1,4.9162894E-1,-1.0607461E-1,8.571585E-1,3.912087E-3,9.010728E-1,-8.8085674E-2,3.6817294E-2,1.080815E-1,1.1863513E-1,2.7782341E-2],"categories":[],"categories_nodes":[],"categories_segments":[],"categories_sizes":[],"default_left":[0,0,0,0,0,0,0,0,0,0,0,0,0,0,0,0,0,0,0],"id":5,"left_children":[1,3,5,-1,7,-1,9,11,-1,13,-1,15,-1,17,-1,-1,-1,-1,-1],"loss_changes":[1.4465662E1,6.141038E-1,7.329595E0,0E0,7.452488E-2,0E0,5.210884E0,1.0119987E0,0E0,4.89085E0,0E0,8.738303E-2,0E0,7.5674486E-1,0E0,0E0,0E0,0E0,0E0],"parents":[2147483647,0,0,1,1,2,2,4,4,6,6,7,7,9,9,11,11,13,13],"right_children":[2,4,6,-1,8,-1,10,12,-1,14,-1,16,-1,18,-1,-1,-1,-1,-1],"split_conditions":[5.6E0,8.5714287E-1,6.9428573E0,2.0893117E-2,1E0,-1.2861265E-1,1E0,5.1E0,1.07158355E-1,7.6E0,-1.0607461E-1,5E0,3.912087E-3,2.5E0,-8.8085674E-2,3.6817294E-2,1.080815E-1,1.1863513E-1,2.7782341E-2],"split_indices":[0,4,3,0,4,0,4,0,0,3,0,0,0,5,0,0,0,0,0],"split_type":[0,0,0,0,0,0,0,0,0,0,0,0,0,0,0,0,0,0,0],"sum_hessian":[2.8575922E1,1.286567E1,1.5710251E1,2.5288696E0,1.0336801E1,7.344512E0,8.365739E0,5.8828874E0,4.453913E0,6.2908483E0,2.0748909E0,3.4375334E0,2.445354E0,5.109917E0,1.1809313E0,1.9093119E0,1.5282214E0,2.885603E0,2.2243142E0],"tree_param":{"num_deleted":"0","num_feature":"6","num_nodes":"19","size_leaf_vector":"1"}},{"base_weights":[6.5160994E-3,7.138136E-1,-5.9235144E-1,4.6014836E-1,1.0243895E-1,-1.2294336E-1,2.6589954E-2,8.623608E-1,-1.20012105E-1,8.400453E-2,-5.676041E-1,3.1977482E-2,1.0175327E0,3.7170757E-2,-1.20807044E-1,1.1921491E-1,4.451373E-2],"categories":[],"categories_nodes":[],"categories_segments":[],"categories_sizes":[],"default_left":[0,0,0,0,0,0,0,0,0,0,0,0,0,0,0,0,0],"id":6,"left_children":[1,3,5,7,-1,-1,9,11,-1,-1,13,-1,15,-1,-1,-1,-1],"loss_changes":[1.2628587E1,6.0521936E-1,6.401098E0,7.270256E0,0E0,0E0,4.909478E0,3.564515E-1,0E0,0E0,3.9962845E0,0E0,5.2944183E-2,0E0,0E0,0E0,0E0],"parents":[2147483647,0,0,1,1,2,2,3,3,6,6,7,7,10,10,12,12],"right_children":[2,4,6,8,-1,-1,10,12,-1,-1,14,-1,16,-1,-1,-1,-1],"split_conditions":[5.6E0,6.714286E0,6.9428573E0,6.4714284E0,1.0243895E-1,-1.2294336E-1,7.042857E0,6.1285715E0,-1.20012105E-1,8.400453E-2,2E0,3.1977482E-2,6.3E0,3.7170757E-2,-1.20807044E-1,1.1921491E-1,4.451373E-2],"split_indices":[0,3,3,3,0,0,3,3,0,0,1,0,3,0,0,0,0],"split_type":[0,0,0,0,0,0,0,0,0,0,0,0,0,0,0,0,0],"sum_hessian":[2.7815882E1,1.2665384E1,1.5150497E1,8.337371E0,4.3280134E0,6.979788E0,8.17071E0,7.0983367E0,1.2390342E0,3.2743492E0,4.8963604E0,2.2592504E0,4.8390865E0,2.1551843E0,2.741176E0,2.8782916E0,1.9607948E0],"tree_param":{"num_deleted":"0","num_feature":"6","num_nodes":"17","size_leaf_vector":"1"}},{"base_weights":[7.6374393E-3,6.6983443E-1,-5.6072754E-1,4.2813784E-1,9.714828E-2,-1.18002616E-1,2.4140954E-2,8.1309927E-1,-1.13012254E-1,4.476774E-1,-9.9168815E-2,1.0628142E-1,4.1868865E-1,8.299657E-1,-8.232608E-2,-9.477731E-3,9.3947805E-2,1.1002668E-1,2.522092E-2],"categories":[],"categories_nodes":[],"categories_segments":[],"categories_sizes":[],"default_left":[0,0,0,0,0,0,0,0,0,0,0,0,0,0,0,0,0,0,0],"id":7,"left_children":[1,3,5,7,-1,-1,9,11,-1,13,-1,-1,15,17,-1,-1,-1,-1,-1],"loss_changes":[1.0918563E1,5.6058025E-1,5.6856213E0,6.4519854E0,0E0,0E0,4.321486E0,3.4077597E-1,0E0,4.108384E0,0E0,0E0,1.3573456E0,6.4660645E-1,0E0,0E0,0E0,0E0,0E0],"parents":[2147483647,0,0,1,1,2,2,3,3,6,6,7,7,9,9,12,12,13,13],"right_children":[2,4,6,8,-1,-1,10,12,-1,14,-1,-1,16,18,-1,-1,-1,-1,-1],"split_conditions":[5.6E0,6.714286E0,6.9428573E0,6.4714284E0,9.714828E-2,-1.18002616E-1,1E0,2.5714285E0,-1.13012254E-1,7.6E0,-9.9168815E-2,1.0628142E-1,5.4E0,2.5E0,-8.232608E-2,-9.477731E-3,9.3947805E-2,1.1002668E-1,2.522092E-2],"split_indices":[0,3,3,3,0,0,4,5,0,3,0,0,0,5,0,0,0,0,0],"split_type":[0,0,0,0,0,0,0,0,0,0,0,0,0,0,0,0,0,0,0],"sum_hessian":[2.7012276E1,1.2393819E1,1.4618457E1,8.223802E0,4.170017E0,6.6059904E0,8.012466E0,6.9780946E0,1.2457072E0,6.0495043E0,1.9629619E0,3.2351317E0,3.7429628E0,4.917365E0,1.1321392E0,2.2966354E0,1.4463274E0,2.7339296E0,2.1834357E0],"tree_param":{"num_deleted":"0","num_feature":"6","num_nodes":"19","size_leaf_vector":"1"}},{"base_weights":[7.197676E-3,6.292805E-1,-5.36694E-1,3.951064E-1,9.284172E-2,-1.1363758E-1,1.7142422E-2,7.380639E-1,-2.5501138E-1,7.723227E-2,-5.3591955E-1,9.987857E-2,1.4030955E-2,-1.2728888E-1,8.984485E-2,3.2383393E-2,-1.1266333E-1],"categories":[],"categories_nodes":[],"categories_segments":[],"categories_sizes":[],"default_left":[0,0,0,0,0,0,0,0,0,0,0,0,0,0,0,0,0],"id":8,"left_children":[1,3,5,7,-1,-1,9,11,13,-1,15,-1,-1,-1,-1,-1,-1],"loss_changes":[9.527392E0,5.529256E-1,5.011557E0,2.2183948E0,0E0,0E0,4.088979E0,8.288741E-1,5.7081857E0,0E0,3.2442808E0,0E0,0E0,0E0,0E0,0E0,0E0],"parents":[2147483647,0,0,1,1,2,2,3,3,6,6,7,7,8,8,10,10],"right_children":[2,4,6,8,-1,-1,10,12,14,-1,16,-1,-1,-1,-1,-1,-1],"split_conditions":[5.6E0,1E0,6.9428573E0,2.5714285E0,9.284172E-2,-1.1363758E-1,7.042857E0,6.3E0,5.4E0,7.723227E-2,2E0,9.987857E-2,1.4030955E-2,-1.2728888E-1,8.984485E-2,3.2383393E-2,-1.1266333E-1],"split_indices":[0,4,3,5,0,0,3,3,0,0,1,0,0,0,0,0,0],"split_type":[0,0,0,0,0,0,0,0,0,0,0,0,0,0,0,0,0],"sum_hessian":[2.6160564E1,1.2129874E1,1.403069E1,8.105468E0,4.024407E0,6.231517E0,7.799174E0,5.217694E0,2.887774E0,3.1295164E0,4.669657E0,3.1659207E0,2.051773E0,1.4790436E0,1.4087304E0,2.0857491E0,2.5839083E0],"tree_param":{"num_deleted":"0","num_feature":"6","num_nodes":"17","size_leaf_vector":"1"}},{"base_weights":[8.297749E-3,5.9306616E-1,-5.107113E-1,3.6369434E-1,8.9199625E-2,-1.0973238E-1,1.5086427E-2,7.2590965E-1,-1.0468618E-1,4.1108072E-1,-9.3534164E-2,2.128212E-2,8.907407E-1,7.706208E-1,-7.742416E-2,1.06113926E-1,3.6273785E-2,1.038752E-1,2.1535119E-2],"categories":[],"categories_nodes":[],"categories_segments":[],"categories_sizes":[],"default_left":[0,0,0,0,0,0,0,0,0,0,0,0,0,0,0,0,0,0,0],"id":9,"left_children":[1,3,5,7,-1,-1,9,11,-1,13,-1,-1,15,17,-1,-1,-1,-1,-1],"loss_changes":[8.29612E0,5.564265E-1,4.485922E0,5.336501E0,0E0,0E0,3.6316395E0,4.631443E-1,0E0,3.488162E0,0E0,0E0,1.1238146E-1,6.2598825E-1,0E0,0E0,0E0,0E0,0E0],"parents":[2147483647,0,0,1,1,2,2,3,3,6,6,7,7,9,9,12,12,13,13],"right_children":[2,4,6,8,-1,-1,10,12,-1,14,-1,-1,16,18,-1,-1,-1,-1,-1],"split_conditions":[5.6E0,6.714286E0,6.9428573E0,6.4714284E0,8.9199625E-2,-1.0973238E-1,1E0,6.1285715E0,-1.0468618E-1,7.6E0,-9.3534164E-2,2.128212E-2,6.3E0,7.042857E0,-7.742416E-2,1.06113926E-1,3.6273785E-2,1.038752E-1,2.1535119E-2],"split_indices":[0,3,3,3,0,0,4,3,0,3,0,0,3,3,0,0,0,0,0],"split_type":[0,0,0,0,0,0,0,0,0,0,0,0,0,0,0,0,0,0,0],"sum_hessian":[2.5336842E1,1.1846584E1,1.3490256E1,7.95743E0,3.8891544E0,5.862604E0,7.6276526E0,6.717757E0,1.2396727E0,5.784873E0,1.8427794E0,2.190448E0,4.5273094E0,4.7069826E0,1.0778904E0,2.6593533E0,1.867956E0,2.5870295E0,2.119953E0],"tree_param":{"num_deleted":"0","num_feature":"6","num_nodes":"19","size_leaf_vector":"1"}},{"base_weights":[7.223002E-3,5.596272E-1,-4.9118203E-1,3.401158E-1,8.502039E-2,-1.06197655E-1,8.667334E-3,6.874098E-1,-9.9415384E-2,3.861308E-1,-8.980454E-2,1.988312E-2,8.478881E-1,7.316438E-1,-7.453902E-2,1.0225584E-1,3.2949414E-2,1.00688554E-1,1.8300617E-2],"categories":[],"categories_nodes":[],"categories_segments":[],"categories_sizes":[],"default_left":[0,0,0,0,0,0,0,0,0,0,0,0,0,0,0,0,0,0,0],"id":10,"left_children":[1,3,5,7,-1,-1,9,11,-1,13,-1,-1,15,17,-1,-1,-1,-1,-1],"loss_changes":[7.282767E0,5.107069E-1,3.978835E0,4.765996E0,0E0,0E0,3.224938E0,4.2588997E-1,0E0,3.1401327E0,0E0,0E0,1.5212584E-1,6.59734E-1,0E0,0E0,0E0,0E0,0E0],"parents":[2147483647,0,0,1,1,2,2,3,3,6,6,7,7,9,9,12,12,13,13],"right_children":[2,4,6,8,-1,-1,10,12,-1,14,-1,-1,16,18,-1,-1,-1,-1,-1],"split_conditions":[5.6E0,6.714286E0,6.9428573E0,6.4714284E0,8.502039E-2,-1.06197655E-1,1E0,6.1285715E0,-9.9415384E-2,7.6E0,-8.980454E-2,1.988312E-2,2E0,2.5E0,-7.453902E-2,1.0225584E-1,3.2949414E-2,1.00688554E-1,1.8300617E-2],"split_indices":[0,3,3,3,0,0,4,3,0,3,0,0,1,5,0,0,0,0,0],"split_type":[0,0,0,0,0,0,0,0,0,0,0,0,0,0,0,0,0,0,0],"sum_hessian":[2.4453514E1,1.1540185E1,1.291333E1,7.810418E0,3.7297666E0,5.5037837E0,7.4095464E0,6.582007E0,1.2284113E0,5.637008E0,1.772538E0,2.180978E0,4.401029E0,4.5891094E0,1.0478989E0,2.5644116E0,1.8366172E0,2.4997714E0,2.0893378E0],"tree_param":{"num_deleted":"0","num_feature":"6","num_nodes":"19","size_leaf_vector":"1"}},{"base_weights":[6.0730656E-3,5.2885526E-1,-4.7336638E-1,3.185461E-1,8.113004E-1,-1.0296359E-1,2.6260153E-3,6.516395E-1,-9.4675474E-2,9.262563E-2,2.8781414E-2,6.826979E-1,-4.9061155E-1,8.968387E-2,2.839553E-1,2.7480287E-2,8.320336E-2,2.9442592E-2,-1.0445025E-1,-1.887372E-2,8.0635354E-2],"categories":[],"categories_nodes":[],"categories_segments":[],"categories_sizes":[],"default_left":[0,0,0,0,0,0,0,0,0,0,0,0,0,0,0,0,0,0,0,0,0],"id":11,"left_children":[1,3,5,7,9,-1,11,13,-1,-1,-1,15,17,-1,19,-1,-1,-1,-1,-1,-1],"loss_changes":[6.411325E0,4.6810555E-1,3.5374076E0,4.265692E0,8.654594E-3,0E0,3.0826163E0,4.1659546E-1,0E0,0E0,0E0,6.57928E-3,2.6250186E0,0E0,1.2490876E0,0E0,0E0,0E0,0E0,0E0,0E0],"parents":[2147483647,0,0,1,1,2,2,3,3,4,4,6,6,7,7,11,11,12,12,14,14],"right_children":[2,4,6,8,10,-1,12,14,-1,-1,-1,16,18,-1,20,-1,-1,-1,-1,-1,-1],"split_conditions":[5.6E0,6.714286E0,6.9428573E0,6.4714284E0,5.1E0,-1.0296359E-1,7.042857E0,2.5714285E0,-9.4675474E-2,9.262563E-2,2.8781414E-2,8E0,2E0,8.968387E-2,5.4E0,2.7480287E-2,8.320336E-2,2.9442592E-2,-1.0445025E-1,-1.887372E-2,8.0635354E-2],"split_indices":[0,3,3,3,0,0,3,5,0,0,0,0,1,0,0,0,0,0,0,0,0],"split_type":[0,0,0,0,0,0,0,0,0,0,0,0,0,0,0,0,0,0,0,0,0],"sum_hessian":[2.3580767E1,1.1231182E1,1.2349585E1,7.657334E0,3.573849E0,5.15825E0,7.1913347E0,6.4455256E0,1.2118077E0,2.299489E0,1.2743598E0,2.861629E0,4.3297057E0,3.0034487E0,3.4420772E0,1.5280598E0,1.333569E0,1.9849081E0,2.3447978E0,2.1423132E0,1.299764E0],"tree_param":{"num_deleted":"0","num_feature":"6","num_nodes":"21","size_leaf_vector":"1"}},{"base_weights":[9.879365E-3,5.0238705E-1,-4.490766E-1,2.9531533E-1,7.842891E-1,-9.997493E-2,6.4880247E-3,6.251425E-1,-2.9836532E-1,8.983005E-2,2.7420644E-2,6.5294355E-1,-4.6574453E-1,8.491939E-2,1.0208125E-2,-1.16401605E-1,7.760864E-2,2.5955295E-2,7.998854E-2,2.7571743E-2,-1.0016479E-1],"categories":[],"categories_nodes":[],"categories_segments":[],"categories_sizes":[],"default_left":[0,0,0,0,0,0,0,0,0,0,0,0,0,0,0,0,0,0,0,0,0],"id":12,"left_children":[1,3,5,7,9,-1,11,13,15,-1,-1,17,19,-1,-1,-1,-1,-1,-1,-1,-1],"loss_changes":[5.610219E0,4.6669984E-1,3.2323363E0,1.8510573E0,1.31726265E-2,0E0,2.7556813E0,5.9159803E-1,4.3567524E0,0E0,0E0,1.2413263E-2,2.3520727E0,0E0,0E0,0E0,0E0,0E0,0E0,0E0,0E0],"parents":[2147483647,0,0,1,1,2,2,3,3,4,4,6,6,7,7,8,8,11,11,12,12],"right_children":[2,4,6,8,10,-1,12,14,16,-1,-1,18,20,-1,-1,-1,-1,-1,-1,-1,-1],"split_conditions":[5.6E0,1E0,6.9428573E0,2.5714285E0,5.2E0,-9.997493E-2,7.042857E0,6.3E0,5.4E0,8.983005E-2,2.7420644E-2,8E0,2E0,8.491939E-2,1.0208125E-2,-1.16401605E-1,7.760864E-2,2.5955295E-2,7.998854E-2,2.7571743E-2,-1.0016479E-1],"split_indices":[0,4,3,5,0,0,3,3,0,0,0,0,1,0,0,0,0,0,0,0,0],"split_type":[0,0,0,0,0,0,0,0,0,0,0,0,0,0,0,0,0,0,0,0,0],"sum_hessian":[2.2821554E1,1.0962749E1,1.1858806E1,7.5006857E0,3.462063E0,4.8281527E0,7.030653E0,4.7877774E0,2.7129083E0,2.207553E0,1.25451E0,2.806316E0,4.224337E0,2.9154482E0,1.8723291E0,1.4562759E0,1.2566323E0,1.5154744E0,1.2908415E0,1.9759599E0,2.248377E0],"tree_param":{"num_deleted":"0","num_feature":"6","num_nodes":"21","size_leaf_vector":"1"}},{"base_weights":[1.3441083E-2,4.7848102E-1,-4.265001E-1,2.7197185E-1,7.6240665E-1,-9.718763E-2,9.8394705E-3,5.875604E-1,-8.881877E-2,8.7671354E-2,2.6126012E-2,3.5835496E-1,-8.36261E-2,1.1936908E-2,7.577264E-1,9.295261E-2,-2.0370632E-1,9.397673E-2,2.5419315E-2,3.9779812E-2,-8.517819E-2],"categories":[],"categories_nodes":[],"categories_segments":[],"categories_sizes":[],"default_left":[0,0,0,0,0,0,0,0,0,0,0,0,0,0,0,0,0,0,0,0,0],"id":13,"left_children":[1,3,5,7,9,-1,11,13,-1,-1,-1,15,-1,-1,17,-1,19,-1,-1,-1,-1],"loss_changes":[4.9245915E0,4.7794294E-1,2.956858E0,3.5684412E0,2.110529E-2,0E0,2.620486E0,4.7866535E-1,0E0,0E0,0E0,2.2036104E0,0E0,0E0,2.2421908E-1,0E0,1.8913412E0,0E0,0E0,0E0,0E0],"parents":[2147483647,0,0,1,1,2,2,3,3,4,4,6,6,7,7,11,11,14,14,16,16],"right_children":[2,4,6,8,10,-1,12,14,-1,-1,-1,16,-1,-1,18,-1,20,-1,-1,-1,-1],"split_conditions":[5.6E0,6.714286E0,6.9428573E0,6.4714284E0,5.1E0,-9.718763E-2,1E0,6.1285715E0,-8.881877E-2,8.7671354E-2,2.6126012E-2,7.042857E0,-8.36261E-2,1.1936908E-2,6.3E0,9.295261E-2,2E0,9.397673E-2,2.5419315E-2,3.9779812E-2,-8.517819E-2],"split_indices":[0,3,3,3,0,0,4,3,0,0,0,3,0,0,3,0,1,0,0,0,0],"split_type":[0,0,0,0,0,0,0,0,0,0,0,0,0,0,0,0,0,0,0,0,0],"sum_hessian":[2.2073044E1,1.0687849E1,1.1385195E1,7.320956E0,3.3668926E0,4.514825E0,6.87037E0,6.143377E0,1.1775795E0,2.1313384E0,1.2355542E0,5.274305E0,1.5960653E0,2.0911937E0,4.052183E0,2.2916903E0,2.9826145E0,2.3399E0,1.7122831E0,1.7471765E0,1.235438E0],"tree_param":{"num_deleted":"0","num_feature":"6","num_nodes":"21","size_leaf_vector":"1"}},{"base_weights":[1.3370107E-2,4.555763E-1,-4.1307336E-1,2.551546E-1,7.337803E-1,-9.4566286E-2,4.5391084E-3,5.5809706E-1,-8.5049756E-2,8.465198E-2,2.489405E-2,3.3934608E-1,-8.0628626E-2,1.1154399E-2,7.2433555E-1,8.9561716E-2,-1.9761463E-1,9.141138E-2,2.2217367E-2,3.7486408E-2,-8.184202E-2],"categories":[],"categories_nodes":[],"categories_segments":[],"categories_sizes":[],"default_left":[0,0,0,0,0,0,0,0,0,0,0,0,0,0,0,0,0,0,0,0,0],"id":14,"left_children":[1,3,5,7,9,-1,11,13,-1,-1,-1,15,-1,-1,17,-1,19,-1,-1,-1,-1],"loss_changes":[4.3886824E0,4.490199E-1,2.6430318E0,3.2097597E0,2.1307945E-2,0E0,2.3489978E0,4.3983507E-1,0E0,0E0,0E0,2.0033822E0,0E0,0E0,2.666123E-1,0E0,1.7036965E0,0E0,0E0,0E0,0E0],"parents":[2147483647,0,0,1,1,2,2,3,3,4,4,6,6,7,7,11,11,14,14,16,16],"right_children":[2,4,6,8,10,-1,12,14,-1,-1,-1,16,-1,-1,18,-1,20,-1,-1,-1,-1],"split_conditions":[5.6E0,6.714286E0,6.9428573E0,6.4714284E0,5.1E0,-9.4566286E-2,1E0,6.1285715E0,-8.5049756E-2,8.465198E-2,2.489405E-2,7.042857E0,-8.0628626E-2,1.1154399E-2,2E0,8.9561716E-2,2E0,9.141138E-2,2.2217367E-2,3.7486408E-2,-8.184202E-2],"split_indices":[0,3,3,3,0,0,4,3,0,0,0,3,0,0,1,0,1,0,0,0,0],"split_type":[0,0,0,0,0,0,0,0,0,0,0,0,0,0,0,0,0,0,0,0,0],"sum_hessian":[2.1274826E1,1.0410846E1,1.0863979E1,7.16572E0,3.2451258E0,4.21898E0,6.6449995E0,6.0133333E0,1.1523868E0,2.027658E0,1.2174678E0,5.1145673E0,1.5304325E0,2.0846074E0,3.9287257E0,2.184043E0,2.930524E0,2.2558374E0,1.6728884E0,1.7307085E0,1.1998156E0],"tree_param":{"num_deleted":"0","num_feature":"6","num_nodes":"21","size_leaf_vector":"1"}},{"base_weights":[1.3179574E-2,4.341432E-1,-4.0062398E-1,6.041602E-1,1.5220013E-1,-9.2082426E-2,-4.368843E-4,9.3370505E-2,-1.7330749E-2,-2.8210232E-2,5.555579E-2,3.2166016E-1,-7.782059E-2,8.64133E-2,-1.919984E-1,3.46926E-2,-8.1618346E-2],"categories":[],"categories_nodes":[],"categories_segments":[],"categories_sizes":[],"default_left":[0,0,0,0,0,0,0,0,0,0,0,0,0,0,0,0,0],"id":15,"left_children":[1,3,5,7,9,-1,11,-1,-1,-1,-1,13,-1,-1,15,-1,-1],"loss_changes":[3.919918E0,4.4203925E-1,2.3654325E0,1.856029E0,1.1249986E0,0E0,2.1100726E0,0E0,0E0,0E0,0E0,1.8258557E0,0E0,0E0,1.5876907E0,0E0,0E0],"parents":[2147483647,0,0,1,1,2,2,3,3,4,4,6,6,11,11,14,14],"right_children":[2,4,6,8,10,-1,12,-1,-1,-1,-1,14,-1,-1,16,-1,-1],"split_conditions":[5.6E0,5.1E0,6.9428573E0,2.5714285E0,1E0,-9.2082426E-2,1E0,9.3370505E-2,-1.7330749E-2,-2.8210232E-2,5.555579E-2,7.042857E0,-7.782059E-2,8.64133E-2,7.3E0,3.46926E-2,-8.1618346E-2],"split_indices":[0,0,3,5,4,0,4,0,0,0,0,3,0,0,0,0,0],"split_type":[0,0,0,0,0,0,0,0,0,0,0,0,0,0,0,0,0],"sum_hessian":[2.0504423E1,1.013991E1,1.0364513E1,5.6125755E0,4.5273347E0,3.940849E0,6.4236646E0,3.8006425E0,1.811933E0,2.3247983E0,2.2025363E0,4.957182E0,1.4664826E0,2.0791206E0,2.8780613E0,1.7828948E0,1.0951664E0],"tree_param":{"num_deleted":"0","num_feature":"6","num_nodes":"17","size_leaf_vector":"1"}},{"base_weights":[1.0863156E-2,4.0824506E-1,-3.888191E-1,2.14416E-1,6.856707E-1,-8.971305E-2,-5.564717E-3,5.063256E-1,-8.1797555E-2,8.083647E-2,2.0053534E-2,3.038295E-1,-7.518016E-2,7.0412285E-3,6.786938E-1,8.347255E-2,-1.8697444E-1,8.789296E-2,1.7747212E-2,3.553988E-2,-7.76191E-2],"categories":[],"categories_nodes":[],"categories_segments":[],"categories_sizes":[],"default_left":[0,0,0,0,0,0,0,0,0,0,0,0,0,0,0,0,0,0,0,0,0],"id":16,"left_children":[1,3,5,7,9,-1,11,13,-1,-1,-1,15,-1,-1,17,-1,19,-1,-1,-1,-1],"loss_changes":[3.4687483E0,4.4115758E-1,2.1189196E0,2.7931998E0,7.860041E-2,0E0,1.8958509E0,4.6102762E-1,0E0,0E0,0E0,1.6719165E0,0E0,0E0,3.1944346E-1,0E0,1.502992E0,0E0,0E0,0E0,0E0],"parents":[2147483647,0,0,1,1,2,2,3,3,4,4,6,6,7,7,11,11,14,14,16,16],"right_children":[2,4,6,8,10,-1,12,14,-1,-1,-1,16,-1,-1,18,-1,20,-1,-1,-1,-1],"split_conditions":[5.6E0,6.714286E0,6.9428573E0,6.4714284E0,6.9714284E0,-8.971305E-2,1E0,6.1285715E0,-8.1797555E-2,8.083647E-2,2.0053534E-2,7.042857E0,-7.518016E-2,7.0412285E-3,2E0,8.347255E-2,2E0,8.789296E-2,1.7747212E-2,3.553988E-2,-7.76191E-2],"split_indices":[0,3,3,3,3,0,4,3,0,0,0,3,0,0,1,0,1,0,0,0,0],"split_type":[0,0,0,0,0,0,0,0,0,0,0,0,0,0,0,0,0,0,0,0,0],"sum_hessian":[1.9840445E1,9.938109E0,9.902335E0,6.894208E0,3.0439017E0,3.6803088E0,6.222027E0,5.7717896E0,1.122418E0,1.8976955E0,1.1462063E0,4.8175097E0,1.4045169E0,2.034672E0,3.7371178E0,1.977617E0,2.8398929E0,2.1318705E0,1.6052474E0,1.6853542E0,1.1545386E0],"tree_param":{"num_deleted":"0","num_feature":"6","num_nodes":"21","size_leaf_vector":"1"}},{"base_weights":[1.0390552E-2,3.8923404E-1,-3.779194E-1,5.656938E-1,1.0378529E-1,-8.7439656E-2,-9.878319E-3,8.890643E-2,-1.8072668E-2,-2.8783603E-2,4.9311563E-2,2.885089E-1,-7.268917E-2,8.0711335E-2,-1.8201984E-1,3.302396E-2,-7.74781E-2],"categories":[],"categories_nodes":[],"categories_segments":[],"categories_sizes":[],"default_left":[0,0,0,0,0,0,0,0,0,0,0,0,0,0,0,0,0],"id":17,"left_children":[1,3,5,7,9,-1,11,-1,-1,-1,-1,13,-1,-1,15,-1,-1],"loss_changes":[3.1086898E0,4.793862E-1,1.9006739E0,1.6999097E0,9.5090866E-1,0E0,1.7099555E0,0E0,0E0,0E0,0E0,1.5298703E0,0E0,0E0,1.4059074E0,0E0,0E0],"parents":[2147483647,0,0,1,1,2,2,3,3,4,4,6,6,11,11,14,14],"right_children":[2,4,6,8,10,-1,12,-1,-1,-1,-1,14,-1,-1,16,-1,-1],"split_conditions":[5.6E0,5.1E0,6.9428573E0,2.5714285E0,1E0,-8.7439656E-2,1E0,8.890643E-2,-1.8072668E-2,-2.8783603E-2,4.9311563E-2,7.042857E0,-7.268917E-2,8.0711335E-2,7.3E0,3.302396E-2,-7.74781E-2],"split_indices":[0,0,3,5,4,0,4,0,0,0,0,3,0,0,0,0,0],"split_type":[0,0,0,0,0,0,0,0,0,0,0,0,0,0,0,0,0],"sum_hessian":[1.913199E1,9.682833E0,9.449158E0,5.3770547E0,4.3057775E0,3.4369695E0,6.012188E0,3.6183705E0,1.7586844E0,2.2765355E0,2.029242E0,4.6674423E0,1.3447459E0,1.8800108E0,2.7874312E0,1.7328207E0,1.0546105E0],"tree_param":{"num_deleted":"0","num_feature":"6","num_nodes":"17","size_leaf_vector":"1"}},{"base_weights":[7.936222E-3,-9.5238626E-2,1.5853356E-1,7.410825E-1,-1.1079577E-1,8.481701E-2,2.0331217E-2,-9.011379E-2,3.345165E-2,2.1201819E-1,-7.517782E-2,6.1692692E-2,-9.5801335E-3],"categories":[],"categories_nodes":[],"categories_segments":[],"categories_sizes":[],"default_left":[0,0,0,0,0,0,0,0,0,0,0,0,0],"id":18,"left_children":[1,-1,3,5,7,-1,-1,-1,9,11,-1,-1,-1],"loss_changes":[2.9749067E0,0E0,2.8649251E0,1.5797853E-1,1.512081E0,0E0,0E0,0E0,1.8359244E0,1.3704951E0,0E0,0E0,0E0],"parents":[2147483647,0,0,2,2,3,3,4,4,8,8,9,9],"right_children":[2,-1,4,6,8,-1,-1,-1,10,12,-1,-1,-1],"split_conditions":[1E0,-9.5238626E-2,5.1E0,2.5714285E0,6.2714286E0,8.481701E-2,2.0331217E-2,-9.011379E-2,8.4E0,2E0,-7.517782E-2,6.1692692E-2,-9.5801335E-3],"split_indices":[2,0,0,5,3,0,0,0,0,1,0,0,0],"split_type":[0,0,0,0,0,0,0,0,0,0,0,0,0],"sum_hessian":[1.8526222E1,1.7896978E0,1.6736525E1,4.73763E0,1.1998895E1,3.4695349E0,1.2680948E0,1.0420823E0,1.0956813E1,9.521542E0,1.4352705E0,3.6785536E0,5.8429885E0],"tree_param":{"num_deleted":"0","num_feature":"6","num_nodes":"13","size_leaf_vector":"1"}},{"base_weights":[2.0155092E-3,-9.152475E-2,1.4545274E-1,7.051052E-1,-1.1018515E-1,9.039994E-2,3.0753298E-2,-8.6919695E-2,2.8656002E-2,1.9809438E-1,-7.275488E-2,5.821803E-2,-8.765092E-3],"categories":[],"categories_nodes":[],"categories_segments":[],"categories_sizes":[],"default_left":[0,0,0,0,0,0,0,0,0,0,0,0,0],"id":19,"left_children":[1,-1,3,5,7,-1,-1,-1,9,11,-1,-1,-1],"loss_changes":[2.6463604E0,0E0,2.5644593E0,1.6364288E-1,1.3734213E0,0E0,0E0,0E0,1.6542276E0,1.1940097E0,0E0,0E0,0E0],"parents":[2147483647,0,0,2,2,3,3,4,4,8,8,9,9],"right_children":[2,-1,4,6,8,-1,-1,-1,10,12,-1,-1,-1],"split_conditions":[1E0,-9.152475E-2,5.1E0,6.3E0,6.2714286E0,9.039994E-2,3.0753298E-2,-8.6919695E-2,8.4E0,2E0,-7.275488E-2,5.821803E-2,-8.765092E-3],"split_indices":[2,0,0,3,3,0,0,0,0,1,0,0,0],"split_type":[0,0,0,0,0,0,0,0,0,0,0,0,0],"sum_hessian":[1.8101933E1,1.7202604E0,1.6381672E1,4.5852485E0,1.1796424E1,2.2072327E0,2.3780158E0,1.0107148E0,1.0785709E1,9.414335E0,1.3713737E0,3.573538E0,5.8407974E0],"tree_param":{"num_deleted":"0","num_feature":"6","num_nodes":"13","size_leaf_vector":"1"}},{"base_weights":[-2.378894E-3,-8.806749E-2,1.3432436E-1,6.73444E-1,-1.0947498E-1,8.71927E-2,2.8850649E-2,-4.1861564E-1,1.958865E-1,-9.891338E-2,1.03987865E-1,5.103722E-1,-2.0176819E-1,6.560436E-2,-7.58006E-2,-1.5884215E-2,8.3496906E-2,2.7249286E-2,-6.3617535E-2],"categories":[],"categories_nodes":[],"categories_segments":[],"categories_sizes":[],"default_left":[0,0,0,0,0,0,0,0,0,0,0,0,0,0,0,0,0,0,0],"id":20,"left_children":[1,-1,3,5,7,-1,-1,9,11,-1,13,15,17,-1,-1,-1,-1,-1,-1],"loss_changes":[2.3643317E0,0E0,2.315367E0,1.6489506E-1,1.2718325E0,0E0,0E0,2.0653458E0,9.811356E-1,0E0,2.5626419E0,1.045931E0,9.5987856E-1,0E0,0E0,0E0,0E0,0E0,0E0],"parents":[2147483647,0,0,2,2,3,3,4,4,7,7,8,8,10,10,11,11,12,12],"right_children":[2,-1,4,6,8,-1,-1,10,12,-1,14,16,18,-1,-1,-1,-1,-1,-1],"split_conditions":[1E0,-8.806749E-2,5.1E0,6.3E0,2.857143E0,8.71927E-2,2.8850649E-2,7E0,5.6E0,-9.891338E-2,7.3E0,5.3E0,7.5E-1,6.560436E-2,-7.58006E-2,-1.5884215E-2,8.3496906E-2,2.7249286E-2,-6.3617535E-2],"split_indices":[2,0,0,3,5,0,0,3,0,0,0,0,4,0,0,0,0,0,0],"split_type":[0,0,0,0,0,0,0,0,0,0,0,0,0,0,0,0,0,0,0],"sum_hessian":[1.770669E1,1.6518146E0,1.6054874E1,4.4506817E0,1.1604193E1,2.10182E0,2.3488617E0,5.5821114E0,6.0220814E0,2.2419286E0,3.3401828E0,3.204412E0,2.8176694E0,2.1817956E0,1.1583871E0,1.2134061E0,1.9910059E0,1.5252323E0,1.2924371E0],"tree_param":{"num_deleted":"0","num_feature":"6","num_nodes":"19","size_leaf_vector":"1"}},{"base_weights":[-5.0074314E-3,-8.483741E-2,1.2698047E-1,6.435604E-1,-1.08112745E-1,8.420109E-2,2.7059227E-2,-4.0747613E-1,1.8516815E-1,-9.563029E-2,9.357271E-2,4.8662385E-1,-1.950576E-1,6.2410265E-2,-7.3095076E-2,-1.49393855E-2,8.073839E-2,2.565375E-2,-6.180301E-2],"categories":[],"categories_nodes":[],"categories_segments":[],"categories_sizes":[],"default_left":[0,0,0,0,0,0,0,0,0,0,0,0,0,0,0,0,0,0,0],"id":21,"left_children":[1,-1,3,5,7,-1,-1,9,11,-1,13,15,17,-1,-1,-1,-1,-1,-1],"loss_changes":[2.1268275E0,0E0,2.079965E0,1.660142E-1,1.1494552E0,0E0,0E0,1.8400728E0,8.819884E-1,0E0,2.3103595E0,9.603645E-1,8.749342E-1,0E0,0E0,0E0,0E0,0E0,0E0],"parents":[2147483647,0,0,2,2,3,3,4,4,7,7,8,8,10,10,11,11,12,12],"right_children":[2,-1,4,6,8,-1,-1,10,12,-1,14,16,18,-1,-1,-1,-1,-1,-1],"split_conditions":[1E0,-8.483741E-2,5.1E0,6.3E0,2.857143E0,8.420109E-2,2.7059227E-2,7E0,5.6E0,-9.563029E-2,7.3E0,5.3E0,7.5E-1,6.2410265E-2,-7.3095076E-2,-1.49393855E-2,8.073839E-2,2.565375E-2,-6.180301E-2],"split_indices":[2,0,0,3,5,0,0,3,0,0,0,0,4,0,0,0,0,0,0],"split_type":[0,0,0,0,0,0,0,0,0,0,0,0,0,0,0,0,0,0,0],"sum_hessian":[1.7138754E1,1.5847795E0,1.5553974E1,4.3212485E0,1.1232726E1,1.9996643E0,2.3215842E0,5.3660326E0,5.866693E0,2.1272907E0,3.2387419E0,3.1162205E0,2.7504725E0,2.1186173E0,1.1201247E0,1.2238216E0,1.8923988E0,1.5205334E0,1.2299391E0],"tree_param":{"num_deleted":"0","num_feature":"6","num_nodes":"19","size_leaf_vector":"1"}},{"base_weights":[-7.549971E-3,-8.180952E-2,1.1994024E-1,6.152814E-1,-1.06862135E-1,8.139555E-2,2.537323E-2,-3.9697027E-1,1.7503674E-1,-9.2487775E-2,8.3727084E-2,4.6443042E-1,-1.8882982E-1,5.9359025E-2,-7.055887E-2,-1.4051977E-2,7.8136735E-2,-6.0474005E-2,2.5722468E-2],"categories":[],"categories_nodes":[],"categories_segments":[],"categories_sizes":[],"default_left":[0,0,0,0,0,0,0,0,0,0,0,0,0,0,0,0,0,0,0],"id":22,"left_children":[1,-1,3,5,7,-1,-1,9,11,-1,13,15,17,-1,-1,-1,-1,-1,-1],"loss_changes":[1.9165196E0,0E0,1.8719532E0,1.668024E-1,1.0410435E0,0E0,0E0,1.6408119E0,7.952387E-1,0E0,2.085567E0,8.8279563E-1,8.396649E-1,0E0,0E0,0E0,0E0,0E0,0E0],"parents":[2147483647,0,0,2,2,3,3,4,4,7,7,8,8,10,10,11,11,12,12],"right_children":[2,-1,4,6,8,-1,-1,10,12,-1,14,16,18,-1,-1,-1,-1,-1,-1],"split_conditions":[1E0,-8.180952E-2,5.1E0,6.3E0,2.857143E0,8.139555E-2,2.537323E-2,7E0,5.6E0,-9.2487775E-2,7.3E0,5.3E0,6.928571E0,5.9359025E-2,-7.055887E-2,-1.4051977E-2,7.8136735E-2,-6.0474005E-2,2.5722468E-2],"split_indices":[2,0,0,3,5,0,0,3,0,0,0,0,3,0,0,0,0,0,0],"split_type":[0,0,0,0,0,0,0,0,0,0,0,0,0,0,0,0,0,0,0],"sum_hessian":[1.6596838E1,1.5194836E0,1.50773535E1,4.197366E0,1.0879988E1,1.9012914E0,2.2960746E0,5.1607494E0,5.719238E0,2.0192034E0,3.141546E0,3.0316794E0,2.6875587E0,2.0592985E0,1.0822476E0,1.2336309E0,1.7980485E0,1.206676E0,1.4808826E0],"tree_param":{"num_deleted":"0","num_feature":"6","num_nodes":"19","size_leaf_vector":"1"}},{"base_weights":[-9.949253E-3,-7.8962505E-2,1.1328146E-1,5.884647E-1,-1.0565437E-1,7.875209E-2,2.3786992E-1,-3.8704377E-1,1.6572604E-1,8.629193E-3,2.9001316E-2,-8.947726E-2,7.439981E-2,4.4365022E-1,-1.8296102E-1,5.64422E-2,-6.8174094E-2,-1.3218316E-2,7.567319E-2,2.4836944E-2,-5.9462614E-2],"categories":[],"categories_nodes":[],"categories_segments":[],"categories_sizes":[],"default_left":[0,0,0,0,0,0,0,0,0,0,0,0,0,0,0,0,0,0,0,0,0],"id":23,"left_children":[1,-1,3,5,7,-1,9,11,13,-1,-1,-1,15,17,19,-1,-1,-1,-1,-1,-1],"loss_changes":[1.7302116E0,0E0,1.6872841E0,1.6714537E-1,9.455001E-1,0E0,8.3711743E-4,1.4643604E0,7.183905E-1,0E0,0E0,0E0,1.8849568E0,8.1232595E-1,7.9126126E-1,0E0,0E0,0E0,0E0,0E0,0E0],"parents":[2147483647,0,0,2,2,3,3,4,4,6,6,7,7,8,8,12,12,13,13,14,14],"right_children":[2,-1,4,6,8,-1,10,12,14,-1,-1,-1,16,18,20,-1,-1,-1,-1,-1,-1],"split_conditions":[1E0,-7.8962505E-2,5.1E0,6.3E0,2.857143E0,7.875209E-2,4.9E0,7E0,5.6E0,8.629193E-3,2.9001316E-2,-8.947726E-2,7.3E0,5.3E0,7.5E-1,5.64422E-2,-6.8174094E-2,-1.3218316E-2,7.567319E-2,2.4836944E-2,-5.9462614E-2],"split_indices":[2,0,0,3,5,0,0,3,0,0,0,0,0,0,4,0,0,0,0,0,0],"split_type":[0,0,0,0,0,0,0,0,0,0,0,0,0,0,0,0,0,0,0,0,0],"sum_hessian":[1.6077034E1,1.4561753E0,1.4620859E1,4.079273E0,1.0541586E1,1.8070475E0,2.2722256E0,4.9661117E0,5.5754747E0,1.2611173E0,1.0111084E0,1.9173589E0,3.0487528E0,2.9510047E0,2.62447E0,2.0037546E0,1.044998E0,1.2428682E0,1.7081366E0,1.475332E0,1.149138E0],"tree_param":{"num_deleted":"0","num_feature":"6","num_nodes":"21","size_leaf_vector":"1"}},{"base_weights":[-1.1444339E-2,-7.627811E-2,1.0774039E-1,4.932044E-1,-1.4637037E-1,8.663716E-2,-7.5932447E-4,-4.873681E-1,1.11955985E-1,-8.7249026E-2,7.185825E-2,1.937931E-2,-8.203868E-2,6.449591E-1,-4.4244996E-1,7.56151E-2,1.733663E-2,1.5929257E-2,-9.36623E-2],"categories":[],"categories_nodes":[],"categories_segments":[],"categories_sizes":[],"default_left":[0,0,0,0,0,0,0,0,0,0,0,0,0,0,0,0,0,0,0],"id":24,"left_children":[1,-1,3,5,7,-1,9,11,13,-1,-1,-1,-1,15,17,-1,-1,-1,-1],"loss_changes":[1.5677185E0,0E0,1.5604767E0,1.1556243E0,9.291561E-1,0E0,2.944338E0,1.1721178E0,2.1949556E0,0E0,0E0,0E0,0E0,6.301093E-2,1.26748E0,0E0,0E0,0E0,0E0],"parents":[2147483647,0,0,2,2,3,3,4,4,6,6,7,7,8,8,13,13,14,14],"right_children":[2,-1,4,6,8,-1,10,12,14,-1,-1,-1,-1,16,18,-1,-1,-1,-1],"split_conditions":[1E0,-7.627811E-2,5.2E0,6.3E0,6.9428573E0,8.663716E-2,6.714286E0,2E0,7.042857E0,-8.7249026E-2,7.185825E-2,1.937931E-2,-8.203868E-2,4E0,2.5E0,7.56151E-2,1.733663E-2,1.5929257E-2,-9.36623E-2],"split_indices":[2,0,0,3,3,0,3,1,3,0,0,0,0,1,5,0,0,0,0],"split_type":[0,0,0,0,0,0,0,0,0,0,0,0,0,0,0,0,0,0,0],"sum_hessian":[1.5589296E1,1.3950367E0,1.4194259E1,5.2657175E0,8.928541E0,2.5701604E0,2.6955574E0,3.4662979E0,5.4622436E0,1.1224369E0,1.5731205E0,1.2754813E0,2.1908164E0,2.7016027E0,2.760641E0,1.6978796E0,1.0037231E0,1.5504068E0,1.2102343E0],"tree_param":{"num_deleted":"0","num_feature":"6","num_nodes":"19","size_leaf_vector":"1"}},{"base_weights":[-1.3904297E-2,-7.37407E-2,1.0240306E-1,4.7546417E-1,-1.4116146E-1,8.401231E-2,-4.4988417E-3,-4.6833444E-1,1.05722874E-1,-8.367184E-2,6.9696E-2,1.8359933E-2,-7.983386E-2,6.2156963E-1,-4.2696148E-1,7.2088175E-2,1.9381592E-2,1.4992997E-2,-9.1116145E-2],"categories":[],"categories_nodes":[],"categories_segments":[],"categories_sizes":[],"default_left":[0,0,0,0,0,0,0,0,0,0,0,0,0,0,0,0,0,0,0],"id":25,"left_children":[1,-1,3,5,7,-1,9,11,13,-1,-1,-1,-1,15,17,-1,-1,-1,-1],"loss_changes":[1.4209055E0,0E0,1.3984711E0,1.0567933E0,8.278224E-1,0E0,2.6801836E0,1.077739E0,1.9985795E0,0E0,0E0,0E0,0E0,1.370585E-2,1.1689893E0,0E0,0E0,0E0,0E0],"parents":[2147483647,0,0,2,2,3,3,4,4,6,6,7,7,8,8,13,13,14,14],"right_children":[2,-1,4,6,8,-1,10,12,14,-1,-1,-1,-1,16,18,-1,-1,-1,-1],"split_conditions":[1E0,-7.37407E-2,5.2E0,6.3E0,6.9428573E0,8.401231E-2,6.714286E0,2E0,7.042857E0,-8.367184E-2,6.9696E-2,1.8359933E-2,-7.983386E-2,1E0,2.5E0,7.2088175E-2,1.9381592E-2,1.4992997E-2,-9.1116145E-2],"split_indices":[2,0,0,3,3,0,3,1,3,0,0,0,0,4,5,0,0,0,0],"split_type":[0,0,0,0,0,0,0,0,0,0,0,0,0,0,0,0,0,0,0],"sum_hessian":[1.498828E1,1.3361923E0,1.3652088E1,5.0164385E0,8.63565E0,2.4242148E0,2.5922236E0,3.3281631E0,5.307486E0,1.0974132E0,1.4948106E0,1.2676079E0,2.0605552E0,2.6115863E0,2.6958997E0,1.563349E0,1.0482373E0,1.5452245E0,1.1506752E0],"tree_param":{"num_deleted":"0","num_feature":"6","num_nodes":"19","size_leaf_vector":"1"}},{"base_weights":[-1.615408E-2,-7.1336776E-2,9.73834E-2,5.2962697E-1,-1.0037112E-1,9.133332E-3,6.358857E-2,-3.625636E-1,1.5811907E-1,-8.368551E-2,6.4049624E-2,3.965965E-1,-1.6029634E-2,1.748476E-2,-8.057809E-3,-1.592795E-2,7.1420185E-2],"categories":[],"categories_nodes":[],"categories_segments":[],"categories_sizes":[],"default_left":[0,0,0,0,0,0,0,0,0,0,0,0,0,0,0,0,0],"id":26,"left_children":[1,-1,3,5,7,-1,-1,9,11,-1,13,15,-1,-1,-1,-1,-1],"loss_changes":[1.2902225E0,0E0,1.2619593E0,1.5607858E-1,7.718915E-1,0E0,0E0,1.1741214E0,5.1959646E-1,0E0,7.569274E-2,7.70801E-1,0E0,0E0,0E0,0E0,0E0],"parents":[2147483647,0,0,2,2,3,3,4,4,7,7,8,8,10,10,11,11],"right_children":[2,-1,4,6,8,-1,-1,10,12,-1,14,16,-1,-1,-1,-1,-1],"split_conditions":[1E0,-7.1336776E-2,5.1E0,3E0,2.857143E0,9.133332E-3,6.358857E-2,7E0,5.6E0,-8.368551E-2,2E0,5.3E0,-1.6029634E-2,1.748476E-2,-8.057809E-3,-1.592795E-2,7.1420185E-2],"split_indices":[2,0,0,1,5,0,0,3,0,0,1,0,0,0,0,0,0],"split_type":[0,0,0,0,0,0,0,0,0,0,0,0,0,0,0,0,0],"sum_hessian":[1.44213505E1,1.2797188E0,1.3141631E1,3.5983357E0,9.543296E0,1.0649967E0,2.533339E0,4.537841E0,5.005455E0,1.6934764E0,2.8443642E0,2.7215881E0,2.2838671E0,1.4922305E0,1.3521336E0,1.1708513E0,1.5507368E0],"tree_param":{"num_deleted":"0","num_feature":"6","num_nodes":"17","size_leaf_vector":"1"}},{"base_weights":[-1.7018413E-2,1.4628965E-1,-5.0061E-1,-1.272541E-1,6.909301E-2,9.091005E-3,-9.346929E-2,1.5375583E-1,-7.184583E-2,-1.1078934E-1,6.7949E-2,3.3737656E-2,-2.947726E-2],"categories":[],"categories_nodes":[],"categories_segments":[],"categories_sizes":[],"default_left":[0,0,0,0,0,0,0,0,0,0,0,0,0],"id":27,"left_children":[1,3,5,7,-1,-1,-1,9,-1,11,-1,-1,-1],"loss_changes":[1.2657497E0,1.8849456E0,1.1218312E0,1.5846971E0,0E0,0E0,0E0,1.0263829E0,0E0,5.4545957E-1,0E0,0E0,0E0],"parents":[2147483647,0,0,1,1,2,2,3,3,7,7,9,9],"right_children":[2,4,6,8,-1,-1,-1,10,-1,12,-1,-1,-1],"split_conditions":[7.042857E0,6.9428573E0,2.5E0,5.6E0,6.909301E-2,9.091005E-3,-9.346929E-2,1E0,-7.184583E-2,4.3E0,6.7949E-2,3.3737656E-2,-2.947726E-2],"split_indices":[3,3,5,0,0,0,0,4,0,0,0,0,0],"split_type":[0,0,0,0,0,0,0,0,0,0,0,0,0],"sum_hessian":[1.4100027E1,1.1061926E1,3.0381007E0,7.873727E0,3.1881995E0,1.6204717E0,1.4176291E0,5.8385077E0,2.0352192E0,4.409134E0,1.4293734E0,1.0405989E0,3.3685353E0],"tree_param":{"num_deleted":"0","num_feature":"6","num_nodes":"13","size_leaf_vector":"1"}},{"base_weights":[-1.6780168E-2,1.414565E-1,-4.8108646E-1,-1.1725325E-1,6.596238E-2,8.5367765E-3,-9.081852E-2,1.5095237E-1,-7.002502E-2,-9.887134E-2,6.5952055E-2,3.228682E-2,-2.7111838E-2],"categories":[],"categories_nodes":[],"categories_segments":[],"categories_sizes":[],"default_left":[0,0,0,0,0,0,0,0,0,0,0,0,0],"id":28,"left_children":[1,3,5,7,-1,-1,-1,9,-1,11,-1,-1,-1],"loss_changes":[1.1482146E0,1.6508622E0,1.0365849E0,1.4626362E0,0E0,0E0,0E0,9.248903E-1,0E0,4.803233E-1,0E0,0E0,0E0],"parents":[2147483647,0,0,1,1,2,2,3,3,7,7,9,9],"right_children":[2,4,6,8,-1,-1,-1,10,-1,12,-1,-1,-1],"split_conditions":[7.042857E0,6.9428573E0,2.5E0,5.6E0,6.596238E-2,8.5367765E-3,-9.081852E-2,1E0,-7.002502E-2,4.3E0,6.5952055E-2,3.228682E-2,-2.7111838E-2],"split_indices":[3,3,5,0,0,0,0,4,0,0,0,0,0],"split_type":[0,0,0,0,0,0,0,0,0,0,0,0,0],"sum_hessian":[1.3702022E1,1.0737869E1,2.9641528E0,7.678083E0,3.0597856E0,1.6181492E0,1.3460037E0,5.766364E0,1.9117192E0,4.4070697E0,1.3592942E0,1.0244062E0,3.3826635E0],"tree_param":{"num_deleted":"0","num_feature":"6","num_nodes":"13","size_leaf_vector":"1"}},{"base_weights":[-1.659124E-2,-6.6881716E-2,9.14424E-2,2.3931606E-1,-3.832393E-1,9.241308E-3,6.292671E-2,-1.7564647E-3,-6.385369E-2,2.8448334E-1,-6.508884E-2,4.7647133E-2,-2.1340007E-2],"categories":[],"categories_nodes":[],"categories_segments":[],"categories_sizes":[],"default_left":[0,0,0,0,0,0,0,0,0,0,0,0,0],"id":29,"left_children":[1,-1,3,5,7,9,-1,-1,-1,11,-1,-1,-1],"loss_changes":[1.0710082E0,0E0,1.0165024E0,9.506782E-1,3.16819E-1,1.5878508E0,0E0,0E0,0E0,6.889845E-1,0E0,0E0,0E0],"parents":[2147483647,0,0,2,2,3,3,4,4,5,5,9,9],"right_children":[2,-1,4,6,8,10,-1,-1,-1,12,-1,-1,-1],"split_conditions":[1E0,-6.6881716E-2,7.042857E0,6.9428573E0,7.3E0,5.6E0,6.292671E-2,-1.7564647E-3,-6.385369E-2,6.4714284E0,-6.508884E-2,4.7647133E-2,-2.1340007E-2],"split_indices":[2,0,3,3,0,0,0,0,0,3,0,0,0],"split_type":[0,0,0,0,0,0,0,0,0,0,0,0,0],"sum_hessian":[1.3331769E1,1.1568364E0,1.2174933E1,9.661122E0,2.5138106E0,6.719974E0,2.9411485E0,1.472903E0,1.0409075E0,5.144159E0,1.5758151E0,3.743601E0,1.4005576E0],"tree_param":{"num_deleted":"0","num_feature":"6","num_nodes":"13","size_leaf_vector":"1"}},{"base_weights":[-2.3103671E-2,-6.4811625E-2,8.131323E-2,4.7660744E-1,-1.0337324E-1,6.793895E-2,1.352921E-2,-3.4728685E-1,1.4822486E-1,-7.9633325E-2,5.1305354E-2,4.0144842E-2,-9.747955E-2,1.8108645E-2,-1.1447713E-2,2.9840449E-2,-3.7398245E-2],"categories":[],"categories_nodes":[],"categories_segments":[],"categories_sizes":[],"default_left":[0,0,0,0,0,0,0,0,0,0,0,0,0,0,0,0,0],"id":30,"left_children":[1,-1,3,5,7,-1,-1,9,11,-1,13,-1,15,-1,-1,-1,-1],"loss_changes":[9.633001E-1,0E0,9.8696417E-1,2.0350307E-1,6.391324E-1,0E0,0E0,9.646654E-1,3.7601706E-1,0E0,9.977262E-2,0E0,5.004879E-1,0E0,0E0,0E0,0E0],"parents":[2147483647,0,0,2,2,3,3,4,4,7,7,8,8,10,10,12,12],"right_children":[2,-1,4,6,8,-1,-1,10,12,-1,14,-1,16,-1,-1,-1,-1],"split_conditions":[1E0,-6.4811625E-2,5.1E0,6.3E0,2.857143E0,6.793895E-2,1.352921E-2,7E0,6.4714284E0,-7.9633325E-2,2E0,4.0144842E-2,7.5E-1,1.8108645E-2,-1.1447713E-2,2.9840449E-2,-3.7398245E-2],"split_indices":[2,0,0,3,5,0,0,3,3,0,1,0,4,0,0,0,0],"split_type":[0,0,0,0,0,0,0,0,0,0,0,0,0,0,0,0,0],"sum_hessian":[1.29530115E1,1.108831E0,1.1844181E1,3.2682793E0,8.575901E0,1.4288611E0,1.8394182E0,4.161338E0,4.414563E0,1.4875865E0,2.6737516E0,1.8618592E0,2.5527039E0,1.4479362E0,1.2258154E0,1.017165E0,1.5355389E0],"tree_param":{"num_deleted":"0","num_feature":"6","num_nodes":"17","size_leaf_vector":"1"}},{"base_weights":[-2.2968112E-2,1.2588036E-1,-4.4337934E-1,-1.1637341E-1,6.047668E-2,8.773097E-3,-8.636485E-2,-7.002312E-2,1.1458368E-1,3.6345834E-1,-3.337832E-2,5.680841E-2,-4.9120034E-3],"categories":[],"categories_nodes":[],"categories_segments":[],"categories_sizes":[],"default_left":[0,0,0,0,0,0,0,0,0,0,0,0,0],"id":31,"left_children":[1,3,5,7,-1,-1,-1,-1,9,11,-1,-1,-1],"loss_changes":[9.133498E-1,1.3348266E0,9.2492527E-1,1.1693187E0,0E0,0E0,0E0,0E0,8.6299235E-1,4.291618E-1,0E0,0E0,0E0],"parents":[2147483647,0,0,1,1,2,2,3,3,8,8,9,9],"right_children":[2,4,6,8,-1,-1,-1,-1,10,12,-1,-1,-1],"split_conditions":[7.042857E0,6.9428573E0,2.5E0,8.333333E-1,6.047668E-2,8.773097E-3,-8.636485E-2,-7.002312E-2,6.4714284E0,5.2E0,-3.337832E-2,5.680841E-2,-4.9120034E-3],"split_indices":[3,3,5,4,0,0,0,0,3,0,0,0,0],"split_type":[0,0,0,0,0,0,0,0,0,0,0,0,0],"sum_hessian":[1.2703587E1,9.89928E0,2.8043063E0,7.0764933E0,2.8227866E0,1.5883268E0,1.2159793E0,1.4298859E0,5.6466074E0,3.752875E0,1.8937324E0,2.256708E0,1.4961672E0],"tree_param":{"num_deleted":"0","num_feature":"6","num_nodes":"13","size_leaf_vector":"1"}},{"base_weights":[-2.627941E-2,1.1722442E-1,-4.2687976E-1,-1.1343432E-1,5.762726E-2,8.242193E-3,-8.39442E-2,-3.1729177E-1,4.6022754E-2,4.8819665E-2,-7.970252E-2,3.6322143E-2,-2.5745107E-2],"categories":[],"categories_nodes":[],"categories_segments":[],"categories_sizes":[],"default_left":[0,0,0,0,0,0,0,0,0,0,0,0,0],"id":32,"left_children":[1,3,5,7,-1,-1,-1,9,-1,11,-1,-1,-1],"loss_changes":[8.191298E-1,1.1913805E0,8.5584944E-1,1.0714719E0,0E0,0E0,0E0,1.1683507E0,0E0,5.354422E-1,0E0,0E0,0E0],"parents":[2147483647,0,0,1,1,2,2,3,3,7,7,9,9],"right_children":[2,4,6,8,-1,-1,-1,10,-1,12,-1,-1,-1],"split_conditions":[7.042857E0,6.9428573E0,2.5E0,1E0,5.762726E-2,8.242193E-3,-8.39442E-2,6.4714284E0,4.6022754E-2,5.1E0,-7.970252E-2,3.6322143E-2,-2.5745107E-2],"split_indices":[3,3,5,4,0,0,0,3,0,0,0,0,0],"split_type":[0,0,0,0,0,0,0,0,0,0,0,0,0],"sum_hessian":[1.2378328E1,9.634439E0,2.7438893E0,6.9134955E0,2.720944E0,1.5860969E0,1.1577926E0,5.4305773E0,1.4829181E0,3.58948E0,1.8410972E0,1.6794719E0,1.9100081E0],"tree_param":{"num_deleted":"0","num_feature":"6","num_nodes":"13","size_leaf_vector":"1"}},{"base_weights":[-2.7520286E-2,1.1139337E-1,-4.111726E-1,-1.0747244E-1,5.486961E-2,7.7432836E-3,-8.158517E-2,-6.704552E-2,1.115557E-1,3.41103E-1,-3.0434772E-2,-7.6023466E-3,5.2879464E-2],"categories":[],"categories_nodes":[],"categories_segments":[],"categories_sizes":[],"default_left":[0,0,0,0,0,0,0,0,0,0,0,0,0],"id":33,"left_children":[1,3,5,7,-1,-1,-1,-1,9,11,-1,-1,-1],"loss_changes":[7.4242103E-1,1.0527577E0,7.923684E-1,1.031193E0,0E0,0E0,0E0,0E0,7.187433E-1,4.02057E-1,0E0,0E0,0E0],"parents":[2147483647,0,0,1,1,2,2,3,3,8,8,9,9],"right_children":[2,4,6,8,-1,-1,-1,-1,10,12,-1,-1,-1],"split_conditions":[7.042857E0,6.9428573E0,2.5E0,8.333333E-1,5.486961E-2,7.7432836E-3,-8.158517E-2,-6.704552E-2,6.4714284E0,6.1285715E0,-3.0434772E-2,-7.6023466E-3,5.2879464E-2],"split_indices":[3,3,5,4,0,0,0,0,3,3,0,0,0],"split_type":[0,0,0,0,0,0,0,0,0,0,0,0,0],"sum_hessian":[1.2071116E1,9.383257E0,2.6878598E0,6.756121E0,2.6271355E0,1.5840048E0,1.103855E0,1.315012E0,5.441109E0,3.6219287E0,1.8191804E0,1.308615E0,2.3133137E0],"tree_param":{"num_deleted":"0","num_feature":"6","num_nodes":"13","size_leaf_vector":"1"}},{"base_weights":[-3.0875836E-2,9.923131E-2,-4.1038772E-1,3.6726597E-1,-1.5524468E-1,1.2207528E-2,-7.1049444E-2,3.0073285E-2,5.9047144E-2,-6.860309E-2,1.04539014E-1,1.4658282E-2,-9.115012E-3,2.9925057E-1,-2.8070753E-2,6.60552E-2,-1.833154E-2],"categories":[],"categories_nodes":[],"categories_segments":[],"categories_sizes":[],"default_left":[0,0,0,0,0,0,0,0,0,0,0,0,0,0,0,0,0],"id":34,"left_children":[1,3,5,7,9,-1,-1,11,-1,-1,13,-1,-1,15,-1,-1,-1],"loss_changes":[6.7223877E-1,7.615865E-1,6.396174E-1,3.832398E-1,8.9929545E-1,0E0,0E0,5.8214568E-2,0E0,0E0,4.513597E-1,0E0,0E0,7.726661E-1,0E0,0E0,0E0],"parents":[2147483647,0,0,1,1,2,2,3,3,4,4,7,7,10,10,13,13],"right_children":[2,4,6,8,10,-1,-1,12,-1,-1,14,-1,-1,16,-1,-1,-1],"split_conditions":[7.3E0,2.5714285E0,7.5E-1,6.8285713E0,2.857143E0,1.2207528E-2,-7.1049444E-2,6.1285715E0,5.9047144E-2,-6.860309E-2,6.8E0,1.4658282E-2,-9.115012E-3,2E0,-2.8070753E-2,6.60552E-2,-1.833154E-2],"split_indices":[0,5,4,3,5,0,0,3,0,0,3,0,0,1,0,0,0],"split_type":[0,0,0,0,0,0,0,0,0,0,0,0,0,0,0,0,0],"sum_hessian":[1.1789615E1,9.329674E0,2.4599407E0,4.327927E0,5.001747E0,1.1005397E0,1.3594009E0,2.175767E0,2.1521602E0,1.104425E0,3.897322E0,1.0027827E0,1.1729842E0,2.7371387E0,1.1601832E0,1.354317E0,1.3828218E0],"tree_param":{"num_deleted":"0","num_feature":"6","num_nodes":"17","size_leaf_vector":"1"}},{"base_weights":[-3.1709176E-2,3.0195248E-1,-1.8367398E-1,5.19257E-2,-1.0382116E-2,1.6051184E-1,-3.9371434E-1,3.9688047E-2,-1.33681E-2,-7.0866895E-1,2.140674E-2,-8.585942E-2,-1.5912304E-2],"categories":[],"categories_nodes":[],"categories_segments":[],"categories_sizes":[],"default_left":[0,0,0,0,0,0,0,0,0,0,0,0,0],"id":35,"left_children":[1,3,5,-1,-1,7,9,-1,-1,11,-1,-1,-1],"loss_changes":[6.91674E-1,4.3347552E-1,7.3138285E-1,0E0,0E0,3.4603322E-1,1.3059044E0,0E0,0E0,2.0970821E-1,0E0,0E0,0E0],"parents":[2147483647,0,0,1,1,2,2,5,5,6,6,9,9],"right_children":[2,4,6,-1,-1,8,10,-1,-1,12,-1,-1,-1],"split_conditions":[5.1E0,2.5714285E0,2E0,5.19257E-2,-1.0382116E-2,6.4714284E0,3E0,3.9688047E-2,-1.33681E-2,4E0,2.140674E-2,-8.585942E-2,-1.5912304E-2],"split_indices":[0,5,1,0,0,3,5,0,0,1,0,0,0],"split_type":[0,0,0,0,0,0,0,0,0,0,0,0,0],"sum_hessian":[1.1547389E1,3.304616E0,8.242773E0,1.9699658E0,1.3346503E0,3.213207E0,5.029566E0,1.5881569E0,1.6250502E0,3.2035055E0,1.8260602E0,2.0750322E0,1.1284733E0],"tree_param":{"num_deleted":"0","num_feature":"6","num_nodes":"13","size_leaf_vector":"1"}},{"base_weights":[-3.0243166E-2,1.013203E-1,-3.8565114E-2,-1.6726008E-1,4.5434374E-1,1.3743721E-1,-7.2241545E-2,6.8297125E-2,9.130246E-3,-1.8979063E-2,3.3901256E-1,5.791827E-2,-9.3155475E-3],"categories":[],"categories_nodes":[],"categories_segments":[],"categories_sizes":[],"default_left":[0,0,0,0,0,0,0,0,0,0,0,0,0],"id":36,"left_children":[1,3,-1,5,7,9,-1,-1,-1,-1,11,-1,-1],"loss_changes":[6.156558E-1,1.0043774E0,0E0,1.1635638E0,3.1112844E-1,3.8770685E-1,0E0,0E0,0E0,0E0,4.0607807E-1,0E0,0E0],"parents":[2147483647,0,0,1,1,3,3,4,4,5,5,10,10],"right_children":[2,4,-1,6,8,10,-1,-1,-1,-1,12,-1,-1],"split_conditions":[7.042857E0,6.785714E0,-3.8565114E-2,6.4714284E0,5.4E0,6.2714286E0,-7.2241545E-2,6.8297125E-2,9.130246E-3,-1.8979063E-2,2E0,5.791827E-2,-9.3155475E-3],"split_indices":[3,3,0,3,0,3,0,0,0,0,1,0,0],"split_type":[0,0,0,0,0,0,0,0,0,0,0,0,0],"sum_hessian":[1.1330998E1,8.791512E0,2.5394871E0,5.2917514E0,3.4997597E0,3.9023688E0,1.3893825E0,1.6066884E0,1.8930714E0,1.5098358E0,2.392533E0,1.3192196E0,1.0733135E0],"tree_param":{"num_deleted":"0","num_feature":"6","num_nodes":"13","size_leaf_vector":"1"}},{"base_weights":[-2.7852098E-2,2.8878048E-1,-1.7250437E-1,-1.9945541E-2,5.9253436E-2,1.5089403E-1,-3.7425992E-1,-1.7085122E-2,1.4044023E-2,3.5743628E-2,-1.0140889E-2,-6.7412823E-1,1.9633321E-2,-8.238031E-2,-1.4956198E-2],"categories":[],"categories_nodes":[],"categories_segments":[],"categories_sizes":[],"default_left":[0,0,0,0,0,0,0,0,0,0,0,0,0,0,0],"id":37,"left_children":[1,3,5,7,-1,9,11,-1,-1,-1,-1,13,-1,-1,-1],"loss_changes":[6.0480106E-1,4.0321708E-1,6.400089E-1,9.750793E-2,0E0,2.5243494E-1,1.123867E0,0E0,0E0,0E0,0E0,1.9274056E-1,0E0,0E0,0E0],"parents":[2147483647,0,0,1,1,2,2,3,3,5,5,6,6,11,11],"right_children":[2,4,6,8,-1,10,12,-1,-1,-1,-1,14,-1,-1,-1],"split_conditions":[5.1E0,5E0,2E0,4E0,5.9253436E-2,6.4714284E0,3E0,-1.7085122E-2,1.4044023E-2,3.5743628E-2,-1.0140889E-2,4E0,1.9633321E-2,-8.238031E-2,-1.4956198E-2],"split_indices":[0,0,1,1,0,3,5,0,0,0,0,1,0,0,0],"split_type":[0,0,0,0,0,0,0,0,0,0,0,0,0,0,0],"sum_hessian":[1.1117151E1,3.1737287E0,7.9434223E0,2.0373578E0,1.1363709E0,3.1485837E0,4.794839E0,1.0160824E0,1.0212754E0,1.5021701E0,1.6464136E0,3.0241053E0,1.7707336E0,1.9089712E0,1.1151341E0],"tree_param":{"num_deleted":"0","num_feature":"6","num_nodes":"15","size_leaf_vector":"1"}},{"base_weights":[-2.5288047E-2,2.1621166E-1,-2.0918053E-1,4.952961E-2,-5.149682E-2,-7.692832E-2,7.678652E-2,2.18373E-2,-2.9054796E-2,2.2169477E-1,-1.677244E-2,-1.3833976E-2,5.999126E-2],"categories":[],"categories_nodes":[],"categories_segments":[],"categories_sizes":[],"default_left":[0,0,0,0,0,0,0,0,0,0,0,0,0],"id":38,"left_children":[1,3,5,-1,7,-1,9,-1,-1,11,-1,-1,-1],"loss_changes":[5.7497257E-1,4.4750974E-1,1.2251489E0,0E0,3.0786896E-1,0E0,2.4016385E-1,0E0,0E0,6.314536E-1,0E0,0E0,0E0],"parents":[2147483647,0,0,1,1,2,2,4,4,6,6,9,9],"right_children":[2,4,6,-1,8,-1,10,-1,-1,12,-1,-1,-1],"split_conditions":[2.5714285E0,5.1E0,2.857143E0,4.952961E-2,2E0,-7.692832E-2,5.6E0,2.18373E-2,-2.9054796E-2,5.3E0,-1.677244E-2,-1.3833976E-2,5.999126E-2],"split_indices":[5,0,5,0,1,0,0,0,0,0,0,0,0],"split_type":[0,0,0,0,0,0,0,0,0,0,0,0,0],"sum_hessian":[1.092852E1,4.6483073E0,6.2802134E0,1.8595772E0,2.7887301E0,1.55143E0,4.728783E0,1.350558E0,1.4381721E0,3.0277278E0,1.7010554E0,1.8760777E0,1.1516502E0],"tree_param":{"num_deleted":"0","num_feature":"6","num_nodes":"13","size_leaf_vector":"1"}},{"base_weights":[-2.3569202E-2,2.0511743E-1,-1.9833677E-1,4.7370058E-2,-4.8456613E-2,-7.448489E-2,7.519175E-2,2.0655243E-2,-2.74312E-2,2.137158E-1,-1.576331E-2,-1.2885555E-2,5.8300953E-2],"categories":[],"categories_nodes":[],"categories_segments":[],"categories_sizes":[],"default_left":[0,0,0,0,0,0,0,0,0,0,0,0,0],"id":39,"left_children":[1,3,5,-1,7,-1,9,-1,-1,11,-1,-1,-1],"loss_changes":[5.0942063E-1,4.024368E-1,1.1257575E0,0E0,2.739816E-1,0E0,2.1679845E-1,0E0,0E0,5.791519E-1,0E0,0E0,0E0],"parents":[2147483647,0,0,1,1,2,2,4,4,6,6,9,9],"right_children":[2,4,6,-1,8,-1,10,-1,-1,12,-1,-1,-1],"split_conditions":[2.5714285E0,5.1E0,2.857143E0,4.7370058E-2,2E0,-7.448489E-2,5.6E0,2.0655243E-2,-2.74312E-2,5.3E0,-1.576331E-2,-1.2885555E-2,5.8300953E-2],"split_indices":[5,0,5,0,1,0,0,0,0,0,0,0,0],"split_type":[0,0,0,0,0,0,0,0,0,0,0,0,0],"sum_hessian":[1.0728131E1,4.571967E0,6.1561637E0,1.7987031E0,2.7732644E0,1.4786657E0,4.677498E0,1.3427062E0,1.4305582E0,2.9841123E0,1.6933857E0,1.8858238E0,1.0982883E0],"tree_param":{"num_deleted":"0","num_feature":"6","num_nodes":"13","size_leaf_vector":"1"}},{"base_weights":[-2.1905253E-2,1.01821356E-1,-3.4510296E-2,-1.7144273E-1,4.4835302E-1,1.1812104E-1,-6.863692E-2,6.4262055E-2,1.2853441E-2,-1.759161E-2,3.0454993E-1,5.21573E-2,-3.8075042E-3],"categories":[],"categories_nodes":[],"categories_segments":[],"categories_sizes":[],"default_left":[0,0,0,0,0,0,0,0,0,0,0,0,0],"id":40,"left_children":[1,3,-1,5,7,9,-1,-1,-1,-1,11,-1,-1],"loss_changes":[4.9661246E-1,9.4025713E-1,0E0,9.4902545E-1,1.843453E-1,3.045858E-1,0E0,0E0,0E0,0E0,2.5545672E-1,0E0,0E0],"parents":[2147483647,0,0,1,1,3,3,4,4,5,5,10,10],"right_children":[2,4,-1,6,8,10,-1,-1,-1,-1,12,-1,-1],"split_conditions":[7.042857E0,6.785714E0,-3.4510296E-2,6.4714284E0,5.4E0,6.2714286E0,-6.863692E-2,6.4262055E-2,1.2853441E-2,-1.759161E-2,6.3285713E0,5.21573E-2,-3.8075042E-3],"split_indices":[3,3,0,3,0,3,0,0,0,0,3,0,0],"split_type":[0,0,0,0,0,0,0,0,0,0,0,0,0],"sum_hessian":[1.0540258E1,8.117624E0,2.4226341E0,4.821109E0,3.2965152E0,3.5790637E0,1.242045E0,1.4228842E0,1.8736311E0,1.4106171E0,2.1684465E0,1.0078046E0,1.1606418E0],"tree_param":{"num_deleted":"0","num_feature":"6","num_nodes":"13","size_leaf_vector":"1"}},{"base_weights":[-1.94887E-2,2.052042E-1,-1.9384193E-1,-3.0675135E-3,5.2184593E-2,4.880371E-2,-7.8437604E-2,-3.262828E-2,2.7526686E-2,-2.508522E-1,4.0316973E-2,2.5656525E-2,-7.062005E-2],"categories":[],"categories_nodes":[],"categories_segments":[],"categories_sizes":[],"default_left":[0,0,0,0,0,0,0,0,0,0,0,0,0],"id":41,"left_children":[1,3,5,7,-1,9,-1,-1,-1,11,-1,-1,-1],"loss_changes":[4.8478386E-1,3.6094052E-1,1.0284624E0,4.749474E-1,0E0,7.2119415E-1,0E0,0E0,0E0,1.0546329E0,0E0,0E0,0E0],"parents":[2147483647,0,0,1,1,2,2,3,3,5,5,9,9],"right_children":[2,4,6,8,-1,10,-1,-1,-1,12,-1,-1,-1],"split_conditions":[2.5714285E0,4E0,7E0,6.9428573E0,5.2184593E-2,6.785714E0,-7.8437604E-2,-3.262828E-2,2.7526686E-2,2E0,4.0316973E-2,2.5656525E-2,-7.062005E-2],"split_indices":[5,1,3,3,0,3,0,0,0,1,0,0,0],"split_type":[0,0,0,0,0,0,0,0,0,0,0,0,0],"sum_hessian":[1.0359184E1,4.448875E0,5.91031E0,3.2810621E0,1.1678127E0,4.839256E0,1.071054E0,1.438425E0,1.8426373E0,2.7803068E0,2.0589488E0,1.521441E0,1.258866E0],"tree_param":{"num_deleted":"0","num_feature":"6","num_nodes":"13","size_leaf_vector":"1"}},{"base_weights":[-2.125334E-2,4.1853037E-2,-1.0901975E-1,1.483194E-1,-2.4326393E-1,-1.6030127E-1,5.4890282E-2,-4.3134248E-1,2.5352085E-2,4.5749694E-3,-2.89731E-2,-7.643818E-2,7.6303496E-3,2.6171982E-2,-3.1468473E-2],"categories":[],"categories_nodes":[],"categories_segments":[],"categories_sizes":[],"default_left":[0,0,0,0,0,0,0,0,0,0,0,0,0,0,0],"id":42,"left_children":[1,-1,3,5,7,9,-1,11,13,-1,-1,-1,-1,-1,-1],"loss_changes":[4.7567132E-1,0E0,3.8435233E-1,5.920651E-1,3.647818E-1,9.531593E-2,0E0,7.6418614E-1,3.9010206E-1,0E0,0E0,0E0,0E0,0E0,0E0],"parents":[2147483647,0,0,2,2,3,3,4,4,5,5,7,7,8,8],"right_children":[2,-1,4,6,8,10,-1,12,14,-1,-1,-1,-1,-1,-1],"split_conditions":[2.142857E0,4.1853037E-2,5.2E0,1E0,2.857143E0,8.5714287E-1,5.4890282E-2,7.357143E0,1E0,4.5749694E-3,-2.89731E-2,-7.643818E-2,7.6303496E-3,2.6171982E-2,-3.1468473E-2],"split_indices":[5,0,0,4,5,4,0,3,4,0,0,0,0,0,0],"split_type":[0,0,0,0,0,0,0,0,0,0,0,0,0,0,0],"sum_hessian":[1.0141528E1,1.0602244E0,9.081304E0,3.077345E0,6.0039587E0,2.076998E0,1.0003469E0,3.1750605E0,2.828898E0,1.050747E0,1.026251E0,1.6118646E0,1.563196E0,1.8047159E0,1.0241822E0],"tree_param":{"num_deleted":"0","num_feature":"6","num_nodes":"15","size_leaf_vector":"1"}},{"base_weights":[-1.9660773E-2,1.9859318E-1,-1.9161674E-1,4.4756904E-2,-3.744477E-2,3.9698992E-2,-7.492549E-2,1.9742982E-2,-2.5648555E-2,-2.4861583E-1,3.7979458E-2,2.3576198E-2,-6.80011E-2],"categories":[],"categories_nodes":[],"categories_segments":[],"categories_sizes":[],"default_left":[0,0,0,0,0,0,0,0,0,0,0,0,0],"id":43,"left_children":[1,3,5,-1,7,9,-1,-1,-1,11,-1,-1,-1],"loss_changes":[4.501987E-1,3.3001703E-1,8.8769746E-1,0E0,2.388886E-1,6.4851546E-1,0E0,0E0,0E0,9.2565465E-1,0E0,0E0,0E0],"parents":[2147483647,0,0,1,1,2,2,4,4,5,5,9,9],"right_children":[2,4,6,-1,8,10,-1,-1,-1,12,-1,-1,-1],"split_conditions":[2.5714285E0,5.1E0,7E0,4.4756904E-2,2E0,6.785714E0,-7.492549E-2,1.9742982E-2,-2.5648555E-2,2E0,3.7979458E-2,2.3576198E-2,-6.80011E-2],"split_indices":[5,0,3,0,1,3,0,0,0,1,0,0,0],"split_type":[0,0,0,0,0,0,0,0,0,0,0,0,0],"sum_hessian":[9.981725E0,4.330438E0,5.6512866E0,1.671327E0,2.6591113E0,4.6508574E0,1.000429E0,1.3307872E0,1.3283241E0,2.6626165E0,1.9882411E0,1.4679106E0,1.1947057E0],"tree_param":{"num_deleted":"0","num_feature":"6","num_nodes":"13","size_leaf_vector":"1"}},{"base_weights":[-2.2099523E-2,4.021166E-2,-1.07770324E-1,1.3620265E-1,-2.3388655E-1,4.2350367E-2,-1.3550118E-2,-4.1299334E-1,2.1585051E-2,-7.354082E-2,6.572345E-3,2.42751E-2,-2.9294295E-2],"categories":[],"categories_nodes":[],"categories_segments":[],"categories_sizes":[],"default_left":[0,0,0,0,0,0,0,0,0,0,0,0,0],"id":44,"left_children":[1,-1,3,5,7,-1,-1,9,11,-1,-1,-1,-1],"loss_changes":[4.3512517E-1,0E0,3.3208922E-1,3.6628106E-1,3.200853E-1,0E0,0E0,6.730381E-1,3.3218896E-1,0E0,0E0,0E0,0E0],"parents":[2147483647,0,0,2,2,3,3,4,4,7,7,8,8],"right_children":[2,-1,4,6,8,-1,-1,10,12,-1,-1,-1,-1],"split_conditions":[2.142857E0,4.021166E-2,5.2E0,6.3E0,2.857143E0,4.2350367E-2,-1.3550118E-2,7.357143E0,1E0,-7.354082E-2,6.572345E-3,2.42751E-2,-2.9294295E-2],"split_indices":[5,0,0,3,5,0,0,3,4,0,0,0,0],"split_type":[0,0,0,0,0,0,0,0,0,0,0,0,0],"sum_hessian":[9.7803335E0,1.0226645E0,8.757669E0,2.957119E0,5.8005505E0,1.1657516E0,1.7913675E0,3.0474458E0,2.7531044E0,1.5005926E0,1.5468532E0,1.7504499E0,1.0026546E0],"tree_param":{"num_deleted":"0","num_feature":"6","num_nodes":"13","size_leaf_vector":"1"}},{"base_weights":[-2.0545764E-2,1.8594366E-1,-1.83775E-1,-6.8687224E-3,4.823218E-2,-6.682548E-2,5.852646E-2,-3.0870823E-2,2.454269E-2,1.882674E-1,-1.5322024E-2,-6.1968374E-3,3.2189608E-2],"categories":[],"categories_nodes":[],"categories_segments":[],"categories_sizes":[],"default_left":[0,0,0,0,0,0,0,0,0,0,0,0,0],"id":45,"left_children":[1,3,5,7,-1,-1,9,-1,-1,11,-1,-1,-1],"loss_changes":[3.9303076E-1,3.0033636E-1,7.961995E-1,3.9065677E-1,0E0,0E0,1.722147E-1,0E0,0E0,1.4315654E-1,0E0,0E0,0E0],"parents":[2147483647,0,0,1,1,2,2,3,3,6,6,9,9],"right_children":[2,4,6,8,-1,-1,10,-1,-1,12,-1,-1,-1],"split_conditions":[2.5714285E0,4E0,2.857143E0,6.9428573E0,4.823218E-2,-6.682548E-2,5.6E0,-3.0870823E-2,2.454269E-2,1E0,-1.5322024E-2,-6.1968374E-3,3.2189608E-2],"split_indices":[5,1,5,3,0,0,0,0,0,4,0,0,0],"split_type":[0,0,0,0,0,0,0,0,0,0,0,0,0],"sum_hessian":[9.64702E0,4.197682E0,5.449339E0,3.1349964E0,1.0626856E0,1.230672E0,4.2186666E0,1.3255489E0,1.8094474E0,2.6846302E0,1.5340365E0,1.1212393E0,1.5633909E0],"tree_param":{"num_deleted":"0","num_feature":"6","num_nodes":"13","size_leaf_vector":"1"}},{"base_weights":[-2.014853E-2,9.8552585E-2,-3.1330973E-2,-1.19248524E-1,5.0571054E-2,-2.9460847E-1,3.5973843E-2,1.647042E-2,-6.741497E-2,3.030695E-2,-2.4583204E-2],"categories":[],"categories_nodes":[],"categories_segments":[],"categories_sizes":[],"default_left":[0,0,0,0,0,0,0,0,0,0,0],"id":46,"left_children":[1,3,-1,5,-1,7,-1,9,-1,-1,-1],"loss_changes":[3.9605266E-1,7.9016066E-1,0E0,6.2433016E-1,0E0,6.093634E-1,0E0,3.572294E-1,0E0,0E0,0E0],"parents":[2147483647,0,0,1,1,3,3,5,5,7,7],"right_children":[2,4,-1,6,-1,8,-1,10,-1,-1,-1],"split_conditions":[7.042857E0,6.9428573E0,-3.1330973E-2,1E0,5.0571054E-2,6.4714284E0,3.5973843E-2,2.5714285E0,-6.741497E-2,3.030695E-2,-2.4583204E-2],"split_indices":[3,3,0,4,0,3,0,5,0,0,0],"split_type":[0,0,0,0,0,0,0,0,0,0,0],"sum_hessian":[9.493974E0,7.230264E0,2.2637095E0,5.1711693E0,2.059095E0,4.0671105E0,1.1040589E0,2.7608619E0,1.3062484E0,1.2450571E0,1.5158048E0],"tree_param":{"num_deleted":"0","num_feature":"6","num_nodes":"11","size_leaf_vector":"1"}},{"base_weights":[-1.9057348E-2,1.8138628E-1,-1.7876197E-1,4.1256987E-2,-3.46024E-2,-6.449194E-2,5.4547418E-2,1.9074362E-2,-2.5332822E-2,-1.5634257E-2,2.0099679E-1,4.56382E-2,-1.04978485E-2],"categories":[],"categories_nodes":[],"categories_segments":[],"categories_sizes":[],"default_left":[0,0,0,0,0,0,0,0,0,0,0,0,0],"id":47,"left_children":[1,3,5,-1,7,-1,9,-1,-1,-1,11,-1,-1],"loss_changes":[3.628449E-1,2.6761022E-1,7.147418E-1,0E0,2.2307771E-1,0E0,1.8851028E-1,0E0,0E0,0E0,3.1665713E-1,0E0,0E0],"parents":[2147483647,0,0,1,1,2,2,4,4,6,6,10,10],"right_children":[2,4,6,-1,8,-1,10,-1,-1,-1,12,-1,-1],"split_conditions":[2.5714285E0,5.1E0,2.857143E0,4.1256987E-2,2E0,-6.449194E-2,5.3E0,1.9074362E-2,-2.5332822E-2,-1.5634257E-2,5.7E0,4.56382E-2,-1.04978485E-2],"split_indices":[5,0,5,0,1,0,0,0,0,0,0,0,0],"split_type":[0,0,0,0,0,0,0,0,0,0,0,0,0],"sum_hessian":[9.321826E0,4.073481E0,5.248345E0,1.5279226E0,2.5455582E0,1.1621398E0,4.086205E0,1.3168174E0,1.2287408E0,1.6469749E0,2.4392302E0,1.0615947E0,1.3776355E0],"tree_param":{"num_deleted":"0","num_feature":"6","num_nodes":"13","size_leaf_vector":"1"}},{"base_weights":[-1.8354937E-2,9.650307E-2,-2.9493293E-2,-1.1385561E-1,4.8797738E-2,-2.8936931E-1,3.5062544E-2,1.0642684E-2,-6.532513E-2,2.8054286E-2,-2.3651538E-2],"categories":[],"categories_nodes":[],"categories_segments":[],"categories_sizes":[],"default_left":[0,0,0,0,0,0,0,0,0,0,0],"id":48,"left_children":[1,3,-1,5,-1,7,-1,9,-1,-1,-1],"loss_changes":[3.5215366E-1,7.104954E-1,0E0,5.8929753E-1,0E0,5.4087967E-1,0E0,3.1081402E-1,0E0,0E0,0E0],"parents":[2147483647,0,0,1,1,3,3,5,5,7,7],"right_children":[2,4,-1,6,-1,8,-1,10,-1,-1,-1],"split_conditions":[7.042857E0,6.9428573E0,-2.9493293E-2,1E0,4.8797738E-2,6.4714284E0,3.5062544E-2,5.1E0,-6.532513E-2,2.8054286E-2,-2.3651538E-2],"split_indices":[3,3,0,4,0,3,0,0,0,0,0],"split_type":[0,0,0,0,0,0,0,0,0,0,0],"sum_hessian":[9.189495E0,6.953083E0,2.2364118E0,4.9840603E0,1.9690225E0,3.8908336E0,1.0932266E0,2.6646476E0,1.2261862E0,1.2091566E0,1.455491E0],"tree_param":{"num_deleted":"0","num_feature":"6","num_nodes":"11","size_leaf_vector":"1"}},{"base_weights":[-1.7424112E-2,1.7941457E-1,-1.7465712E-1,3.9014053E-2,-1.894862E-2,-6.25235E-2,5.0780334E-2,1.9708542E-2,-2.3971833E-2,-1.5262933E-2,1.948732E-1,4.411293E-2,-1.0234182E-2],"categories":[],"categories_nodes":[],"categories_segments":[],"categories_sizes":[],"default_left":[0,0,0,0,0,0,0,0,0,0,0,0,0],"id":49,"left_children":[1,3,5,-1,7,-1,9,-1,-1,-1,11,-1,-1],"loss_changes":[3.418847E-1,2.1426658E-1,6.498389E-1,0E0,2.14317E-1,0E0,1.7572442E-1,0E0,0E0,0E0,2.9067278E-1,0E0,0E0],"parents":[2147483647,0,0,1,1,2,2,4,4,6,6,10,10],"right_children":[2,4,6,-1,8,-1,10,-1,-1,-1,12,-1,-1],"split_conditions":[2.5714285E0,5.1E0,2.857143E0,3.9014053E-2,2E0,-6.25235E-2,5.3E0,1.9708542E-2,-2.3971833E-2,-1.5262933E-2,5.7E0,4.411293E-2,-1.0234182E-2],"split_indices":[5,0,5,0,1,0,0,0,0,0,0,0,0],"split_type":[0,0,0,0,0,0,0,0,0,0,0,0,0],"sum_hessian":[9.034032E0,3.9491055E0,5.084926E0,1.4460903E0,2.5030153E0,1.1043172E0,3.980609E0,1.3192979E0,1.1837173E0,1.626005E0,2.354604E0,1.0228868E0,1.3317171E0],"tree_param":{"num_deleted":"0","num_feature":"6","num_nodes":"13","size_leaf_vector":"1"}},{"base_weights":[-1.6803537E-2,8.539587E-2,-3.0977828E-2,3.4640753E-1,-1.7326216E-1,-1.0525511E-3,5.5054344E-2,-3.681018E-2,8.7201325E-3],"categories":[],"categories_nodes":[],"categories_segments":[],"categories_sizes":[],"default_left":[0,0,0,0,0,0,0,0,0],"id":50,"left_children":[1,3,-1,5,7,-1,-1,-1,-1],"loss_changes":[3.23237E-1,6.090646E-1,0E0,3.250233E-1,2.732178E-1,0E0,0E0,0E0,0E0],"parents":[2147483647,0,0,1,1,3,3,4,4],"right_children":[2,4,-1,6,8,-1,-1,-1,-1],"split_conditions":[7.3E0,2.5714285E0,-3.0977828E-2,6.8285713E0,1E0,-1.0525511E-3,5.5054344E-2,-3.681018E-2,8.7201325E-3],"split_indices":[0,5,0,3,4,0,0,0,0],"split_type":[0,0,0,0,0,0,0,0,0],"sum_hessian":[8.911987E0,7.132466E0,1.7795216E0,3.3812249E0,3.751241E0,1.5752785E0,1.8059464E0,1.9095477E0,1.8416933E0],"tree_param":{"num_deleted":"0","num_feature":"6","num_nodes":"9","size_leaf_vector":"1"}},{"base_weights":[-1.5668765E-2,1.0160307E-1,-2.935133E-2,-9.71183E-2,4.6792537E-2,-2.6857376E-1,3.3811606E-2,2.0904172E-2,-6.279855E-2,2.674119E-2,-2.0638859E-2],"categories":[],"categories_nodes":[],"categories_segments":[],"categories_sizes":[],"default_left":[0,0,0,0,0,0,0,0,0,0,0],"id":51,"left_children":[1,3,-1,5,-1,7,-1,9,-1,-1,-1],"loss_changes":[3.4979495E-1,6.022137E-1,0E0,5.226248E-1,0E0,5.0301623E-1,0E0,2.5554112E-1,0E0,0E0,0E0],"parents":[2147483647,0,0,1,1,3,3,5,5,7,7],"right_children":[2,4,-1,6,-1,8,-1,10,-1,-1,-1],"split_conditions":[7.042857E0,6.9428573E0,-2.935133E-2,1E0,4.6792537E-2,6.4714284E0,3.3811606E-2,5.1E0,-6.279855E-2,2.674119E-2,-2.0638859E-2],"split_indices":[3,3,0,4,0,3,0,0,0,0,0],"split_type":[0,0,0,0,0,0,0,0,0,0,0],"sum_hessian":[8.820145E0,6.648346E0,2.1717985E0,4.786606E0,1.8617401E0,3.7085772E0,1.0780289E0,2.5758057E0,1.1327715E0,1.1509968E0,1.4248089E0],"tree_param":{"num_deleted":"0","num_feature":"6","num_nodes":"11","size_leaf_vector":"1"}},{"base_weights":[-1.4862632E-2,9.6300274E-2,-2.737608E-2,-1.3303083E-1,3.8080737E-1,2.6578024E-2,-3.5465974E-1,5.4925542E-2,9.575127E-3,1.2506328E-2,-6.941756E-2],"categories":[],"categories_nodes":[],"categories_segments":[],"categories_sizes":[],"default_left":[0,0,0,0,0,0,0,0,0,0,0],"id":52,"left_children":[1,3,-1,5,7,-1,9,-1,-1,-1,-1],"loss_changes":[3.049521E-1,5.407884E-1,0E0,5.2739954E-1,1.2082529E-1,0E0,6.696261E-1,0E0,0E0,0E0,0E0],"parents":[2147483647,0,0,1,1,3,3,4,4,6,6],"right_children":[2,4,-1,6,8,-1,10,-1,-1,-1,-1],"split_conditions":[7.042857E0,6.785714E0,-2.737608E-2,2E0,5.4E0,2.6578024E-2,6.3E0,5.4925542E-2,9.575127E-3,1.2506328E-2,-6.941756E-2],"split_indices":[3,3,0,1,0,0,3,0,0,0,0],"split_type":[0,0,0,0,0,0,0,0,0,0,0],"sum_hessian":[8.67999E0,6.5119824E0,2.168007E0,3.9004135E0,2.611569E0,1.3221151E0,2.5782986E0,1.0589635E0,1.5526055E0,1.3302906E0,1.2480079E0],"tree_param":{"num_deleted":"0","num_feature":"6","num_nodes":"11","size_leaf_vector":"1"}},{"base_weights":[-1.2884939E-2,1.7300443E-1,-1.6206515E-1,3.6487173E-2,-9.109187E-3,-5.980633E-2,5.6099534E-2,2.0458E-2,-2.37325E-2,-1.5060394E-2,2.016474E-1,3.8436737E-2,-5.6827404E-3],"categories":[],"categories_nodes":[],"categories_segments":[],"categories_sizes":[],"default_left":[0,0,0,0,0,0,0,0,0,0,0,0,0],"id":53,"left_children":[1,3,5,-1,7,-1,9,-1,-1,-1,11,-1,-1],"loss_changes":[2.928558E-1,1.6878383E-1,5.865933E-1,0E0,2.146072E-1,0E0,1.7445882E-1,0E0,0E0,0E0,1.747681E-1,0E0,0E0],"parents":[2147483647,0,0,1,1,2,2,4,4,6,6,10,10],"right_children":[2,4,6,-1,8,-1,10,-1,-1,-1,12,-1,-1],"split_conditions":[2.5714285E0,5.1E0,2.857143E0,3.6487173E-2,2E0,-5.980633E-2,5.3E0,2.0458E-2,-2.37325E-2,-1.5060394E-2,5.9E0,3.8436737E-2,-5.6827404E-3],"split_indices":[5,0,5,0,1,0,0,0,0,0,0,0,0],"split_type":[0,0,0,0,0,0,0,0,0,0,0,0,0],"sum_hessian":[8.549518E0,3.7353277E0,4.81419E0,1.3302709E0,2.4050567E0,1.0248024E0,3.7893875E0,1.2955449E0,1.1095117E0,1.5513958E0,2.2379918E0,1.0257874E0,1.2122045E0],"tree_param":{"num_deleted":"0","num_feature":"6","num_nodes":"13","size_leaf_vector":"1"}},{"base_weights":[-1.2687033E-2,9.5454745E-2,-2.596281E-2,-9.3836546E-2,4.420668E-2,-2.5907448E-1,3.1758547E-2,1.3692976E-2,-5.9611376E-2,2.4978146E-2,-1.9949514E-2],"categories":[],"categories_nodes":[],"categories_segments":[],"categories_sizes":[],"default_left":[0,0,0,0,0,0,0,0,0,0,0],"id":54,"left_children":[1,3,-1,5,-1,7,-1,9,-1,-1,-1],"loss_changes":[2.7703288E-1,5.204601E-1,0E0,4.5935038E-1,0E0,4.225976E-1,0E0,2.2443472E-1,0E0,0E0,0E0],"parents":[2147483647,0,0,1,1,3,3,5,5,7,7],"right_children":[2,4,-1,6,-1,8,-1,10,-1,-1,-1],"split_conditions":[7.042857E0,6.9428573E0,-2.596281E-2,1E0,4.420668E-2,6.4714284E0,3.1758547E-2,5.1E0,-5.9611376E-2,2.4978146E-2,-1.9949514E-2],"split_indices":[3,3,0,4,0,3,0,0,0,0,0],"split_type":[0,0,0,0,0,0,0,0,0,0,0],"sum_hessian":[8.445928E0,6.3003116E0,2.1456156E0,4.5466027E0,1.7537093E0,3.5079944E0,1.0386081E0,2.4691072E0,1.0388871E0,1.0901768E0,1.3789303E0],"tree_param":{"num_deleted":"0","num_feature":"6","num_nodes":"11","size_leaf_vector":"1"}},{"base_weights":[-1.2057096E-2,1.7135979E-1,-1.5945175E-1,-4.6665864E-3,2.9594466E-2,1.0839301E-2,-3.2601904E-2,-2.273251E-2,3.289334E-2],"categories":[],"categories_nodes":[],"categories_segments":[],"categories_sizes":[],"default_left":[0,0,0,0,0,0,0,0,0],"id":55,"left_children":[1,3,5,-1,-1,7,-1,-1,-1],"loss_changes":[2.7935857E-1,1.3973011E-1,1.6484226E-1,0E0,0E0,3.611305E-1,0E0,0E0,0E0],"parents":[2147483647,0,0,1,1,2,2,5,5],"right_children":[2,4,6,-1,-1,8,-1,-1,-1],"split_conditions":[2.5714285E0,6.9428573E0,5.6E0,-4.6665864E-3,2.9594466E-2,5.3E0,-3.2601904E-2,-2.273251E-2,3.289334E-2],"split_indices":[5,3,0,0,0,0,0,0,0],"split_type":[0,0,0,0,0,0,0,0,0],"sum_hessian":[8.322656E0,3.6357555E0,4.6869006E0,1.5495119E0,2.0862436E0,2.77984E0,1.9070605E0,1.7528177E0,1.0270224E0],"tree_param":{"num_deleted":"0","num_feature":"6","num_nodes":"9","size_leaf_vector":"1"}},{"base_weights":[-1.0614513E-2,9.622948E-2,-2.5134927E-2,-1.2191946E-1,3.6349174E-2,2.566572E-2,-3.378953E-1,1.0902597E-2,-6.5507196E-2],"categories":[],"categories_nodes":[],"categories_segments":[],"categories_sizes":[],"default_left":[0,0,0,0,0,0,0,0,0],"id":56,"left_children":[1,3,-1,5,-1,-1,7,-1,-1],"loss_changes":[2.6245272E-1,4.6054444E-1,0E0,4.6933648E-1,0E0,0E0,5.549857E-1,0E0,0E0],"parents":[2147483647,0,0,1,1,3,3,6,6],"right_children":[2,4,-1,6,-1,-1,8,-1,-1],"split_conditions":[7.042857E0,6.785714E0,-2.5134927E-2,2E0,3.6349174E-2,2.566572E-2,6.3E0,1.0902597E-2,-6.5507196E-2],"split_indices":[3,3,0,1,0,0,3,0,0],"split_type":[0,0,0,0,0,0,0,0,0],"sum_hessian":[8.263439E0,6.1390467E0,2.124392E0,3.6795163E0,2.4595306E0,1.2681894E0,2.411327E0,1.2733543E0,1.1379725E0],"tree_param":{"num_deleted":"0","num_feature":"6","num_nodes":"9","size_leaf_vector":"1"}},{"base_weights":[-1.1681386E-2,1.680931E-1,-1.5723191E-1,3.4715082E-2,-2.5128939E-3,6.907771E-3,-3.1535547E-2,2.052634E-2,-2.3484245E-2,-2.2022752E-2,2.4260057E-2],"categories":[],"categories_nodes":[],"categories_segments":[],"categories_sizes":[],"default_left":[0,0,0,0,0,0,0,0,0,0,0],"id":57,"left_children":[1,3,5,-1,7,9,-1,-1,-1,-1,-1],"loss_changes":[2.6600167E-1,1.407713E-1,1.4690408E-1,0E0,2.0933641E-1,2.5228512E-1,0E0,0E0,0E0,0E0,0E0],"parents":[2147483647,0,0,1,1,2,2,4,4,5,5],"right_children":[2,4,6,-1,8,10,-1,-1,-1,-1,-1],"split_conditions":[2.5714285E0,5.1E0,5.6E0,3.4715082E-2,2E0,1E0,-3.1535547E-2,2.052634E-2,-2.3484245E-2,-2.2022752E-2,2.4260057E-2],"split_indices":[5,0,0,0,1,4,0,0,0,0,0],"split_type":[0,0,0,0,0,0,0,0,0,0,0],"sum_hessian":[8.155758E0,3.5795968E0,4.5761614E0,1.2416384E0,2.3379583E0,2.7145967E0,1.8615649E0,1.2956951E0,1.0422634E0,1.415809E0,1.2987877E0],"tree_param":{"num_deleted":"0","num_feature":"6","num_nodes":"11","size_leaf_vector":"1"}},{"base_weights":[-1.0297819E-2,9.363835E-2,-2.4080548E-2,-8.3951265E-2,4.138663E-2,2.2740025E-2,-2.4017951E-1,1.7065542E-2,-6.414377E-2],"categories":[],"categories_nodes":[],"categories_segments":[],"categories_sizes":[],"default_left":[0,0,0,0,0,0,0,0,0],"id":58,"left_children":[1,3,-1,5,-1,-1,7,-1,-1],"loss_changes":[2.3981142E-1,4.311363E-1,0E0,3.131517E-1,0E0,0E0,7.73076E-1,0E0,0E0],"parents":[2147483647,0,0,1,1,3,3,6,6],"right_children":[2,4,-1,6,-1,-1,8,-1,-1],"split_conditions":[7.042857E0,6.9428573E0,-2.4080548E-2,2E0,4.138663E-2,2.2740025E-2,5.1E0,1.7065542E-2,-6.414377E-2],"split_indices":[3,3,0,1,0,0,0,0,0],"split_type":[0,0,0,0,0,0,0,0,0],"sum_hessian":[8.068455E0,5.97024E0,2.0982149E0,4.3150635E0,1.6551765E0,1.28954E0,3.0255237E0,1.7788832E0,1.2466403E0],"tree_param":{"num_deleted":"0","num_feature":"6","num_nodes":"9","size_leaf_vector":"1"}},{"base_weights":[-1.02833705E-2,1.6684404E-1,-1.5440342E-1,-6.164359E-3,2.8357443E-1,-1.4925733E-2,-3.2032482E-2,8.321464E-3,3.4342077E-2,-3.35889E-2,4.079711E-2],"categories":[],"categories_nodes":[],"categories_segments":[],"categories_sizes":[],"default_left":[0,0,0,0,0,0,0,0,0,0,0],"id":59,"left_children":[1,3,5,-1,7,9,-1,-1,-1,-1,-1],"loss_changes":[2.5407773E-1,1.3731825E-1,1.21363014E-1,0E0,9.22209E-3,6.8136245E-1,0E0,0E0,0E0,0E0,0E0],"parents":[2147483647,0,0,1,1,2,2,4,4,5,5],"right_children":[2,4,6,-1,8,10,-1,-1,-1,-1,-1],"split_conditions":[2.5714285E0,2.4285715E0,6.9714284E0,-6.164359E-3,7.1E0,1E0,-3.2032482E-2,8.321464E-3,3.4342077E-2,-3.35889E-2,4.079711E-2],"split_indices":[5,5,3,0,0,4,0,0,0,0,0],"split_type":[0,0,0,0,0,0,0,0,0,0,0],"sum_hessian":[7.9439025E0,3.4931068E0,4.4507957E0,1.3407139E0,2.1523929E0,3.0102558E0,1.44054E0,1.0448401E0,1.1075528E0,1.8283484E0,1.1819074E0],"tree_param":{"num_deleted":"0","num_feature":"6","num_nodes":"11","size_leaf_vector":"1"}},{"base_weights":[-7.942914E-3,1.5895589E-1,-1.4472643E-1,-5.8084005E-3,2.704115E-1,2.294198E-3,-2.84276E-2,7.906755E-3,3.2795157E-2,-1.9382667E-2,2.1370059E-2],"categories":[],"categories_nodes":[],"categories_segments":[],"categories_sizes":[],"default_left":[0,0,0,0,0,0,0,0,0,0,0],"id":60,"left_children":[1,3,5,-1,7,9,-1,-1,-1,-1,-1],"loss_changes":[2.2570707E-1,1.239796E-1,1.1150901E-1,0E0,8.575648E-3,1.9164269E-1,0E0,0E0,0E0,0E0,0E0],"parents":[2147483647,0,0,1,1,2,2,4,4,5,5],"right_children":[2,4,6,-1,8,10,-1,-1,-1,-1,-1],"split_conditions":[2.5714285E0,2.4285715E0,5.6E0,-5.8084005E-3,7.1E0,1E0,-2.84276E-2,7.906755E-3,3.2795157E-2,-1.9382667E-2,2.1370059E-2],"split_indices":[5,5,0,0,0,4,0,0,0,0,0],"split_type":[0,0,0,0,0,0,0,0,0,0,0],"sum_hessian":[7.8791404E0,3.4758828E0,4.403258E0,1.341809E0,2.1340737E0,2.6231902E0,1.7800677E0,1.0422623E0,1.0918115E0,1.4039279E0,1.2192621E0],"tree_param":{"num_deleted":"0","num_feature":"6","num_nodes":"11","size_leaf_vector":"1"}},{"base_weights":[-6.2135616E-3,1.0115876E-1,-2.43433E-2,-7.356814E-2,4.075838E-2,2.2767143E-2,-2.3033221E-1,1.6116565E-2,-6.1739903E-2],"categories":[],"categories_nodes":[],"categories_segments":[],"categories_sizes":[],"default_left":[0,0,0,0,0,0,0,0,0],"id":61,"left_children":[1,3,-1,5,-1,-1,7,-1,-1],"loss_changes":[2.4939555E-1,3.930645E-1,0E0,2.9639044E-1,0E0,0E0,6.897057E-1,0E0,0E0],"parents":[2147483647,0,0,1,1,3,3,6,6],"right_children":[2,4,-1,6,-1,-1,8,-1,-1],"split_conditions":[7.042857E0,6.9428573E0,-2.43433E-2,2E0,4.075838E-2,2.2767143E-2,5.1E0,1.6116565E-2,-6.1739903E-2],"split_indices":[3,3,0,1,0,0,0,0,0],"split_type":[0,0,0,0,0,0,0,0,0],"sum_hessian":[7.8246207E0,5.781371E0,2.0432498E0,4.165864E0,1.6155068E0,1.2710607E0,2.8948035E0,1.7293149E0,1.1654885E0],"tree_param":{"num_deleted":"0","num_feature":"6","num_nodes":"9","size_leaf_vector":"1"}},{"base_weights":[-6.4885546E-3,1.5842883E-1,-1.4288975E-1,-5.731451E-3,2.6812896E-1,-7.853851E-3,-3.0020049E-2,7.648354E-3,3.248864E-2,-3.0447314E-2,3.8787987E-2],"categories":[],"categories_nodes":[],"categories_segments":[],"categories_sizes":[],"default_left":[0,0,0,0,0,0,0,0,0,0,0],"id":62,"left_children":[1,3,5,-1,7,9,-1,-1,-1,-1,-1],"loss_changes":[2.1854311E-1,1.19894534E-1,1.1006474E-1,0E0,8.914024E-3,5.72913E-1,0E0,0E0,0E0,0E0,0E0],"parents":[2147483647,0,0,1,1,2,2,4,4,5,5],"right_children":[2,4,6,-1,8,10,-1,-1,-1,-1,-1],"split_conditions":[2.5714285E0,2.4285715E0,6.9714284E0,-5.731451E-3,7.1E0,1E0,-3.0020049E-2,7.648354E-3,3.248864E-2,-3.0447314E-2,3.8787987E-2],"split_indices":[5,5,3,0,0,4,0,0,0,0,0],"split_type":[0,0,0,0,0,0,0,0,0,0,0],"sum_hessian":[7.7088637E0,3.4165518E0,4.2923117E0,1.3126144E0,2.1039374E0,2.87464E0,1.4176718E0,1.0171183E0,1.0868192E0,1.7748932E0,1.0997468E0],"tree_param":{"num_deleted":"0","num_feature":"6","num_nodes":"11","size_leaf_vector":"1"}},{"base_weights":[-4.345954E-3,1.0086407E-1,-2.3428574E-2,-6.877371E-2,3.9482314E-2,1.2377066E-1,-3.3303373E-2,-1.8176693E-2,3.1304877E-2],"categories":[],"categories_nodes":[],"categories_segments":[],"categories_sizes":[],"default_left":[0,0,0,0,0,0,0,0,0],"id":63,"left_children":[1,3,-1,5,-1,7,-1,-1,-1],"loss_changes":[2.3295043E-1,3.5803387E-1,0E0,2.9863045E-1,0E0,2.6831478E-1,0E0,0E0,0E0],"parents":[2147483647,0,0,1,1,3,3,5,5],"right_children":[2,4,-1,6,-1,8,-1,-1,-1],"split_conditions":[7.042857E0,6.9428573E0,-2.3428574E-2,6.4714284E0,3.9482314E-2,6.2714286E0,-3.3303373E-2,-1.8176693E-2,3.1304877E-2],"split_indices":[3,3,0,3,0,3,0,0,0],"split_type":[0,0,0,0,0,0,0,0,0],"sum_hessian":[7.652434E0,5.635315E0,2.0171187E0,4.058995E0,1.5763199E0,2.655665E0,1.4033301E0,1.0310311E0,1.6246338E0],"tree_param":{"num_deleted":"0","num_feature":"6","num_nodes":"9","size_leaf_vector":"1"}},{"base_weights":[-4.334041E-3,1.5810388E-1,-1.4008613E-1,-5.7055033E-3,2.6584265E-1,-7.0956354E-3,-2.9239928E-2,7.690483E-3,3.203193E-2,-2.9173419E-2,3.7423007E-2],"categories":[],"categories_nodes":[],"categories_segments":[],"categories_sizes":[],"default_left":[0,0,0,0,0,0,0,0,0,0,0],"id":64,"left_children":[1,3,5,-1,7,9,-1,-1,-1,-1,-1],"loss_changes":[2.1125412E-1,1.1655936E-1,1.032942E-1,0E0,7.182747E-3,5.218369E-1,0E0,0E0,0E0,0E0,0E0],"parents":[2147483647,0,0,1,1,2,2,4,4,5,5],"right_children":[2,4,6,-1,8,10,-1,-1,-1,-1,-1],"split_conditions":[2.5714285E0,2.4285715E0,6.9714284E0,-5.7055033E-3,7.1E0,1E0,-2.9239928E-2,7.690483E-3,3.203193E-2,-2.9173419E-2,3.7423007E-2],"split_indices":[5,5,3,0,0,4,0,0,0,0,0],"split_type":[0,0,0,0,0,0,0,0,0,0,0],"sum_hessian":[7.5757337E0,3.3739219E0,4.201812E0,1.2827158E0,2.091206E0,2.801927E0,1.3998846E0,1.0077598E0,1.0834464E0,1.7388897E0,1.0630374E0],"tree_param":{"num_deleted":"0","num_feature":"6","num_nodes":"11","size_leaf_vector":"1"}},{"base_weights":[-2.3385503E-3,1.0041204E-1,-2.2584466E-2,-6.337041E-2,3.8267814E-2,1.22809455E-1,-3.2103073E-2,-1.7006291E-2,3.0334054E-2],"categories":[],"categories_nodes":[],"categories_segments":[],"categories_sizes":[],"default_left":[0,0,0,0,0,0,0,0,0],"id":65,"left_children":[1,3,-1,5,-1,7,-1,-1,-1],"loss_changes":[2.1840796E-1,3.261758E-1,0E0,2.7883932E-1,0E0,2.4301621E-1,0E0,0E0,0E0],"parents":[2147483647,0,0,1,1,3,3,5,5],"right_children":[2,4,-1,6,-1,8,-1,-1,-1],"split_conditions":[7.042857E0,6.9428573E0,-2.2584466E-2,6.4714284E0,3.8267814E-2,6.2714286E0,-3.2103073E-2,-1.7006291E-2,3.0334054E-2],"split_indices":[3,3,0,3,0,3,0,0,0],"split_type":[0,0,0,0,0,0,0,0,0],"sum_hessian":[7.5228453E0,5.5309086E0,1.9919367E0,3.9907844E0,1.540124E0,2.6205776E0,1.3702068E0,1.0214626E0,1.599115E0],"tree_param":{"num_deleted":"0","num_feature":"6","num_nodes":"9","size_leaf_vector":"1"}},{"base_weights":[-2.4021515E-3,8.616544E-2,-2.4789E-2,3.3404705E-1,-1.6961418E-1,1.9186697E-4,5.08183E-2,2.769633E-3,-2.9565603E-2],"categories":[],"categories_nodes":[],"categories_segments":[],"categories_sizes":[],"default_left":[0,0,0,0,0,0,0,0,0],"id":66,"left_children":[1,3,-1,5,7,-1,-1,-1,-1],"loss_changes":[2.0510954E-1,4.9747953E-1,0E0,2.2270998E-1,1.0978144E-1,0E0,0E0,0E0,0E0],"parents":[2147483647,0,0,1,1,3,3,4,4],"right_children":[2,4,-1,6,8,-1,-1,-1,-1],"split_conditions":[7.3E0,2.5714285E0,-2.4789E-2,6.8285713E0,6.4714284E0,1.9186697E-4,5.08183E-2,2.769633E-3,-2.9565603E-2],"split_indices":[0,5,0,3,3,0,0,0,0],"split_type":[0,0,0,0,0,0,0,0,0],"sum_hessian":[7.4512796E0,5.952667E0,1.498612E0,2.8676093E0,3.0850582E0,1.3341025E0,1.5335069E0,1.5066905E0,1.5783676E0],"tree_param":{"num_deleted":"0","num_feature":"6","num_nodes":"9","size_leaf_vector":"1"}},{"base_weights":[-2.1262418E-3,9.93221E-2,-2.2223813E-2,-1.2918538E-1,2.9120198E-1,1.8826513E-2,-3.936137E-2,4.7470564E-3,4.302853E-2],"categories":[],"categories_nodes":[],"categories_segments":[],"categories_sizes":[],"default_left":[0,0,0,0,0,0,0,0,0],"id":67,"left_children":[1,3,-1,5,7,-1,-1,-1,-1],"loss_changes":[2.0957994E-1,3.199447E-1,0E0,3.789595E-1,1.08638614E-1,0E0,0E0,0E0,0E0],"parents":[2147483647,0,0,1,1,3,3,4,4],"right_children":[2,4,-1,6,8,-1,-1,-1,-1],"split_conditions":[7.042857E0,2.857143E0,-2.2223813E-2,5.1E0,6.785714E0,1.8826513E-2,-3.936137E-2,4.7470564E-3,4.302853E-2],"split_indices":[3,5,0,0,3,0,0,0,0],"split_type":[0,0,0,0,0,0,0,0,0],"sum_hessian":[7.397085E0,5.439031E0,1.9580538E0,2.631704E0,2.807327E0,1.3268403E0,1.3048638E0,1.507273E0,1.3000542E0],"tree_param":{"num_deleted":"0","num_feature":"6","num_nodes":"9","size_leaf_vector":"1"}},{"base_weights":[-1.2712777E-3,1.5376505E-1,-1.3179006E-1,-5.689438E-3,2.583909E-2,-2.3380356E-1,3.2227796E-3,2.25417E-2,-6.0493138E-2],"categories":[],"categories_nodes":[],"categories_segments":[],"categories_sizes":[],"default_left":[0,0,0,0,0,0,0,0,0],"id":68,"left_children":[1,3,5,-1,-1,7,-1,-1,-1],"loss_changes":[1.8892297E-1,1.08839266E-1,9.226179E-2,0E0,0E0,6.890862E-1,0E0,0E0,0E0],"parents":[2147483647,0,0,1,1,2,2,5,5],"right_children":[2,4,6,-1,-1,8,-1,-1,-1],"split_conditions":[2.5714285E0,2.4285715E0,3E0,-5.689438E-3,2.583909E-2,2E0,3.2227796E-3,2.25417E-2,-6.0493138E-2],"split_indices":[5,5,5,0,0,1,0,0,0],"split_type":[0,0,0,0,0,0,0,0,0],"sum_hessian":[7.3349137E0,3.2711644E0,4.0637493E0,1.2369112E0,2.0342534E0,2.2431257E0,1.8206235E0,1.1780564E0,1.0650693E0],"tree_param":{"num_deleted":"0","num_feature":"6","num_nodes":"9","size_leaf_vector":"1"}},{"base_weights":[-3.0448807E-3,9.6651495E-2,-2.1639878E-2,-9.5680736E-2,3.26242E-2,2.2963285E-2,-2.9135412E-2],"categories":[],"categories_nodes":[],"categories_segments":[],"categories_sizes":[],"default_left":[0,0,0,0,0,0,0],"id":69,"left_children":[1,3,-1,5,-1,-1,-1],"loss_changes":[1.9660991E-1,3.1032225E-1,0E0,3.3506182E-1,0E0,0E0,0E0],"parents":[2147483647,0,0,1,1,3,3],"right_children":[2,4,-1,6,-1,-1,-1],"split_conditions":[7.042857E0,6.785714E0,-2.1639878E-2,2E0,3.26242E-2,2.2963285E-2,-2.9135412E-2],"split_indices":[3,3,0,1,0,0,0],"split_type":[0,0,0,0,0,0,0],"sum_hessian":[7.2599726E0,5.320698E0,1.939275E0,3.2126532E0,2.1080444E0,1.1414322E0,2.071221E0],"tree_param":{"num_deleted":"0","num_feature":"6","num_nodes":"7","size_leaf_vector":"1"}},{"base_weights":[-2.1139106E-3,1.557153E-1,-1.3714653E-1,-4.7228704E-3,2.5366712E-2,-1.3249116E-2,-2.7262399E-2,2.185352E-2,-2.0478152E-2],"categories":[],"categories_nodes":[],"categories_segments":[],"categories_sizes":[],"default_left":[0,0,0,0,0,0,0,0,0],"id":70,"left_children":[1,3,5,-1,-1,7,-1,-1,-1],"loss_changes":[1.9635725E-1,9.655228E-2,7.959234E-2,0E0,0E0,2.0635678E-1,0E0,0E0,0E0],"parents":[2147483647,0,0,1,1,2,2,5,5],"right_children":[2,4,6,-1,-1,8,-1,-1,-1],"split_conditions":[2.5714285E0,2.4285715E0,6.9714284E0,-4.7228704E-3,2.5366712E-2,2E0,-2.7262399E-2,2.185352E-2,-2.0478152E-2],"split_indices":[5,5,3,0,0,1,0,0,0],"split_type":[0,0,0,0,0,0,0,0,0],"sum_hessian":[7.211368E0,3.2543921E0,3.956976E0,1.2279888E0,2.0264032E0,2.6402233E0,1.3167526E0,1.1307975E0,1.5094258E0],"tree_param":{"num_deleted":"0","num_feature":"6","num_nodes":"9","size_leaf_vector":"1"}},{"base_weights":[-2.5189773E-3,9.381642E-2,-2.0803487E-2,-9.389867E-2,3.1668205E-2,2.079512E-2,-2.7319973E-2],"categories":[],"categories_nodes":[],"categories_segments":[],"categories_sizes":[],"default_left":[0,0,0,0,0,0,0],"id":71,"left_children":[1,3,-1,5,-1,-1,-1],"loss_changes":[1.814315E-1,2.915113E-1,0E0,2.8238168E-1,0E0,0E0,0E0],"parents":[2147483647,0,0,1,1,3,3],"right_children":[2,4,-1,6,-1,-1,-1],"split_conditions":[7.042857E0,6.785714E0,-2.0803487E-2,2E0,3.1668205E-2,2.079512E-2,-2.7319973E-2],"split_indices":[3,3,0,1,0,0,0],"split_type":[0,0,0,0,0,0,0],"sum_hessian":[7.1781335E0,5.257291E0,1.920843E0,3.1677969E0,2.0894938E0,1.1209357E0,2.0468612E0],"tree_param":{"num_deleted":"0","num_feature":"6","num_nodes":"7","size_leaf_vector":"1"}},{"base_weights":[-1.6936836E-3,1.5699434E-1,-1.3874611E-1,3.111769E-2,2.4784435E-4,-2.4072792E-2,2.6209175E-3],"categories":[],"categories_nodes":[],"categories_segments":[],"categories_sizes":[],"default_left":[0,0,0,0,0,0,0],"id":72,"left_children":[1,3,5,-1,-1,-1,-1],"loss_changes":[1.9868416E-1,1.0020753E-1,8.866108E-2,0E0,0E0,0E0,0E0],"parents":[2147483647,0,0,1,1,2,2],"right_children":[2,4,6,-1,-1,-1,-1],"split_conditions":[2.5714285E0,5.1E0,3E0,3.111769E-2,2.4784435E-4,-2.4072792E-2,2.6209175E-3],"split_indices":[5,0,5,0,0,0,0],"split_type":[0,0,0,0,0,0,0],"sum_hessian":[7.133947E0,3.2385924E0,3.8953543E0,1.1135561E0,2.1250362E0,2.1232967E0,1.7720575E0],"tree_param":{"num_deleted":"0","num_feature":"6","num_nodes":"7","size_leaf_vector":"1"}},{"base_weights":[-2.7500797E-4,8.362621E-2,-2.337795E-2,3.2118207E-1,-1.654747E-1,1.9410305E-3,5.2763052E-2,3.2268127E-3,-2.8936971E-2],"categories":[],"categories_nodes":[],"categories_segments":[],"categories_sizes":[],"default_left":[0,0,0,0,0,0,0,0,0],"id":73,"left_children":[1,3,-1,5,7,-1,-1,-1,-1],"loss_changes":[1.783057E-1,4.4949847E-1,0E0,2.245324E-1,1.05607115E-1,0E0,0E0,0E0,0E0],"parents":[2147483647,0,0,1,1,3,3,4,4],"right_children":[2,4,-1,6,8,-1,-1,-1,-1],"split_conditions":[7.3E0,2.5714285E0,-2.337795E-2,6.2E0,6.4714284E0,1.9410305E-3,5.2763052E-2,3.2268127E-3,-2.8936971E-2],"split_indices":[0,5,0,0,3,0,0,0,0],"split_type":[0,0,0,0,0,0,0,0,0],"sum_hessian":[7.1033688E0,5.697902E0,1.4054664E0,2.7684224E0,2.92948E0,1.5689954E0,1.199427E0,1.4133126E0,1.5161675E0],"tree_param":{"num_deleted":"0","num_feature":"6","num_nodes":"9","size_leaf_vector":"1"}},{"base_weights":[5.582769E-4,9.600033E-2,-2.0426897E-2,-1.2959434E-1,2.8701493E-1,1.8002842E-2,-3.864744E-2,5.8310274E-3,4.0338926E-2],"categories":[],"categories_nodes":[],"categories_segments":[],"categories_sizes":[],"default_left":[0,0,0,0,0,0,0,0,0],"id":74,"left_children":[1,3,-1,5,7,-1,-1,-1,-1],"loss_changes":[1.770736E-1,3.0327946E-1,0E0,3.4954816E-1,7.375035E-2,0E0,0E0,0E0,0E0],"parents":[2147483647,0,0,1,1,3,3,4,4],"right_children":[2,4,-1,6,8,-1,-1,-1,-1],"split_conditions":[7.042857E0,2.857143E0,-2.0426897E-2,5.1E0,6.785714E0,1.8002842E-2,-3.864744E-2,5.8310274E-3,4.0338926E-2],"split_indices":[3,5,0,0,3,0,0,0,0],"split_type":[0,0,0,0,0,0,0,0,0],"sum_hessian":[7.0547657E0,5.1748056E0,1.8799603E0,2.520068E0,2.6547375E0,1.2783816E0,1.2416863E0,1.4014989E0,1.2532386E0],"tree_param":{"num_deleted":"0","num_feature":"6","num_nodes":"9","size_leaf_vector":"1"}},{"base_weights":[1.1863103E-3,1.4706115E-1,-1.2451697E-1,-4.8086024E-3,2.4209447E-2,-2.1892129E-2,2.6549194E-3],"categories":[],"categories_nodes":[],"categories_segments":[],"categories_sizes":[],"default_left":[0,0,0,0,0,0,0],"id":75,"left_children":[1,3,5,-1,-1,-1,-1],"loss_changes":[1.6498075E-1,8.880404E-2,7.480594E-2,0E0,0E0,0E0,0E0],"parents":[2147483647,0,0,1,1,2,2],"right_children":[2,4,6,-1,-1,-1,-1],"split_conditions":[2.5714285E0,2.4285715E0,3E0,-4.8086024E-3,2.4209447E-2,-2.1892129E-2,2.6549194E-3],"split_indices":[5,5,5,0,0,0,0],"split_type":[0,0,0,0,0,0,0],"sum_hessian":[6.9985585E0,3.1607254E0,3.8378332E0,1.1969154E0,1.96381E0,2.0854306E0,1.7524025E0],"tree_param":{"num_deleted":"0","num_feature":"6","num_nodes":"7","size_leaf_vector":"1"}},{"base_weights":[1.1074842E-3,9.544051E-2,-2.0029427E-2,-1.24082826E-1,2.794214E-1,1.6895605E-2,-3.6545686E-2,6.59962E-3,3.8490526E-2],"categories":[],"categories_nodes":[],"categories_segments":[],"categories_sizes":[],"default_left":[0,0,0,0,0,0,0,0,0],"id":76,"left_children":[1,3,-1,5,7,-1,-1,-1,-1],"loss_changes":[1.7065229E-1,2.8140852E-1,0E0,3.0775216E-1,5.6345522E-2,0E0,0E0,0E0,0E0],"parents":[2147483647,0,0,1,1,3,3,4,4],"right_children":[2,4,-1,6,8,-1,-1,-1,-1],"split_conditions":[7.042857E0,2.857143E0,-2.0029427E-2,5.1E0,6.785714E0,1.6895605E-2,-3.6545686E-2,6.59962E-3,3.8490526E-2],"split_indices":[3,5,0,0,3,0,0,0,0],"split_type":[0,0,0,0,0,0,0,0,0],"sum_hessian":[6.9760737E0,5.1091547E0,1.866919E0,2.4780033E0,2.6311514E0,1.2547295E0,1.2232739E0,1.4080005E0,1.2231508E0],"tree_param":{"num_deleted":"0","num_feature":"6","num_nodes":"9","size_leaf_vector":"1"}},{"base_weights":[1.7241093E-3,8.2606085E-2,-2.2680577E-2,3.131456E-1,-1.5864104E-1,8.4043806E-4,5.20849E-2,4.257128E-3,-2.9009277E-2],"categories":[],"categories_nodes":[],"categories_segments":[],"categories_sizes":[],"default_left":[0,0,0,0,0,0,0,0,0],"id":77,"left_children":[1,3,-1,5,7,-1,-1,-1,-1],"loss_changes":[1.6521855E-1,4.1598755E-1,0E0,2.3007926E-1,1.15031354E-1,0E0,0E0,0E0,0E0],"parents":[2147483647,0,0,1,1,3,3,4,4],"right_children":[2,4,-1,6,8,-1,-1,-1,-1],"split_conditions":[7.3E0,2.5714285E0,-2.2680577E-2,6.2E0,6.4714284E0,8.4043806E-4,5.20849E-2,4.257128E-3,-2.9009277E-2],"split_indices":[0,5,0,0,3,0,0,0,0],"split_type":[0,0,0,0,0,0,0,0,0],"sum_hessian":[6.924876E0,5.586292E0,1.3385845E0,2.7041426E0,2.8821492E0,1.5177588E0,1.1863838E0,1.4060551E0,1.4760942E0],"tree_param":{"num_deleted":"0","num_feature":"6","num_nodes":"9","size_leaf_vector":"1"}},{"base_weights":[2.3674825E-3,9.55301E-2,-1.9749556E-2,-5.7594653E-2,3.6366675E-2,1.24805026E-1,-3.067109E-2,2.7401108E-2,-5.332589E-3],"categories":[],"categories_nodes":[],"categories_segments":[],"categories_sizes":[],"default_left":[0,0,0,0,0,0,0,0,0],"id":78,"left_children":[1,3,-1,5,-1,7,-1,-1,-1],"loss_changes":[1.6552791E-1,2.691997E-1,0E0,2.5237975E-1,0E0,1.0580045E-1,0E0,0E0,0E0],"parents":[2147483647,0,0,1,1,3,3,5,5],"right_children":[2,4,-1,6,-1,8,-1,-1,-1],"split_conditions":[7.042857E0,6.9428573E0,-1.9749556E-2,6.4714284E0,3.6366675E-2,2E0,-3.067109E-2,2.7401108E-2,-5.332589E-3],"split_indices":[3,3,0,3,0,1,0,0,0],"split_type":[0,0,0,0,0,0,0,0,0],"sum_hessian":[6.876638E0,5.0463796E0,1.8302586E0,3.7118552E0,1.3345244E0,2.4309523E0,1.2809029E0,1.029971E0,1.4009813E0],"tree_param":{"num_deleted":"0","num_feature":"6","num_nodes":"9","size_leaf_vector":"1"}},{"base_weights":[3.234508E-3,8.22134E-2,-2.2033023E-2,3.0559564E-1,-1.511509E-1,1.2838544E-3,5.0496835E-2,3.0405812E-3,-2.6572464E-2],"categories":[],"categories_nodes":[],"categories_segments":[],"categories_sizes":[],"default_left":[0,0,0,0,0,0,0,0,0],"id":79,"left_children":[1,3,-1,5,7,-1,-1,-1,-1],"loss_changes":[1.5623108E-1,3.8547698E-1,0E0,2.0692784E-1,8.821187E-2,0E0,0E0,0E0,0E0],"parents":[2147483647,0,0,1,1,3,3,4,4],"right_children":[2,4,-1,6,8,-1,-1,-1,-1],"split_conditions":[7.3E0,2.5714285E0,-2.2033023E-2,6.2E0,6.4714284E0,1.2838544E-3,5.0496835E-2,3.0405812E-3,-2.6572464E-2],"split_indices":[0,5,0,0,3,0,0,0,0],"split_type":[0,0,0,0,0,0,0,0,0],"sum_hessian":[6.8222685E0,5.5085278E0,1.3137408E0,2.6563144E0,2.8522134E0,1.507342E0,1.1489725E0,1.3877554E0,1.4644579E0],"tree_param":{"num_deleted":"0","num_feature":"6","num_nodes":"9","size_leaf_vector":"1"}},{"base_weights":[3.8283723E-3,9.598785E-2,-1.9480217E-2,-1.2721261E-1,2.8133142E-1,1.6512387E-2,-3.698274E-2,6.0021398E-3,3.9076935E-2],"categories":[],"categories_nodes":[],"categories_segments":[],"categories_sizes":[],"default_left":[0,0,0,0,0,0,0,0,0],"id":80,"left_children":[1,3,-1,5,7,-1,-1,-1,-1],"loss_changes":[1.610819E-1,2.8329423E-1,0E0,3.0241668E-1,6.325269E-2,0E0,0E0,0E0,0E0],"parents":[2147483647,0,0,1,1,3,3,4,4],"right_children":[2,4,-1,6,8,-1,-1,-1,-1],"split_conditions":[7.042857E0,2.857143E0,-1.9480217E-2,5.1E0,6.785714E0,1.6512387E-2,-3.698274E-2,6.0021398E-3,3.9076935E-2],"split_indices":[3,5,0,0,3,0,0,0,0],"split_type":[0,0,0,0,0,0,0,0,0],"sum_hessian":[6.778089E0,4.982902E0,1.795187E0,2.4028738E0,2.580028E0,1.2346239E0,1.16825E0,1.3660318E0,1.2139963E0],"tree_param":{"num_deleted":"0","num_feature":"6","num_nodes":"9","size_leaf_vector":"1"}},{"base_weights":[4.172018E-3,7.9929106E-2,-2.1156294E-2,2.992955E-1,-1.4828081E-1,1.1003467E-3,4.9516484E-2,2.8412507E-3,-2.596513E-2],"categories":[],"categories_nodes":[],"categories_segments":[],"categories_sizes":[],"default_left":[0,0,0,0,0,0,0,0,0],"id":81,"left_children":[1,3,-1,5,7,-1,-1,-1,-1],"loss_changes":[1.4318393E-1,3.6697912E-1,0E0,1.9879383E-1,8.2687914E-2,0E0,0E0,0E0,0E0],"parents":[2147483647,0,0,1,1,3,3,4,4],"right_children":[2,4,-1,6,8,-1,-1,-1,-1],"split_conditions":[7.3E0,2.5714285E0,-2.1156294E-2,6.2E0,6.4714284E0,1.1003467E-3,4.9516484E-2,2.8412507E-3,-2.596513E-2],"split_indices":[0,5,0,0,3,0,0,0,0],"split_type":[0,0,0,0,0,0,0,0,0],"sum_hessian":[6.726268E0,5.444049E0,1.2822189E0,2.6169846E0,2.8270645E0,1.4859916E0,1.1309929E0,1.380977E0,1.4460874E0],"tree_param":{"num_deleted":"0","num_feature":"6","num_nodes":"9","size_leaf_vector":"1"}},{"base_weights":[4.6976E-3,9.570515E-2,-1.9220373E-2,-1.2431315E-1,2.765783E-1,1.5700517E-2,-3.5879835E-2,5.8395625E-3,3.8449254E-2],"categories":[],"categories_nodes":[],"categories_segments":[],"categories_sizes":[],"default_left":[0,0,0,0,0,0,0,0,0],"id":82,"left_children":[1,3,-1,5,7,-1,-1,-1,-1],"loss_changes":[1.5608375E-1,2.700709E-1,0E0,2.7810806E-1,6.1379313E-2,0E0,0E0,0E0,0E0],"parents":[2147483647,0,0,1,1,3,3,4,4],"right_children":[2,4,-1,6,8,-1,-1,-1,-1],"split_conditions":[7.042857E0,2.857143E0,-1.9220373E-2,5.1E0,6.785714E0,1.5700517E-2,-3.5879835E-2,5.8395625E-3,3.8449254E-2],"split_indices":[3,5,0,0,3,0,0,0,0],"split_type":[0,0,0,0,0,0,0,0,0],"sum_hessian":[6.6837406E0,4.9225073E0,1.7612333E0,2.3620098E0,2.5604978E0,1.2239861E0,1.1380236E0,1.3573389E0,1.203159E0],"tree_param":{"num_deleted":"0","num_feature":"6","num_nodes":"9","size_leaf_vector":"1"}},{"base_weights":[4.9346625E-3,9.100744E-2,-1.8000089E-2,-5.73056E-2,3.5406258E-2,1.1680812E-1,-2.930562E-2,2.0241072E-2,-4.085015E-3],"categories":[],"categories_nodes":[],"categories_segments":[],"categories_sizes":[],"default_left":[0,0,0,0,0,0,0,0,0],"id":83,"left_children":[1,3,-1,5,-1,7,-1,-1,-1],"loss_changes":[1.3789994E-1,2.4944787E-1,0E0,2.2373459E-1,0E0,5.375652E-2,0E0,0E0,0E0],"parents":[2147483647,0,0,1,1,3,3,5,5],"right_children":[2,4,-1,6,-1,8,-1,-1,-1],"split_conditions":[7.042857E0,6.9428573E0,-1.8000089E-2,6.4714284E0,3.5406258E-2,5.2E0,-2.930562E-2,2.0241072E-2,-4.085015E-3],"split_indices":[3,3,0,3,0,0,0,0,0],"split_type":[0,0,0,0,0,0,0,0,0],"sum_hessian":[6.6340714E0,4.873665E0,1.7604066E0,3.616692E0,1.2569727E0,2.3704913E0,1.2462008E0,1.3523551E0,1.0181361E0],"tree_param":{"num_deleted":"0","num_feature":"6","num_nodes":"9","size_leaf_vector":"1"}},{"base_weights":[5.08348E-3,7.939652E-2,-2.0860894E-2,2.9530817E-1,-1.4362352E-1,7.131232E-4,4.8855137E-2,3.123761E-3,-2.4143223E-2],"categories":[],"categories_nodes":[],"categories_segments":[],"categories_sizes":[],"default_left":[0,0,0,0,0,0,0,0,0],"id":84,"left_children":[1,3,-1,5,7,-1,-1,-1,-1],"loss_changes":[1.3702372E-1,3.483106E-1,0E0,1.9448677E-1,7.249326E-2,0E0,0E0,0E0,0E0],"parents":[2147483647,0,0,1,1,3,3,4,4],"right_children":[2,4,-1,6,8,-1,-1,-1,-1],"split_conditions":[7.3E0,2.5714285E0,-2.0860894E-2,6.2E0,2E0,7.131232E-4,4.8855137E-2,3.123761E-3,-2.4143223E-2],"split_indices":[0,5,0,0,1,0,0,0,0],"split_type":[0,0,0,0,0,0,0,0,0],"sum_hessian":[6.5856357E0,5.3526635E0,1.2329724E0,2.5549834E0,2.7976801E0,1.4417919E0,1.1131914E0,1.2476941E0,1.5499859E0],"tree_param":{"num_deleted":"0","num_feature":"6","num_nodes":"9","size_leaf_vector":"1"}},{"base_weights":[5.710917E-3,9.2341535E-2,-1.8091373E-2,-1.2889856E-1,2.7341425E-1,1.4563806E-2,-3.5439048E-2,5.898488E-3,3.781994E-2],"categories":[],"categories_nodes":[],"categories_segments":[],"categories_sizes":[],"default_left":[0,0,0,0,0,0,0,0,0],"id":85,"left_children":[1,3,-1,5,7,-1,-1,-1,-1],"loss_changes":[1.3859288E-1,2.6803476E-1,0E0,2.5559357E-1,5.669269E-2,0E0,0E0,0E0,0E0],"parents":[2147483647,0,0,1,1,3,3,4,4],"right_children":[2,4,-1,6,8,-1,-1,-1,-1],"split_conditions":[7.042857E0,2.857143E0,-1.8091373E-2,5.1E0,6.785714E0,1.4563806E-2,-3.5439048E-2,5.898488E-3,3.781994E-2],"split_indices":[3,5,0,0,3,0,0,0,0],"split_type":[0,0,0,0,0,0,0,0,0],"sum_hessian":[6.5390587E0,4.8110056E0,1.7280531E0,2.29502E0,2.5159857E0,1.1946565E0,1.1003637E0,1.3389363E0,1.1770493E0],"tree_param":{"num_deleted":"0","num_feature":"6","num_nodes":"9","size_leaf_vector":"1"}},{"base_weights":[5.8425977E-3,1.3870719E-1,-1.0844592E-1,-5.1706857E-3,2.32233E-2,1.6859692E-2,-2.1891583E-2,2.1584906E-2,-1.9411739E-2],"categories":[],"categories_nodes":[],"categories_segments":[],"categories_sizes":[],"default_left":[0,0,0,0,0,0,0,0,0],"id":86,"left_children":[1,3,5,-1,-1,7,-1,-1,-1],"loss_changes":[1.2880349E-1,8.1517056E-2,6.720894E-2,0E0,0E0,1.7113979E-1,0E0,0E0,0E0],"parents":[2147483647,0,0,1,1,2,2,5,5],"right_children":[2,4,6,-1,-1,8,-1,-1,-1],"split_conditions":[2.5714285E0,2.4285715E0,6.8E0,-5.1706857E-3,2.32233E-2,2E0,-2.1891583E-2,2.1584906E-2,-1.9411739E-2],"split_indices":[5,5,3,0,0,1,0,0,0],"split_type":[0,0,0,0,0,0,0,0,0],"sum_hessian":[6.4917374E0,2.9031088E0,3.5886285E0,1.1035244E0,1.7995845E0,2.0784414E0,1.510187E0,1.0577245E0,1.020717E0],"tree_param":{"num_deleted":"0","num_feature":"6","num_nodes":"9","size_leaf_vector":"1"}},{"base_weights":[5.0824923E-3,8.92778E-2,-1.752319E-2,-1.2643555E-1,2.659577E-1,1.3510975E-2,-3.3864923E-2,5.2932883E-3,3.7113536E-2],"categories":[],"categories_nodes":[],"categories_segments":[],"categories_sizes":[],"default_left":[0,0,0,0,0,0,0,0,0],"id":87,"left_children":[1,3,-1,5,7,-1,-1,-1,-1],"loss_changes":[1.2896124E-1,2.5279808E-1,0E0,2.2709046E-1,5.8406115E-2,0E0,0E0,0E0,0E0],"parents":[2147483647,0,0,1,1,3,3,4,4],"right_children":[2,4,-1,6,8,-1,-1,-1,-1],"split_conditions":[7.042857E0,2.857143E0,-1.752319E-2,5.1E0,6.785714E0,1.3510975E-2,-3.3864923E-2,5.2932883E-3,3.7113536E-2],"split_indices":[3,5,0,0,3,0,0,0,0],"split_type":[0,0,0,0,0,0,0,0,0],"sum_hessian":[6.464084E0,4.750692E0,1.7133926E0,2.2671034E0,2.4835882E0,1.1782663E0,1.0888371E0,1.317804E0,1.1657842E0],"tree_param":{"num_deleted":"0","num_feature":"6","num_nodes":"9","size_leaf_vector":"1"}},{"base_weights":[5.248024E-3,1.3803697E-1,-1.0955064E-1,-4.438929E-3,2.263916E-2,-1.9839201E-2,3.1069354E-3],"categories":[],"categories_nodes":[],"categories_segments":[],"categories_sizes":[],"default_left":[0,0,0,0,0,0,0],"id":88,"left_children":[1,3,5,-1,-1,-1,-1],"loss_changes":[1.2823121E-1,7.2634034E-2,6.284483E-2,0E0,0E0,0E0,0E0],"parents":[2147483647,0,0,1,1,2,2],"right_children":[2,4,6,-1,-1,-1,-1],"split_conditions":[2.5714285E0,2.4285715E0,3E0,-4.438929E-3,2.263916E-2,-1.9839201E-2,3.1069354E-3],"split_indices":[5,5,5,0,0,0,0],"split_type":[0,0,0,0,0,0,0],"sum_hessian":[6.419918E0,2.882857E0,3.5370607E0,1.1030288E0,1.7798283E0,1.9158322E0,1.6212286E0],"tree_param":{"num_deleted":"0","num_feature":"6","num_nodes":"7","size_leaf_vector":"1"}},{"base_weights":[4.947597E-3,8.8411815E-2,-1.728794E-2,-5.770134E-2,3.4910478E-2,1.12061985E-1,-2.838314E-2,1.2660011E-3,1.6037397E-2],"categories":[],"categories_nodes":[],"categories_segments":[],"categories_sizes":[],"default_left":[0,0,0,0,0,0,0,0,0],"id":89,"left_children":[1,3,-1,5,-1,7,-1,-1,-1],"loss_changes":[1.2513764E-1,2.3721528E-1,0E0,2.0494384E-1,0E0,1.3784006E-2,0E0,0E0,0E0],"parents":[2147483647,0,0,1,1,3,3,5,5],"right_children":[2,4,-1,6,-1,8,-1,-1,-1],"split_conditions":[7.042857E0,6.9428573E0,-1.728794E-2,6.4714284E0,3.4910478E-2,2.857143E0,-2.838314E-2,1.2660011E-3,1.6037397E-2],"split_indices":[3,3,0,3,0,5,0,0,0],"split_type":[0,0,0,0,0,0,0,0,0],"sum_hessian":[6.4014044E0,4.69881E0,1.7025946E0,3.51012E0,1.1886901E0,2.293071E0,1.2170489E0,1.1627527E0,1.1303183E0],"tree_param":{"num_deleted":"0","num_feature":"6","num_nodes":"9","size_leaf_vector":"1"}},{"base_weights":[5.4104435E-3,7.797652E-2,-2.0456214E-2,2.8461367E-1,-1.3610488E-1,-5.0495536E-4,4.7929455E-2,3.3082664E-3,-2.3188034E-2],"categories":[],"categories_nodes":[],"categories_segments":[],